FANN_FLO_2.1
num_layers=102
learning_rate=0.700000
connection_rate=1.000000
network_type=1
learning_momentum=0.000000
training_algorithm=2
train_error_function=0
train_stop_function=1
cascade_output_change_fraction=0.010000
quickprop_decay=-0.000100
quickprop_mu=1.750000
rprop_increase_factor=1.200000
rprop_decrease_factor=0.500000
rprop_delta_min=0.000000
rprop_delta_max=50.000000
rprop_delta_zero=0.100000
cascade_output_stagnation_epochs=12
cascade_candidate_change_fraction=0.010000
cascade_candidate_stagnation_epochs=12
cascade_max_out_epochs=150
cascade_min_out_epochs=50
cascade_max_cand_epochs=150
cascade_min_cand_epochs=50
cascade_num_candidate_groups=8
bit_fail_limit=8.99999976158142090000e-001
cascade_candidate_limit=1.00000000000000000000e+003
cascade_weight_multiplier=4.00000005960464480000e-001
cascade_activation_functions_count=1
cascade_activation_functions=5 
cascade_activation_steepnesses_count=1
cascade_activation_steepnesses=1.00000000000000000000e+000 
layer_sizes=73 1 1 1 1 1 1 1 1 1 1 1 1 1 1 1 1 1 1 1 1 1 1 1 1 1 1 1 1 1 1 1 1 1 1 1 1 1 1 1 1 1 1 1 1 1 1 1 1 1 1 1 1 1 1 1 1 1 1 1 1 1 1 1 1 1 1 1 1 1 1 1 1 1 1 1 1 1 1 1 1 1 1 1 1 1 1 1 1 1 1 1 1 1 1 1 1 1 1 1 1 1 
scale_included=1
scale_mean_in=-0.221930 -0.220090 -0.241436 -0.199576 -0.153065 -0.182831 -0.196816 -0.196853 -0.211641 -0.178106 -0.225676 -0.179983 -0.124154 -0.143696 -0.210801 -0.157666 -0.243356 -0.235878 -0.223778 -0.204199 -0.178136 -0.225691 -0.167941 -0.180078 -0.192055 -0.180881 -0.181860 -0.185526 -0.190302 -0.111118 -0.140023 -0.208866 -0.106496 -0.133487 -0.186541 -0.152072 -0.193077 -0.193997 -0.171695 -0.151137 -0.255428 -0.190324 -0.200518 -0.210742 -0.200497 -0.215372 -0.276825 -0.261029 -0.173506 -0.221959 -0.177259 -0.187439 -0.204301 -0.184657 -0.171658 -0.181838 -0.221930 -0.249812 -0.207938 -0.191215 -0.232147 -0.210684 -0.218162 -0.218184 -0.988749 -0.987864 -0.988574 -0.987783 -0.988877 -0.987809 -0.988637 -0.987610 
scale_deviation_in=0.931103 0.928538 0.932746 0.937141 0.939927 0.938573 0.933245 0.928232 0.939958 0.948850 0.927188 0.946524 0.950570 0.949287 0.927686 0.946575 0.924224 0.930172 0.932658 0.940608 0.944910 0.925178 0.940357 0.933635 0.948580 0.950772 0.944199 0.951348 0.934100 0.952176 0.942943 0.938100 0.948296 0.946358 0.939827 0.948472 0.936020 0.937324 0.935709 0.949113 0.925497 0.931099 0.935444 0.935688 0.938432 0.938116 0.921858 0.921917 0.942320 0.927084 0.937650 0.944097 0.926623 0.943166 0.940681 0.947153 0.931104 0.931040 0.937808 0.936401 0.932110 0.943633 0.937968 0.934972 0.017714 0.007450 0.018107 0.007427 0.017913 0.007492 0.018424 0.007328 
scale_new_min_in=-1.000000 -1.000000 -1.000000 -1.000000 -1.000000 -1.000000 -1.000000 -1.000000 -1.000000 -1.000000 -1.000000 -1.000000 -1.000000 -1.000000 -1.000000 -1.000000 -1.000000 -1.000000 -1.000000 -1.000000 -1.000000 -1.000000 -1.000000 -1.000000 -1.000000 -1.000000 -1.000000 -1.000000 -1.000000 -1.000000 -1.000000 -1.000000 -1.000000 -1.000000 -1.000000 -1.000000 -1.000000 -1.000000 -1.000000 -1.000000 -1.000000 -1.000000 -1.000000 -1.000000 -1.000000 -1.000000 -1.000000 -1.000000 -1.000000 -1.000000 -1.000000 -1.000000 -1.000000 -1.000000 -1.000000 -1.000000 -1.000000 -1.000000 -1.000000 -1.000000 -1.000000 -1.000000 -1.000000 -1.000000 -1.000000 -1.000000 -1.000000 -1.000000 -1.000000 -1.000000 -1.000000 -1.000000 
scale_factor_in=1.000000 1.000000 1.000000 1.000000 1.000000 1.000000 1.000000 1.000000 1.000000 1.000000 1.000000 1.000000 1.000000 1.000000 1.000000 1.000000 1.000000 1.000000 1.000000 1.000000 1.000000 1.000000 1.000000 1.000000 1.000000 1.000000 1.000000 1.000000 1.000000 1.000000 1.000000 1.000000 1.000000 1.000000 1.000000 1.000000 1.000000 1.000000 1.000000 1.000000 1.000000 1.000000 1.000000 1.000000 1.000000 1.000000 1.000000 1.000000 1.000000 1.000000 1.000000 1.000000 1.000000 1.000000 1.000000 1.000000 1.000000 1.000000 1.000000 1.000000 1.000000 1.000000 1.000000 1.000000 1.000000 1.000000 1.000000 1.000000 1.000000 1.000000 1.000000 1.000000 
scale_mean_out=0.180633 
scale_deviation_out=0.983556 
scale_new_min_out=-1.000000 
scale_factor_out=1.000000 
neurons (num_inputs, activation_function, activation_steepness)=(0, 0, 0.00000000000000000000e+000) (0, 0, 0.00000000000000000000e+000) (0, 0, 0.00000000000000000000e+000) (0, 0, 0.00000000000000000000e+000) (0, 0, 0.00000000000000000000e+000) (0, 0, 0.00000000000000000000e+000) (0, 0, 0.00000000000000000000e+000) (0, 0, 0.00000000000000000000e+000) (0, 0, 0.00000000000000000000e+000) (0, 0, 0.00000000000000000000e+000) (0, 0, 0.00000000000000000000e+000) (0, 0, 0.00000000000000000000e+000) (0, 0, 0.00000000000000000000e+000) (0, 0, 0.00000000000000000000e+000) (0, 0, 0.00000000000000000000e+000) (0, 0, 0.00000000000000000000e+000) (0, 0, 0.00000000000000000000e+000) (0, 0, 0.00000000000000000000e+000) (0, 0, 0.00000000000000000000e+000) (0, 0, 0.00000000000000000000e+000) (0, 0, 0.00000000000000000000e+000) (0, 0, 0.00000000000000000000e+000) (0, 0, 0.00000000000000000000e+000) (0, 0, 0.00000000000000000000e+000) (0, 0, 0.00000000000000000000e+000) (0, 0, 0.00000000000000000000e+000) (0, 0, 0.00000000000000000000e+000) (0, 0, 0.00000000000000000000e+000) (0, 0, 0.00000000000000000000e+000) (0, 0, 0.00000000000000000000e+000) (0, 0, 0.00000000000000000000e+000) (0, 0, 0.00000000000000000000e+000) (0, 0, 0.00000000000000000000e+000) (0, 0, 0.00000000000000000000e+000) (0, 0, 0.00000000000000000000e+000) (0, 0, 0.00000000000000000000e+000) (0, 0, 0.00000000000000000000e+000) (0, 0, 0.00000000000000000000e+000) (0, 0, 0.00000000000000000000e+000) (0, 0, 0.00000000000000000000e+000) (0, 0, 0.00000000000000000000e+000) (0, 0, 0.00000000000000000000e+000) (0, 0, 0.00000000000000000000e+000) (0, 0, 0.00000000000000000000e+000) (0, 0, 0.00000000000000000000e+000) (0, 0, 0.00000000000000000000e+000) (0, 0, 0.00000000000000000000e+000) (0, 0, 0.00000000000000000000e+000) (0, 0, 0.00000000000000000000e+000) (0, 0, 0.00000000000000000000e+000) (0, 0, 0.00000000000000000000e+000) (0, 0, 0.00000000000000000000e+000) (0, 0, 0.00000000000000000000e+000) (0, 0, 0.00000000000000000000e+000) (0, 0, 0.00000000000000000000e+000) (0, 0, 0.00000000000000000000e+000) (0, 0, 0.00000000000000000000e+000) (0, 0, 0.00000000000000000000e+000) (0, 0, 0.00000000000000000000e+000) (0, 0, 0.00000000000000000000e+000) (0, 0, 0.00000000000000000000e+000) (0, 0, 0.00000000000000000000e+000) (0, 0, 0.00000000000000000000e+000) (0, 0, 0.00000000000000000000e+000) (0, 0, 0.00000000000000000000e+000) (0, 0, 0.00000000000000000000e+000) (0, 0, 0.00000000000000000000e+000) (0, 0, 0.00000000000000000000e+000) (0, 0, 0.00000000000000000000e+000) (0, 0, 0.00000000000000000000e+000) (0, 0, 0.00000000000000000000e+000) (0, 0, 0.00000000000000000000e+000) (0, 0, 0.00000000000000000000e+000) (73, 5, 1.00000000000000000000e+000) (74, 5, 1.00000000000000000000e+000) (75, 5, 1.00000000000000000000e+000) (76, 5, 1.00000000000000000000e+000) (77, 5, 1.00000000000000000000e+000) (78, 5, 1.00000000000000000000e+000) (79, 5, 1.00000000000000000000e+000) (80, 5, 1.00000000000000000000e+000) (81, 5, 1.00000000000000000000e+000) (82, 5, 1.00000000000000000000e+000) (83, 5, 1.00000000000000000000e+000) (84, 5, 1.00000000000000000000e+000) (85, 5, 1.00000000000000000000e+000) (86, 5, 1.00000000000000000000e+000) (87, 5, 1.00000000000000000000e+000) (88, 5, 1.00000000000000000000e+000) (89, 5, 1.00000000000000000000e+000) (90, 5, 1.00000000000000000000e+000) (91, 5, 1.00000000000000000000e+000) (92, 5, 1.00000000000000000000e+000) (93, 5, 1.00000000000000000000e+000) (94, 5, 1.00000000000000000000e+000) (95, 5, 1.00000000000000000000e+000) (96, 5, 1.00000000000000000000e+000) (97, 5, 1.00000000000000000000e+000) (98, 5, 1.00000000000000000000e+000) (99, 5, 1.00000000000000000000e+000) (100, 5, 1.00000000000000000000e+000) (101, 5, 1.00000000000000000000e+000) (102, 5, 1.00000000000000000000e+000) (103, 5, 1.00000000000000000000e+000) (104, 5, 1.00000000000000000000e+000) (105, 5, 1.00000000000000000000e+000) (106, 5, 1.00000000000000000000e+000) (107, 5, 1.00000000000000000000e+000) (108, 5, 1.00000000000000000000e+000) (109, 5, 1.00000000000000000000e+000) (110, 5, 1.00000000000000000000e+000) (111, 5, 1.00000000000000000000e+000) (112, 5, 1.00000000000000000000e+000) (113, 5, 1.00000000000000000000e+000) (114, 5, 1.00000000000000000000e+000) (115, 5, 1.00000000000000000000e+000) (116, 5, 1.00000000000000000000e+000) (117, 5, 1.00000000000000000000e+000) (118, 5, 1.00000000000000000000e+000) (119, 5, 1.00000000000000000000e+000) (120, 5, 1.00000000000000000000e+000) (121, 5, 1.00000000000000000000e+000) (122, 5, 1.00000000000000000000e+000) (123, 5, 1.00000000000000000000e+000) (124, 5, 1.00000000000000000000e+000) (125, 5, 1.00000000000000000000e+000) (126, 5, 1.00000000000000000000e+000) (127, 5, 1.00000000000000000000e+000) (128, 5, 1.00000000000000000000e+000) (129, 5, 1.00000000000000000000e+000) (130, 5, 1.00000000000000000000e+000) (131, 5, 1.00000000000000000000e+000) (132, 5, 1.00000000000000000000e+000) (133, 5, 1.00000000000000000000e+000) (134, 5, 1.00000000000000000000e+000) (135, 5, 1.00000000000000000000e+000) (136, 5, 1.00000000000000000000e+000) (137, 5, 1.00000000000000000000e+000) (138, 5, 1.00000000000000000000e+000) (139, 5, 1.00000000000000000000e+000) (140, 5, 1.00000000000000000000e+000) (141, 5, 1.00000000000000000000e+000) (142, 5, 1.00000000000000000000e+000) (143, 5, 1.00000000000000000000e+000) (144, 5, 1.00000000000000000000e+000) (145, 5, 1.00000000000000000000e+000) (146, 5, 1.00000000000000000000e+000) (147, 5, 1.00000000000000000000e+000) (148, 5, 1.00000000000000000000e+000) (149, 5, 1.00000000000000000000e+000) (150, 5, 1.00000000000000000000e+000) (151, 5, 1.00000000000000000000e+000) (152, 5, 1.00000000000000000000e+000) (153, 5, 1.00000000000000000000e+000) (154, 5, 1.00000000000000000000e+000) (155, 5, 1.00000000000000000000e+000) (156, 5, 1.00000000000000000000e+000) (157, 5, 1.00000000000000000000e+000) (158, 5, 1.00000000000000000000e+000) (159, 5, 1.00000000000000000000e+000) (160, 5, 1.00000000000000000000e+000) (161, 5, 1.00000000000000000000e+000) (162, 5, 1.00000000000000000000e+000) (163, 5, 1.00000000000000000000e+000) (164, 5, 1.00000000000000000000e+000) (165, 5, 1.00000000000000000000e+000) (166, 5, 1.00000000000000000000e+000) (167, 5, 1.00000000000000000000e+000) (168, 5, 1.00000000000000000000e+000) (169, 5, 1.00000000000000000000e+000) (170, 5, 1.00000000000000000000e+000) (171, 5, 1.00000000000000000000e+000) (172, 5, 1.00000000000000000000e+000) (173, 0, 5.00000000000000000000e-001) 
connections (connected_to_neuron, weight)=(0, -4.38100755214691160000e-001) (1, 1.03124618530273440000e-001) (2, 6.44632756710052490000e-001) (3, 7.49348402023315430000e-001) (4, 4.65828895568847660000e-001) (5, -2.54038751125335690000e-001) (6, -8.71239125728607180000e-001) (7, -2.31176450848579410000e-001) (8, -4.22139614820480350000e-001) (9, 1.00698396563529970000e-001) (10, 7.57526814937591550000e-001) (11, 6.54874086380004880000e-001) (12, 3.04424673318862920000e-001) (13, 3.98415327072143550000e-001) (14, -3.18633466958999630000e-001) (15, 5.06813406944274900000e-001) (16, 4.96649235486984250000e-001) (17, -1.24397672712802890000e-001) (18, 5.89422166347503660000e-001) (19, -1.39769673347473140000e-001) (20, -3.16882640123367310000e-001) (21, 5.82300245761871340000e-001) (22, -3.75259339809417720000e-001) (23, 1.03661403059959410000e-001) (24, -5.20060420036315920000e-001) (25, 8.28736722469329830000e-001) (26, 1.69042915105819700000e-001) (27, 2.17539504170417790000e-001) (28, 5.81604242324829100000e-002) (29, 2.62439638376235960000e-001) (30, -4.01054382324218750000e-001) (31, -3.05604219436645510000e-001) (32, 1.15272767841815950000e-001) (33, -6.69428229331970210000e-001) (34, 1.01882719993591310000e+000) (35, -6.88415706157684330000e-001) (36, 4.90246593952178960000e-001) (37, -2.23660245537757870000e-001) (38, -1.83607656508684160000e-002) (39, -1.10532961785793300000e-001) (40, -6.13430500030517580000e-001) (41, 6.09443664550781250000e-001) (42, 6.50773406028747560000e-001) (43, -2.62832164764404300000e-001) (44, 7.62229859828948970000e-002) (45, -1.47146984934806820000e-001) (46, 2.20389530062675480000e-001) (47, 2.58258670568466190000e-001) (48, 3.90848785638809200000e-001) (49, 2.72495150566101070000e-001) (50, 5.98495185375213620000e-001) (51, 1.15701176226139070000e-001) (52, 2.80737906694412230000e-001) (53, -1.53979346156120300000e-001) (54, 1.83549389243125920000e-001) (55, 1.59205108880996700000e-001) (56, 3.23388609103858470000e-003) (57, -1.94518223404884340000e-001) (58, 2.13626086711883540000e-001) (59, 2.54620641469955440000e-001) (60, 9.75373864173889160000e-001) (61, 7.88623392581939700000e-001) (62, -4.56072896718978880000e-001) (63, -1.83098331093788150000e-001) (64, -2.82898724079132080000e-001) (65, 3.62918347120285030000e-001) (66, 4.69870090484619140000e-001) (67, -3.00121773034334180000e-003) (68, -1.29435563087463380000e+000) (69, -1.25611674785614010000e+000) (70, -1.95207446813583370000e-002) (71, -2.00931906700134280000e-001) (72, 3.08394646644592290000e+000) (0, 1.67921853065490720000e+000) (1, -9.40220654010772710000e-001) (2, -4.53830152750015260000e-001) (3, 7.33997076749801640000e-002) (4, -6.43073558807373050000e-001) (5, 1.43238872289657590000e-001) (6, 1.51933133602142330000e+000) (7, -6.16991996765136720000e-001) (8, 7.60905921459198000000e-001) (9, 6.39553010463714600000e-001) (10, -1.35524690151214600000e+000) (11, 2.72451847791671750000e-001) (12, 3.04435759782791140000e-001) (13, -2.01547220349311830000e-001) (14, 7.30328783392906190000e-002) (15, -3.07931005954742430000e-001) (16, 1.60899966955184940000e-001) (17, -2.49950841069221500000e-001) (18, 1.62108421325683590000e-001) (19, 5.50821423530578610000e-001) (20, 5.66782474517822270000e-001) (21, 4.78240787982940670000e-001) (22, 1.62156629562377930000e+000) (23, 6.01080775260925290000e-001) (24, -1.04586207866668700000e+000) (25, -5.08175194263458250000e-001) (26, -8.41681897640228270000e-001) (27, -2.02936434745788570000e+000) (28, -9.17631864547729490000e-001) (29, 2.85742580890655520000e-001) (30, 1.31455600261688230000e+000) (31, -1.72603741288185120000e-001) (32, 1.26889824867248540000e+000) (33, 5.08195936679840090000e-001) (34, 7.47381210327148440000e-001) (35, -1.06722676753997800000e+000) (36, 6.32420480251312260000e-002) (37, 8.25740247964859010000e-002) (38, -9.66089963912963870000e-002) (39, 2.01612740755081180000e-001) (40, -6.69594645500183110000e-001) (41, -7.78258502483367920000e-001) (42, 1.35000157356262210000e+000) (43, 1.09896883368492130000e-001) (44, -8.38184356689453130000e-001) (45, 1.10875844955444340000e+000) (46, -1.60851335525512700000e+000) (47, 1.34267580509185790000e+000) (48, -3.56652438640594480000e-001) (49, 1.02074372768402100000e+000) (50, 2.80788391828536990000e-001) (51, -2.32373788952827450000e-001) (52, 6.88482999801635740000e-001) (53, 6.96512401103973390000e-001) (54, 2.64396756887435910000e-001) (55, 1.00135791301727290000e+000) (56, -1.30088019371032710000e+000) (57, 4.73431289196014400000e-001) (58, 1.07450866699218750000e+000) (59, 1.88192594051361080000e+000) (60, 4.66119021177291870000e-001) (61, 1.09149575233459470000e+000) (62, -4.82609361410140990000e-001) (63, -7.23923504352569580000e-001) (64, 7.93895781040191650000e-001) (65, 1.37085962295532230000e+000) (66, 4.95690077543258670000e-001) (67, 1.27188730239868160000e+000) (68, 4.78765428066253660000e-001) (69, -2.76775181293487550000e-001) (70, 1.47149133682250980000e+000) (71, 9.09296035766601560000e-001) (72, 3.25329089164733890000e+000) (73, -1.72689095139503480000e-001) (0, -3.86771380901336670000e-001) (1, 1.37908506393432620000e+000) (2, 8.61570611596107480000e-002) (3, -3.30619700253009800000e-002) (4, -1.79628938436508180000e-001) (5, 1.58796095848083500000e+000) (6, 5.20200431346893310000e-001) (7, 7.93375253677368160000e-001) (8, -5.75799681246280670000e-002) (9, 4.13376420736312870000e-001) (10, 8.63759815692901610000e-001) (11, -1.05739986896514890000e+000) (12, 2.11541607975959780000e-001) (13, -4.66667085886001590000e-001) (14, -1.01565897464752200000e+000) (15, -1.16411244869232180000e+000) (16, -2.29925978928804400000e-002) (17, 6.16514086723327640000e-001) (18, 3.59522104263305660000e-001) (19, -3.88635009527206420000e-001) (20, 1.62303972244262700000e+000) (21, 4.25036251544952390000e-001) (22, -7.50595182180404660000e-002) (23, -6.83831691741943360000e-001) (24, -4.30332541465759280000e-001) (25, 1.94276079535484310000e-001) (26, -4.95300814509391780000e-002) (27, -2.28469461202621460000e-001) (28, -2.07709863781929020000e-001) (29, 4.17872071266174320000e-001) (30, 5.16768217086791990000e-001) (31, 7.84269988536834720000e-001) (32, -4.46397900581359860000e-001) (33, -4.57472056150436400000e-001) (34, 3.52103233337402340000e-001) (35, 1.81304156780242920000e-001) (36, 3.37162196636199950000e-001) (37, 1.30093467235565190000e+000) (38, 8.99778962135314940000e-001) (39, -1.00757610797882080000e+000) (40, 5.60228049755096440000e-001) (41, 1.01258981227874760000e+000) (42, 6.26636445522308350000e-001) (43, 1.09212374687194820000e+000) (44, 6.37128412723541260000e-001) (45, 1.83023929595947270000e-001) (46, 1.24539732933044430000e+000) (47, -1.20163130760192870000e+000) (48, -7.12251067161560060000e-001) (49, -4.44407045841217040000e-001) (50, 1.34312903881073000000e+000) (51, 3.05518627166748050000e-001) (52, 1.12992808222770690000e-001) (53, 3.34995001554489140000e-001) (54, 7.43402600288391110000e-001) (55, 1.46873652935028080000e+000) (56, -1.27453815937042240000e+000) (57, -3.66806298494338990000e-001) (58, -3.87183134444057940000e-003) (59, -1.05301153659820560000e+000) (60, -7.91617274284362790000e-001) (61, -1.25837564468383790000e+000) (62, -3.98986339569091800000e-001) (63, 2.45265707373619080000e-001) (64, 4.76131588220596310000e-001) (65, 1.11293041706085210000e+000) (66, 7.95310676097869870000e-001) (67, -2.64458537101745610000e-001) (68, 4.33693110942840580000e-001) (69, 7.00456023216247560000e-001) (70, -1.42130348831415180000e-002) (71, -6.19058847427368160000e-001) (72, 3.32719302177429200000e+000) (73, -1.10479965806007390000e-002) (74, -1.20205724239349370000e+000) (0, 1.04799520969390870000e+000) (1, -2.02139839529991150000e-002) (2, -3.30392755568027500000e-002) (3, 1.14999973773956300000e+000) (4, 3.83078396320343020000e-001) (5, 4.44530814886093140000e-001) (6, -1.64550766348838810000e-002) (7, -2.38629996776580810000e-001) (8, 2.80276089906692500000e-002) (9, -1.60693392157554630000e-001) (10, -1.14442873001098630000e+000) (11, -1.49134963750839230000e-001) (12, -3.36261808872222900000e-001) (13, 1.18575207889080050000e-001) (14, 1.90064355731010440000e-001) (15, 1.97136092185974120000e+000) (16, 7.62435942888259890000e-002) (17, -1.45000731945037840000e+000) (18, 8.16974937915802000000e-001) (19, 1.11762046813964840000e+000) (20, -1.25892758369445800000e+000) (21, -2.05882644653320310000e+000) (22, -1.09588813781738280000e+000) (23, -2.44522973895072940000e-001) (24, -6.27438127994537350000e-001) (25, 3.10926914215087890000e-001) (26, -2.96653788536787030000e-002) (27, -1.87228739261627200000e-001) (28, -3.09799343347549440000e-001) (29, 6.58484324812889100000e-002) (30, 1.61698365211486820000e+000) (31, 9.06676575541496280000e-002) (32, 6.21650934219360350000e-001) (33, 5.47929525375366210000e-001) (34, 7.20858693122863770000e-001) (35, -9.26679298281669620000e-002) (36, -9.90251004695892330000e-001) (37, 1.18583416938781740000e+000) (38, -4.72203880548477170000e-001) (39, -9.69584360718727110000e-002) (40, 7.33516335487365720000e-001) (41, -1.23161137104034420000e+000) (42, 5.45631468296051030000e-001) (43, 9.05081331729888920000e-002) (44, 7.26963758468627930000e-001) (45, 6.41341879963874820000e-002) (46, -1.51773635298013690000e-002) (47, 1.27861452102661130000e+000) (48, 2.59051561355590820000e+000) (49, -1.27633082866668700000e+000) (50, -1.69638156890869140000e-001) (51, 4.32543218135833740000e-001) (52, 2.16725707054138180000e-001) (53, 6.74845576286315920000e-001) (54, -1.10400342941284180000e+000) (55, -1.95004010200500490000e+000) (56, 4.59314048290252690000e-001) (57, 5.40302276611328130000e-001) (58, 7.27239310741424560000e-001) (59, 6.30639195442199710000e-001) (60, 1.06154513359069820000e+000) (61, -3.00411641597747800000e-001) (62, -4.46184910833835600000e-002) (63, -2.93406158685684200000e-001) (64, -3.36896032094955440000e-001) (65, 8.33785295486450200000e-001) (66, 4.90821003913879390000e-001) (67, 2.95626580715179440000e-001) (68, 2.99891918897628780000e-001) (69, 6.99619174003601070000e-001) (70, -4.71807271242141720000e-001) (71, -6.68004631996154790000e-001) (72, 9.39282953739166260000e-001) (73, 4.64402675628662110000e-001) (74, 4.08528327941894530000e-001) (75, -8.33742320537567140000e-001) (0, -1.33780217170715330000e+000) (1, 1.83762323856353760000e+000) (2, 5.70398628711700440000e-001) (3, -2.16541624069213870000e+000) (4, 7.04687476158142090000e-001) (5, 1.24088931083679200000e+000) (6, 9.20589827001094820000e-003) (7, 2.95919060707092290000e-001) (8, 1.08139419555664060000e+000) (9, 1.78973162174224850000e+000) (10, -2.15662956237792970000e+000) (11, 1.18977606296539310000e+000) (12, 5.30082821846008300000e-001) (13, -5.25000989437103270000e-001) (14, -1.64694344997406010000e+000) (15, 2.04831548035144810000e-002) (16, -1.05434370040893550000e+000) (17, 5.92186093330383300000e-001) (18, -4.55957502126693730000e-001) (19, 8.25379490852355960000e-002) (20, -7.85841345787048340000e-001) (21, 7.26428449153900150000e-001) (22, -6.59698128700256350000e-001) (23, 2.27471888065338130000e-001) (24, 1.24589264392852780000e+000) (25, 1.94940388202667240000e-001) (26, 2.00189590454101560000e-001) (27, -2.84741461277008060000e-001) (28, -2.64692097902297970000e-001) (29, -2.56454665213823320000e-002) (30, -1.42527592182159420000e+000) (31, 1.82965219020843510000e-001) (32, 8.13012540340423580000e-001) (33, -1.38035690784454350000e+000) (34, -8.50543916225433350000e-001) (35, 5.35502433776855470000e-001) (36, 6.86436831951141360000e-001) (37, 9.00867104530334470000e-001) (38, -2.28298947215080260000e-001) (39, 9.00920927524566650000e-001) (40, 9.49108973145484920000e-002) (41, -3.99195253849029540000e-001) (42, -7.68601000308990480000e-001) (43, 7.80217230319976810000e-001) (44, 1.02892625331878660000e+000) (45, -8.87163162231445310000e-001) (46, 1.03607285022735600000e+000) (47, 1.66266500949859620000e+000) (48, -3.32425206899642940000e-001) (49, 1.67854487895965580000e+000) (50, -2.16019093990325930000e-001) (51, -1.99695038795471190000e+000) (52, 4.04840022325515750000e-001) (53, 3.09601396322250370000e-001) (54, 4.13994014263153080000e-001) (55, 4.23516273498535160000e-001) (56, -1.35474729537963870000e+000) (57, -1.02661997079849240000e-001) (58, 5.02849817276000980000e-001) (59, 7.08266615867614750000e-001) (60, 5.07532000541687010000e-001) (61, -5.47230802476406100000e-002) (62, -8.84891748428344730000e-001) (63, 1.12501466274261470000e+000) (64, -2.33254656195640560000e-001) (65, -3.57255548238754270000e-001) (66, -1.89407467842102050000e-001) (67, -2.06017866730690000000e-001) (68, -9.74805235862731930000e-001) (69, -4.48241412639617920000e-001) (70, 6.60029752179980280000e-003) (71, 1.56364753842353820000e-001) (72, 2.12335157394409180000e+000) (73, -1.91059970855712890000e+000) (74, 7.78126895427703860000e-001) (75, -1.00063472986221310000e-001) (76, 2.31587007641792300000e-001) (0, -1.55234754085540770000e+000) (1, 1.12325215339660640000e+000) (2, 1.13637185096740720000e+000) (3, 4.27361488342285160000e-001) (4, 5.07060348987579350000e-001) (5, 3.08780342340469360000e-001) (6, 7.44930863380432130000e-001) (7, 7.78030157089233400000e-002) (8, 7.28995084762573240000e-001) (9, 5.28935529291629790000e-002) (10, 1.02909767627716060000e+000) (11, 3.72824877500534060000e-001) (12, -2.51403123140335080000e-001) (13, -7.82681405544281010000e-002) (14, -1.79710209369659420000e-001) (15, 1.55859351158142090000e+000) (16, -6.78007960319519040000e-001) (17, -6.13238476216793060000e-002) (18, 1.06248199939727780000e+000) (19, 1.47968697547912600000e+000) (20, -3.91132682561874390000e-001) (21, -5.73083162307739260000e-001) (22, 2.15052843093872070000e-001) (23, -1.87069034576416020000e+000) (24, 1.79062992334365840000e-001) (25, 1.54004633426666260000e+000) (26, 3.57966601848602290000e-001) (27, 1.34525895118713380000e+000) (28, -1.38366150856018070000e+000) (29, -3.45421075820922850000e-001) (30, -1.95836710929870610000e+000) (31, -1.20813190937042240000e+000) (32, -2.31887578964233400000e-001) (33, -5.10234415531158450000e-001) (34, -5.98679304122924800000e-001) (35, -3.93559932708740230000e-001) (36, 3.51069644093513490000e-002) (37, 8.81916821002960210000e-001) (38, -4.57968503236770630000e-001) (39, -7.87119209766387940000e-001) (40, 3.50397169589996340000e-001) (41, -1.40512257814407350000e-001) (42, 9.98442888259887700000e-001) (43, 2.84829705953598020000e-001) (44, -5.92585355043411250000e-002) (45, -1.23730897903442380000e-001) (46, 1.44692650064826010000e-002) (47, -3.37628066539764400000e-001) (48, 1.16801083087921140000e+000) (49, -7.42388486862182620000e-001) (50, 1.07371471822261810000e-001) (51, 1.45927691459655760000e+000) (52, -8.95940959453582760000e-001) (53, -6.58980786800384520000e-001) (54, -4.63467180728912350000e-001) (55, -1.61112570762634280000e+000) (56, 8.86223316192626950000e-001) (57, 9.33470487594604490000e-001) (58, 4.47341382503509520000e-001) (59, 2.25640207529067990000e-001) (60, 1.50914967060089110000e+000) (61, -1.42624303698539730000e-001) (62, -4.40524607896804810000e-001) (63, 6.83613836765289310000e-001) (64, 1.09425440430641170000e-001) (65, 8.26478004455566410000e-001) (66, -2.34395816922187810000e-001) (67, 1.19595146179199220000e+000) (68, 7.39286899566650390000e-001) (69, -1.39857470989227290000e-001) (70, 8.79066765308380130000e-001) (71, -3.87106984853744510000e-001) (72, 2.21608281135559080000e+000) (73, 1.09432530403137210000e+000) (74, 1.07647204399108890000e+000) (75, 7.76138126850128170000e-001) (76, -1.75396847724914550000e+000) (77, 1.51497447490692140000e+000) (0, -2.15778388082981110000e-002) (1, 3.04566323757171630000e-001) (2, -6.00085914134979250000e-001) (3, -4.26526218652725220000e-001) (4, 8.89472603797912600000e-001) (5, -1.12820237874984740000e-001) (6, -6.68808460235595700000e-001) (7, -6.24313294887542720000e-001) (8, 5.45657098293304440000e-001) (9, 1.10670876502990720000e+000) (10, 7.03539967536926270000e-001) (11, 2.75938771665096280000e-002) (12, -1.13809394836425780000e+000) (13, -4.14681643247604370000e-001) (14, -9.39686954021453860000e-001) (15, -2.24670469760894780000e-001) (16, 7.75252699851989750000e-001) (17, -4.40923124551773070000e-001) (18, 7.18046724796295170000e-001) (19, 1.09129118919372560000e+000) (20, 1.87664866447448730000e+000) (21, -1.69998788833618160000e+000) (22, 5.57003021240234380000e-001) (23, -2.16135430335998540000e+000) (24, 1.47228097915649410000e+000) (25, 5.99016487598419190000e-001) (26, -1.90555542707443240000e-001) (27, 7.31026649475097660000e-001) (28, -1.00124323368072510000e+000) (29, 5.22162675857543950000e-001) (30, 1.18116617202758790000e+000) (31, 6.88476720824837680000e-003) (32, 1.49511294439435010000e-002) (33, 6.36826276779174800000e-001) (34, -3.70464086532592770000e-001) (35, -4.78827297687530520000e-001) (36, -2.98128247261047360000e-001) (37, 1.21038222312927250000e+000) (38, 1.06151616573333740000e+000) (39, -1.19524955749511720000e+000) (40, 1.28208136558532710000e+000) (41, 3.21892678737640380000e-001) (42, 9.90605652332305910000e-001) (43, -9.11010980606079100000e-001) (44, -1.32938194274902340000e+000) (45, 1.72256410121917720000e-001) (46, 1.36203145980834960000e+000) (47, -1.70755553245544430000e+000) (48, -6.57427251338958740000e-001) (49, -2.30990457534790040000e+000) (50, -9.31513965129852290000e-001) (51, -3.87302726507186890000e-001) (52, 1.40867471694946290000e-001) (53, -9.06868398189544680000e-001) (54, -5.92158198356628420000e-001) (55, 2.64465749263763430000e-001) (56, -8.91502320766448970000e-001) (57, 2.56586402654647830000e-001) (58, -2.22956395149230960000e+000) (59, -4.79348003864288330000e-001) (60, -8.19395482540130620000e-002) (61, 5.02251207828521730000e-001) (62, 2.24186730384826660000e+000) (63, 1.93913280963897710000e-001) (64, 1.21534742414951320000e-001) (65, 8.75868976116180420000e-001) (66, 1.51588439941406250000e-001) (67, 1.21220862865448000000e+000) (68, 1.41163563728332520000e+000) (69, 1.36069595813751220000e+000) (70, 1.75014662742614750000e+000) (71, 4.26225438714027400000e-002) (72, 4.08401012420654300000e+000) (73, 2.67834812402725220000e-001) (74, -5.81593751907348630000e-001) (75, 5.16060650348663330000e-001) (76, -1.38133978843688960000e+000) (77, 1.30692446231842040000e+000) (78, 1.46622657775878910000e+000) (0, -8.41904640197753910000e-001) (1, 4.45178635418415070000e-002) (2, 1.19068193435668950000e+000) (3, -2.15657036751508710000e-002) (4, -8.77490162849426270000e-001) (5, 6.98925673961639400000e-001) (6, 7.54210114479064940000e-001) (7, -5.41708208620548250000e-002) (8, -5.38594305515289310000e-001) (9, -8.23845505714416500000e-001) (10, 2.87829160690307620000e-001) (11, -6.93168699741363530000e-001) (12, 9.37660217285156250000e-001) (13, 6.27422809600830080000e-001) (14, -3.55214327573776250000e-001) (15, 2.76119202375411990000e-001) (16, 1.00184988975524900000e+000) (17, -1.66377019882202150000e+000) (18, -1.99670065194368360000e-002) (19, 4.23329293727874760000e-001) (20, 4.06964898109436040000e-001) (21, -4.41211432218551640000e-001) (22, -1.29219508171081540000e+000) (23, -3.16667854785919190000e-001) (24, 6.79051041603088380000e-001) (25, -5.21469116210937500000e-001) (26, -1.87469172477722170000e+000) (27, 4.20500516891479490000e-001) (28, 6.17343425750732420000e-001) (29, 8.88842284679412840000e-001) (30, -1.32496416568756100000e-001) (31, -6.17538213729858400000e-001) (32, -7.15509176254272460000e-001) (33, 7.02282547950744630000e-001) (34, -1.12077303230762480000e-001) (35, 2.55542695522308350000e-001) (36, 7.72803962230682370000e-001) (37, 9.03477907180786130000e-001) (38, 8.24649274349212650000e-001) (39, 6.65727019309997560000e-001) (40, -6.62989914417266850000e-001) (41, -4.51759807765483860000e-002) (42, -3.28179180622100830000e-001) (43, 2.33223408460617070000e-001) (44, -1.09185075759887700000e+000) (45, 8.87835264205932620000e-001) (46, -1.91117316484451290000e-001) (47, 2.84365683794021610000e-001) (48, 2.19624251127243040000e-001) (49, 3.72071444988250730000e-001) (50, 8.49575757980346680000e-001) (51, 2.43900403380393980000e-001) (52, -5.54862737655639650000e+000) (53, 1.69028699398040770000e+000) (54, -6.37921512126922610000e-001) (55, -2.80275392532348630000e+000) (56, 1.53937768936157230000e+000) (57, 6.63058996200561520000e-001) (58, 3.41045945882797240000e-001) (59, -5.00360243022441860000e-002) (60, -1.66082930564880370000e+000) (61, 1.76619619131088260000e-001) (62, 5.78089356422424320000e-001) (63, 2.04804706573486330000e+000) (64, -6.41917645931243900000e-001) (65, -5.26787161827087400000e-001) (66, 1.24279177188873290000e+000) (67, 3.14015358686447140000e-001) (68, 3.66785615682601930000e-001) (69, 4.17058795690536500000e-001) (70, 1.15882802009582520000e+000) (71, 5.73570072650909420000e-001) (72, 2.07404375076293950000e+000) (73, 8.74805971980094910000e-002) (74, -6.83269858360290530000e-001) (75, 8.09574246406555180000e-001) (76, 2.56016682833433150000e-002) (77, -2.87939190864562990000e+000) (78, -2.60701209306716920000e-001) (79, 2.10652923583984370000e+000) (0, 2.46751353144645690000e-001) (1, -1.74428212642669680000e+000) (2, -5.10997593402862550000e-001) (3, 1.00319969654083250000e+000) (4, 1.29390406608581540000e+000) (5, -2.16856021434068680000e-002) (6, 6.02254152297973630000e-001) (7, -9.68577682971954350000e-001) (8, -5.92558264732360840000e-001) (9, 3.98288130760192870000e-001) (10, 1.05440366268157960000e+000) (11, -3.11963081359863280000e-001) (12, 3.60801190137863160000e-001) (13, 2.01237320899963380000e-001) (14, 3.30508530139923100000e-001) (15, -4.77304793894290920000e-002) (16, -2.29232788085937500000e+000) (17, -3.56662064790725710000e-001) (18, 2.66758859157562260000e-001) (19, -9.57693636417388920000e-001) (20, -1.20934987068176270000e+000) (21, 8.70846509933471680000e-001) (22, 2.69333392381668090000e-001) (23, 1.43055230379104610000e-001) (24, -1.47981300950050350000e-001) (25, -6.21731281280517580000e-001) (26, 9.37055051326751710000e-002) (27, -3.69006186723709110000e-001) (28, -5.48081576824188230000e-001) (29, 1.35277837514877320000e-001) (30, 5.78096091747283940000e-001) (31, 5.43869495391845700000e-001) (32, 3.82687300443649290000e-001) (33, 4.08711642026901250000e-001) (34, 7.69665956497192380000e-001) (35, -1.98183301836252210000e-002) (36, 1.06530249118804930000e-001) (37, -1.18130266666412350000e+000) (38, 6.59807384014129640000e-001) (39, 4.67180341482162480000e-001) (40, 2.03493341803550720000e-001) (41, -4.93185445666313170000e-002) (42, 1.73501551151275630000e-001) (43, 9.39984977245330810000e-001) (44, 2.08900738507509230000e-002) (45, -9.85117256641387940000e-001) (46, 1.28638958930969240000e+000) (47, 3.01564782857894900000e-001) (48, 2.06028208136558530000e-001) (49, 9.37373161315917970000e-001) (50, -8.89380335807800290000e-001) (51, 3.06293606758117680000e-001) (52, -6.07676319777965550000e-002) (53, -7.75723397731781010000e-001) (54, -5.54656609892845150000e-003) (55, 2.52466976642608640000e-001) (56, -1.17412519454956050000e+000) (57, -6.12385749816894530000e-001) (58, -1.29514932632446290000e+000) (59, 8.03227066993713380000e-001) (60, -3.88541877269744870000e-001) (61, 5.47235548496246340000e-001) (62, -1.17975568771362300000e+000) (63, -1.01652121543884280000e+000) (64, 8.14296543598175050000e-001) (65, -4.99188929796218870000e-001) (66, 9.91498649120330810000e-001) (67, 9.14205729961395260000e-001) (68, -9.55693796277046200000e-002) (69, 5.87691009044647220000e-001) (70, 1.94653674960136410000e-001) (71, -7.96425163745880130000e-001) (72, 4.29034680128097530000e-001) (73, 1.97681710124015810000e-001) (74, -6.13958060741424560000e-001) (75, 1.03248727321624760000e+000) (76, 7.16369867324829100000e-001) (77, 6.71738088130950930000e-001) (78, 3.23517858982086180000e-001) (79, 8.45760405063629150000e-001) (80, 3.10155928134918210000e-001) (0, 5.14843523502349850000e-001) (1, -1.01702988147735600000e+000) (2, 7.85763740539550780000e-001) (3, 1.00933897495269780000e+000) (4, -1.23359692096710210000e+000) (5, -1.13490939140319820000e+000) (6, 5.09445369243621830000e-001) (7, -8.40401768684387210000e-001) (8, -1.05343055725097660000e+000) (9, 1.52598977088928220000e+000) (10, -5.25177061557769780000e-001) (11, -4.89410847425460820000e-001) (12, 2.69407987594604490000e-001) (13, 5.34403860569000240000e-001) (14, 2.15288579463958740000e-001) (15, -2.53572732210159300000e-001) (16, -6.05561077594757080000e-001) (17, 1.72455847263336180000e-001) (18, -1.37005102634429930000e+000) (19, -9.90196406841278080000e-001) (20, -4.70017939805984500000e-001) (21, -7.78309047222137450000e-001) (22, 1.17611980438232420000e+000) (23, 6.06032073497772220000e-001) (24, 2.34853848814964290000e-001) (25, 1.03935265541076660000e+000) (26, -9.25118923187255860000e-001) (27, -3.16612303256988530000e-001) (28, 4.34580534696578980000e-001) (29, -7.86705762147903440000e-002) (30, 8.13706398010253910000e-001) (31, 1.89792597293853760000e+000) (32, -6.36932775378227230000e-002) (33, 9.54127132892608640000e-001) (34, 4.75839078426361080000e-001) (35, -3.05897425860166550000e-002) (36, 5.42712926864624020000e-001) (37, -3.26087325811386110000e-002) (38, 8.64765048027038570000e-001) (39, 6.39557898044586180000e-001) (40, -1.91365629434585570000e-001) (41, 2.01848506927490230000e-001) (42, -4.42251145839691160000e-001) (43, 6.56330823898315430000e-001) (44, -1.10282802581787110000e+000) (45, 3.76885175704956050000e-001) (46, -2.18129801750183110000e+000) (47, 3.32910418510437010000e-001) (48, 4.32408273220062260000e-001) (49, -6.04455411434173580000e-001) (50, -6.39484375715255740000e-002) (51, -5.91840088367462160000e-001) (52, -7.03622877597808840000e-001) (53, -1.05243906378746030000e-001) (54, 2.22258463501930240000e-001) (55, -1.47624388337135310000e-001) (56, 1.49070084095001220000e+000) (57, -1.29015707969665530000e+000) (58, 3.08207631111145020000e-001) (59, 4.89829093217849730000e-001) (60, -5.62838725745677950000e-002) (61, -2.00586676597595210000e-001) (62, -7.47360706329345700000e-001) (63, 5.34036517143249510000e-001) (64, -7.71849930286407470000e-001) (65, 6.75583660602569580000e-001) (66, 3.45668524503707890000e-001) (67, -3.26608508825302120000e-001) (68, -3.51503610610961910000e-001) (69, 5.16866207122802730000e-001) (70, 1.23093977570533750000e-001) (71, 9.41524982452392580000e-001) (72, 2.71727234125137330000e-001) (73, 1.37801122665405270000e+000) (74, 1.03153750300407410000e-001) (75, 1.49087160825729370000e-002) (76, 3.56834024190902710000e-001) (77, 1.21817719936370850000e+000) (78, 5.59388816356658940000e-001) (79, 7.65968143939971920000e-001) (80, 1.47870385646820070000e+000) (81, 6.05460166931152340000e-001) (0, -3.85116368532180790000e-001) (1, -4.94289724156260490000e-003) (2, 1.12474668025970460000e+000) (3, -5.12578308582305910000e-001) (4, -1.29823267459869380000e-001) (5, 4.69383090734481810000e-001) (6, -1.07939589023590090000e+000) (7, -1.62690305709838870000e+000) (8, -7.31228291988372800000e-002) (9, -2.49489098787307740000e-001) (10, 1.63884922862052920000e-001) (11, -4.21115010976791380000e-002) (12, -4.43831473588943480000e-001) (13, 4.37408149242401120000e-001) (14, -4.68537747859954830000e-001) (15, 1.10930931568145750000e+000) (16, 6.90007030963897710000e-001) (17, -1.14162409305572510000e+000) (18, 9.84259366989135740000e-001) (19, -2.28773340582847600000e-001) (20, 9.84932184219360350000e-001) (21, -1.27467441558837890000e+000) (22, 4.83963102102279660000e-001) (23, 2.51909434795379640000e-001) (24, -1.42103314399719240000e+000) (25, 1.78767725825309750000e-001) (26, -2.63747811317443850000e-001) (27, 1.30416369438171390000e+000) (28, -6.83382213115692140000e-001) (29, 2.57669061422348020000e-001) (30, 3.26604664325714110000e-001) (31, -1.33053576946258540000e+000) (32, -1.57275900244712830000e-001) (33, 1.38256132602691650000e+000) (34, -1.74800014495849610000e+000) (35, -8.90887796878814700000e-001) (36, -3.10220062732696530000e-001) (37, -1.01108086109161380000e+000) (38, 6.87862575054168700000e-001) (39, 6.24976038932800290000e-001) (40, -1.53258049488067630000e+000) (41, 1.06544971466064450000e+000) (42, 4.02989566326141360000e-001) (43, 1.13527333736419680000e+000) (44, 1.92687794566154480000e-001) (45, 2.29588627815246580000e-001) (46, -1.74921417236328130000e+000) (47, -1.88564404845237730000e-001) (48, -4.90016162395477290000e-001) (49, 1.50955513119697570000e-001) (50, 1.22440904378890990000e-001) (51, -2.06520795822143550000e-001) (52, 3.68874311447143550000e-001) (53, -7.90702641010284420000e-001) (54, 6.38608932495117190000e-001) (55, 5.79981446266174320000e-001) (56, -1.85443207621574400000e-001) (57, 1.20984029769897460000e+000) (58, -9.78192746639251710000e-001) (59, 1.63642859458923340000e+000) (60, -4.94688659906387330000e-001) (61, 1.36999893188476560000e+000) (62, 1.86465966701507570000e+000) (63, 8.95639359951019290000e-001) (64, 2.22302064299583440000e-001) (65, 1.12514591217041020000e+000) (66, -1.96165904402732850000e-001) (67, -5.42679488658905030000e-001) (68, 7.54756152629852290000e-001) (69, 1.42587769031524660000e+000) (70, -3.47335696220397950000e-001) (71, 8.16749691963195800000e-001) (72, 2.04232525825500490000e+000) (73, 6.95097804069519040000e-001) (74, 1.31455406546592710000e-001) (75, -9.69570815563201900000e-001) (76, -1.13029837608337400000e+000) (77, 6.99900239706039430000e-002) (78, -5.32792448997497560000e-001) (79, 9.93295490741729740000e-001) (80, 1.04801154136657710000e+000) (81, 2.01553463935852050000e+000) (82, -1.33187472820281980000e+000) (0, 4.36406940221786500000e-001) (1, -7.17433929443359380000e-001) (2, 4.93307024240493770000e-001) (3, -5.60023309662938120000e-003) (4, 6.97436153888702390000e-001) (5, -5.64081035554409030000e-002) (6, 4.68096852302551270000e-001) (7, -3.47806036472320560000e-001) (8, 2.56216347217559810000e-001) (9, 8.51363480091094970000e-001) (10, -2.81730532646179200000e-001) (11, 4.84405308961868290000e-001) (12, 7.62057304382324220000e-001) (13, 9.99083876609802250000e-001) (14, 3.97927463054656980000e-002) (15, -9.58892345428466800000e-001) (16, -1.20180331170558930000e-001) (17, 4.82860773801803590000e-001) (18, -5.10499358177185060000e-001) (19, -2.19684004783630370000e-001) (20, -7.46628999710083010000e-001) (21, -1.32291114330291750000e+000) (22, -8.20693194866180420000e-001) (23, -1.98997104167938230000e+000) (24, -8.10432195663452150000e-001) (25, -1.89328476786613460000e-001) (26, 2.68986467272043230000e-002) (27, 5.22486984729766850000e-001) (28, 1.68327093124389650000e-001) (29, 1.07804052531719210000e-001) (30, 2.12301775813102720000e-001) (31, -2.84932285547256470000e-001) (32, -1.43143057823181150000e-001) (33, -1.39754861593246460000e-001) (34, 5.59512913227081300000e-001) (35, -7.58483946323394780000e-001) (36, 8.24211537837982180000e-001) (37, 7.60222017765045170000e-001) (38, 6.08901493251323700000e-002) (39, -5.02373397350311280000e-001) (40, 4.58999514579772950000e-001) (41, -2.23323151469230650000e-001) (42, 1.13209891319274900000e+000) (43, 2.96203158795833590000e-002) (44, -8.68486583232879640000e-001) (45, 7.13814914226531980000e-001) (46, 4.66022670269012450000e-001) (47, 3.50788593292236330000e-001) (48, -5.65094172954559330000e-001) (49, 6.84397220611572270000e-001) (50, 1.21765482425689700000e+000) (51, -4.05127145349979400000e-002) (52, -2.18721732497215270000e-001) (53, 5.89176237583160400000e-001) (54, 1.01536810398101810000e+000) (55, 9.70514059066772460000e-001) (56, -5.75010240077972410000e-001) (57, -2.90855675935745240000e-001) (58, -5.56182503700256350000e-001) (59, -3.60102742910385130000e-001) (60, 8.63205850124359130000e-001) (61, 2.38911986351013180000e-001) (62, -7.01211392879486080000e-001) (63, 5.70646047592163090000e-001) (64, -7.72389352321624760000e-001) (65, -5.55164813995361330000e-001) (66, 1.01767890155315400000e-002) (67, -3.81804168224334720000e-001) (68, 1.24304842948913570000e+000) (69, -2.20878228545188900000e-001) (70, 7.90313422679901120000e-001) (71, 1.75843685865402220000e-001) (72, 2.60709452629089360000e+000) (73, -5.80011427402496340000e-001) (74, 3.59339982271194460000e-001) (75, 5.88772833347320560000e-001) (76, -7.14112997055053710000e-001) (77, 1.56607472896575930000e+000) (78, -5.97639441490173340000e-001) (79, 2.81634473800659180000e+000) (80, 9.47214245796203610000e-001) (81, 1.19223499298095700000e+000) (82, 8.67603719234466550000e-001) (83, 1.57844126224517820000e+000) (0, 4.20739948749542240000e-001) (1, -1.28193318843841550000e+000) (2, -5.68432629108428960000e-001) (3, -2.74119168519973750000e-001) (4, 4.51099783182144170000e-001) (5, 8.28055739402771000000e-001) (6, -7.78117060661315920000e-001) (7, 3.93982440233230590000e-001) (8, 6.12479150295257570000e-001) (9, -1.04787516593933110000e+000) (10, -3.17485392093658450000e-001) (11, 5.82475304603576660000e-001) (12, 8.61696600914001460000e-001) (13, -1.15639698505401610000e+000) (14, 9.75791141390800480000e-002) (15, 5.57904064655303960000e-001) (16, 1.80106174945831300000e+000) (17, -5.42409598827362060000e-001) (18, 5.57557344436645510000e-001) (19, 6.76814794540405270000e-001) (20, 1.16838264465332030000e+000) (21, 8.99812877178192140000e-001) (22, 9.36747252941131590000e-001) (23, -5.44106304645538330000e-001) (24, 7.37890481948852540000e-001) (25, -2.41404876112937930000e-001) (26, 5.10905504226684570000e-001) (27, -1.01017564535140990000e-001) (28, -1.24714899063110350000e+000) (29, -1.18064302951097490000e-002) (30, 1.32499173283576970000e-001) (31, -1.17965626716613770000e+000) (32, -1.34329870343208310000e-002) (33, 1.01893842220306400000e-001) (34, 1.52263641357421880000e+000) (35, 5.72000801563262940000e-001) (36, 7.18293964862823490000e-001) (37, 2.16239556670188900000e-001) (38, -3.59478324651718140000e-001) (39, -7.13919162750244140000e-001) (40, 6.42977774143218990000e-001) (41, 2.28486374020576480000e-001) (42, 7.99148499965667720000e-001) (43, -3.16042631864547730000e-001) (44, -1.36847531795501710000e+000) (45, -7.08582997322082520000e-001) (46, 9.70918759703636170000e-002) (47, 6.47035956382751460000e-001) (48, -5.53563058376312260000e-001) (49, 6.99159264564514160000e-001) (50, -5.11593930423259740000e-002) (51, 1.11420881748199460000e+000) (52, 3.25169563293457030000e-001) (53, -2.44147181510925290000e-001) (54, -2.24373593926429750000e-001) (55, 8.11554133892059330000e-001) (56, -8.55194330215454100000e-001) (57, 7.83794939517974850000e-001) (58, -2.36052289605140690000e-001) (59, -1.06497335433959960000e+000) (60, 1.00650751590728760000e+000) (61, -3.22796255350112920000e-001) (62, -4.90288197994232180000e-001) (63, -8.13095867633819580000e-001) (64, -6.83165013790130620000e-001) (65, 1.01894891262054440000e+000) (66, -7.16206312179565430000e-001) (67, 2.45211496949195860000e-001) (68, -5.50257027149200440000e-001) (69, 1.00227081775665280000e+000) (70, -2.10768982768058780000e-001) (71, -3.57270658016204830000e-001) (72, 3.04562505334615710000e-002) (73, -1.58993884921073910000e-001) (74, 3.45205307006835940000e-001) (75, 6.10296785831451420000e-001) (76, 5.16944289207458500000e-001) (77, 9.55084204673767090000e-001) (78, -4.52267646789550780000e-001) (79, -4.08581942319870000000e-001) (80, 1.98096573352813720000e+000) (81, 1.32176125049591060000e+000) (82, 1.88943350315093990000e+000) (83, 2.24823856353759770000e+000) (84, -3.10360103845596310000e-001) (0, 2.07959964871406560000e-001) (1, -7.34794318675994870000e-001) (2, -1.28497064113616940000e+000) (3, 5.75855895876884460000e-002) (4, -3.66726815700531010000e-001) (5, 8.87515664100646970000e-001) (6, 6.12815678119659420000e-001) (7, 1.04855537414550780000e+000) (8, 7.73290917277336120000e-002) (9, -7.97259151935577390000e-001) (10, 3.48897606134414670000e-001) (11, -1.12397634983062740000e+000) (12, 6.67357861995697020000e-001) (13, 1.00497119128704070000e-001) (14, -5.25526344776153560000e-001) (15, -5.13624072074890140000e-001) (16, 2.54248172044754030000e-001) (17, -2.69178241491317750000e-001) (18, -8.85493814945220950000e-001) (19, 1.50455284118652340000e+000) (20, -7.83645436167716980000e-002) (21, -4.76956337690353390000e-001) (22, 2.09743857383728030000e-001) (23, 5.19391655921936040000e-001) (24, 1.19956962764263150000e-001) (25, 9.62119162082672120000e-001) (26, -6.67917668819427490000e-001) (27, 5.42698800563812260000e-001) (28, -4.03507649898529050000e-002) (29, 1.35726511478424070000e-001) (30, 2.32731238007545470000e-001) (31, 1.02319061756134030000e-001) (32, -5.65944552421569820000e-001) (33, -4.68341596424579620000e-002) (34, 5.31524140387773510000e-003) (35, 9.67909932136535640000e-001) (36, 8.16281616687774660000e-001) (37, 4.18561667203903200000e-001) (38, 1.79511532187461850000e-002) (39, -3.56325149536132810000e-001) (40, -4.47579085826873780000e-001) (41, -1.56181156635284420000e+000) (42, -5.90127468109130860000e-001) (43, -1.60100793838500980000e+000) (44, 1.27564263343811040000e+000) (45, -2.33997568488121030000e-001) (46, -5.41167566552758220000e-003) (47, 1.10673701763153080000e+000) (48, -6.24011717736721040000e-002) (49, -1.00285756587982180000e+000) (50, 7.22281634807586670000e-002) (51, 2.87141054868698120000e-001) (52, 1.75104826688766480000e-001) (53, -3.51808577775955200000e-001) (54, 3.48510742187500000000e-001) (55, -4.27497982978820800000e-001) (56, 4.20021593570709230000e-001) (57, 4.41712319850921630000e-001) (58, 8.07727098464965820000e-001) (59, -2.94274717569351200000e-001) (60, 7.15169370174407960000e-001) (61, -2.74801582098007200000e-001) (62, 7.01115250587463380000e-001) (63, -9.62347984313964840000e-001) (64, 6.24662116169929500000e-002) (65, 5.14171719551086430000e-001) (66, 1.19265353679656980000e+000) (67, 4.24835234880447390000e-002) (68, -3.32845985889434810000e-001) (69, 6.90069273114204410000e-002) (70, -3.67964744567871090000e-001) (71, 1.34263300895690920000e+000) (72, 9.43856835365295410000e-001) (73, 9.34574007987976070000e-001) (74, 6.40236437320709230000e-001) (75, 5.88050305843353270000e-001) (76, -1.01731109619140620000e+000) (77, 3.10757899284362790000e+000) (78, -9.25119042396545410000e-001) (79, 2.41930365562438960000e+000) (80, -7.83762186765670780000e-002) (81, 1.48358964920043950000e+000) (82, -8.38098168373107910000e-001) (83, 2.00920391082763670000e+000) (84, -1.00063443183898930000e+000) (85, 1.14188224077224730000e-001) (0, 2.67222434282302860000e-001) (1, 7.43472337722778320000e-001) (2, -1.39743423461914060000e+000) (3, 1.24513542652130130000e+000) (4, 3.93423914909362790000e-001) (5, 5.24405539035797120000e-001) (6, -1.16271480917930600000e-001) (7, -1.41754782199859620000e+000) (8, 7.00575232505798340000e-001) (9, -3.86965870857238770000e-001) (10, 7.31347858905792240000e-001) (11, 9.40174281597137450000e-001) (12, 1.86442911624908450000e+000) (13, 8.24608445167541500000e-001) (14, -8.21288943290710450000e-001) (15, 5.33625006675720210000e-001) (16, 1.28716900944709780000e-001) (17, 2.04898536205291750000e-001) (18, 7.61936843395233150000e-001) (19, -3.02086740732192990000e-001) (20, 7.55599200725555420000e-001) (21, 4.20253604650497440000e-001) (22, -3.02362460643053050000e-002) (23, -8.55982840061187740000e-001) (24, 7.11748003959655760000e-001) (25, -5.22155284881591800000e-001) (26, 1.08286976814270020000e+000) (27, -8.54844212532043460000e-001) (28, -5.58291792869567870000e-001) (29, 1.07924401760101320000e+000) (30, -2.20290958881378170000e-001) (31, -3.00197154283523560000e-001) (32, 3.86853396892547610000e-001) (33, 7.99440145492553710000e-001) (34, -5.60370028018951420000e-001) (35, 9.77658927440643310000e-001) (36, 2.49697971343994140000e+000) (37, 1.11291803419590000000e-001) (38, 9.74766373634338380000e-001) (39, 2.91790097951889040000e-001) (40, -8.71038377285003660000e-001) (41, 6.65960311889648440000e-001) (42, 6.25354826450347900000e-001) (43, -7.95405328273773190000e-001) (44, -4.48422640562057500000e-001) (45, 6.64867162704467770000e-001) (46, -1.55044406652450560000e-001) (47, 6.90129697322845460000e-001) (48, -1.30611133575439450000e+000) (49, 1.23681146651506420000e-002) (50, -7.30264782905578610000e-001) (51, 1.88349294662475590000e+000) (52, 5.26328980922698970000e-001) (53, 5.64934730529785160000e-001) (54, -7.73280084133148190000e-001) (55, 1.58565759658813480000e-001) (56, -3.69235575199127200000e-001) (57, 2.69346207380294800000e-001) (58, -3.98593813180923460000e-001) (59, 2.22116947174072270000e-001) (60, -1.53929793834686280000e+000) (61, -7.23146855831146240000e-001) (62, -2.77300864458084110000e-001) (63, 2.09451824426651000000e-001) (64, -5.58320462703704830000e-001) (65, -2.80988126993179320000e-001) (66, 1.37848079204559330000e-001) (67, -2.49079078435897830000e-001) (68, 6.65258884429931640000e-001) (69, 3.51383872330188750000e-002) (70, -3.03644537925720210000e-001) (71, -6.50653541088104250000e-001) (72, -4.08296048641204830000e-001) (73, -3.00705343484878540000e-001) (74, -1.30080187227576970000e-003) (75, 7.16907560825347900000e-001) (76, -3.37463885545730590000e-001) (77, 7.54603922367095950000e-001) (78, 3.49832922220230100000e-001) (79, 9.42053675651550290000e-001) (80, -1.50013101100921630000e+000) (81, 6.61521136760711670000e-001) (82, -3.40419933199882510000e-002) (83, 1.97269022464752200000e+000) (84, -3.59595298767089840000e+000) (85, -1.58069944381713870000e+000) (86, 6.57929480075836180000e-001) (0, 6.18066750466823580000e-002) (1, 1.51517820358276370000e+000) (2, 1.95607411861419680000e+000) (3, -5.98538935184478760000e-001) (4, -1.41321074962615970000e+000) (5, -3.27914309501647950000e+000) (6, 5.29059395194053650000e-002) (7, -2.90274053812026980000e-001) (8, -1.30752980709075930000e-001) (9, -1.54164388775825500000e-001) (10, -2.07497262954711910000e+000) (11, 6.39793217182159420000e-001) (12, 1.05425596237182620000e+000) (13, -5.38328588008880620000e-002) (14, -7.81712651252746580000e-001) (15, -9.57608103752136230000e-001) (16, 2.81927913427352910000e-001) (17, -6.76960721611976620000e-002) (18, -1.26434624195098880000e+000) (19, 2.50662535429000850000e-001) (20, 8.38627815246582030000e-001) (21, -1.11774849891662600000e+000) (22, -1.15995395183563230000e+000) (23, -4.10008102655410770000e-001) (24, 1.33683073520660400000e+000) (25, 1.78331792354583740000e+000) (26, -9.89947080612182620000e-001) (27, 1.21390306949615480000e+000) (28, 1.84660983085632320000e+000) (29, 8.46676349639892580000e-001) (30, -5.86817637085914610000e-002) (31, 9.06033158302307130000e-001) (32, -1.77570074796676640000e-001) (33, -1.91617161035537720000e-001) (34, 1.19290471076965330000e+000) (35, 2.99774140119552610000e-001) (36, -2.21430420875549320000e+000) (37, 1.69618332386016850000e+000) (38, 1.34545648097991940000e+000) (39, 2.32593870162963870000e+000) (40, -3.68568539619445800000e-001) (41, 1.72654712200164790000e+000) (42, -5.21483242511749270000e-001) (43, -3.43262791633605960000e-001) (44, -2.14205309748649600000e-002) (45, 5.24351716041564940000e-001) (46, 1.64121210575103760000e-001) (47, 3.72738301753997800000e-001) (48, 6.17967545986175540000e-001) (49, -5.14796376228332520000e-001) (50, 6.74473464488983150000e-001) (51, 3.59746664762496950000e-001) (52, 6.43239200115203860000e-001) (53, 2.63588100671768190000e-001) (54, -2.32232642173767090000e+000) (55, -7.78248012065887450000e-001) (56, 8.51585865020751950000e-001) (57, 1.24918770790100100000e+000) (58, -4.16211754083633420000e-001) (59, -5.91553926467895510000e-001) (60, -1.92748114466667180000e-001) (61, 9.75985169410705570000e-001) (62, -2.01498103141784670000e+000) (63, -1.30019509792327880000e+000) (64, 6.28216862678527830000e-001) (65, 6.06883108615875240000e-001) (66, 6.31435871124267580000e-001) (67, -4.88086313009262080000e-001) (68, 1.93713441491127010000e-001) (69, -1.64480537176132200000e-001) (70, -7.27901220321655270000e-001) (71, 2.52518113702535630000e-002) (72, 2.90654134750366210000e+000) (73, 1.86802613735198970000e+000) (74, 2.41071656346321110000e-001) (75, -1.83847710490226750000e-001) (76, -1.11097908020019530000e+000) (77, 1.16072165966033940000e+000) (78, -2.35898494720458980000e-001) (79, 4.20680731534957890000e-001) (80, 1.07742452621459960000e+000) (81, 1.36334371566772460000e+000) (82, -1.32057058811187740000e+000) (83, 6.90517187118530270000e-001) (84, -4.50227946043014530000e-001) (85, -1.29394042491912840000e+000) (86, -3.86440396308898930000e-001) (87, 1.53546810150146480000e+000) (0, 1.63989126682281490000e+000) (1, -2.07164391875267030000e-001) (2, -2.48422527313232420000e+000) (3, 4.73782241344451900000e-001) (4, 1.57284820079803470000e+000) (5, -5.55562078952789310000e-002) (6, 7.39186704158782960000e-002) (7, 4.71195459365844730000e-001) (8, 1.76387593150138850000e-001) (9, 8.22776630520820620000e-002) (10, -7.02358782291412350000e-001) (11, 2.79787826538085940000e+000) (12, 7.45639681816101070000e-001) (13, -1.28986620903015140000e+000) (14, 9.06995594501495360000e-001) (15, 9.18341755867004390000e-001) (16, 1.96370029449462890000e+000) (17, -5.88368713855743410000e-001) (18, 7.04703152179718020000e-001) (19, -5.90906381607055660000e-001) (20, -8.16272854804992680000e-001) (21, -9.20437514781951900000e-001) (22, -6.75372123718261720000e-001) (23, -6.04733943939208980000e-001) (24, -6.06827497482299800000e-001) (25, 1.76410019397735600000e-001) (26, 1.48339974880218510000e+000) (27, -6.53197526931762700000e-001) (28, 6.09849728643894200000e-002) (29, -7.60105311870574950000e-001) (30, 1.86292618513107300000e-001) (31, -1.13643848896026610000e+000) (32, 7.24690139293670650000e-001) (33, -4.09451276063919070000e-001) (34, 6.68355941772460940000e-001) (35, 4.94567066431045530000e-001) (36, -3.29167515039443970000e-001) (37, 1.15060257911682130000e+000) (38, 9.23795223236083980000e-001) (39, 5.77949285507202150000e-001) (40, -5.42104244232177730000e-001) (41, 3.30181606113910680000e-002) (42, 4.78066265583038330000e-001) (43, 1.49876749515533450000e+000) (44, -1.10660147666931150000e+000) (45, -9.07841980457305910000e-001) (46, 1.72487545013427730000e+000) (47, 9.93567526340484620000e-001) (48, 7.52040147781372070000e-001) (49, -7.06220626831054690000e-001) (50, -1.35069191455841060000e+000) (51, -1.63000488281250000000e+000) (52, -9.94273543357849120000e-001) (53, 2.76058286428451540000e-001) (54, -6.14071190357208250000e-001) (55, -2.57356882095336910000e-001) (56, -5.31603634357452390000e-001) (57, -2.81200855970382690000e-001) (58, 5.94811081886291500000e-001) (59, 6.87723517417907710000e-001) (60, 1.94439575076103210000e-001) (61, 4.50522936880588530000e-002) (62, -7.02094733715057370000e-001) (63, -6.72653913497924800000e-001) (64, -1.43027052283287050000e-001) (65, 7.90280878543853760000e-001) (66, -9.31218490004539490000e-002) (67, -1.36824771761894230000e-001) (68, -6.88908696174621580000e-001) (69, 1.45585119724273680000e+000) (70, -4.95985358953475950000e-001) (71, 1.31617987155914310000e+000) (72, 9.71727788448333740000e-001) (73, -2.68219888210296630000e-001) (74, -7.95400643255561590000e-004) (75, 5.95662593841552730000e-001) (76, -8.87191951274871830000e-001) (77, -2.96157717704772950000e-001) (78, 9.69237148761749270000e-001) (79, 9.46497857570648190000e-001) (80, 4.71930593252182010000e-001) (81, -3.56233000755310060000e-001) (82, 1.10606753826141360000e+000) (83, 1.50059533119201660000e+000) (84, -7.87191092967987060000e-001) (85, 2.83214181661605830000e-001) (86, 1.31918632984161380000e+000) (87, -1.31024837493896480000e+000) (88, 2.53071355819702150000e+000) (0, -2.70573079586029050000e-001) (1, 1.40395867824554440000e+000) (2, 3.25643211603164670000e-001) (3, 2.14708232879638670000e+000) (4, -7.33539640903472900000e-001) (5, -2.14848011732101440000e-001) (6, 1.51263320446014400000e+000) (7, 6.12920343875885010000e-001) (8, 2.52696245908737180000e-001) (9, -1.15288615226745610000e+000) (10, -6.06147468090057370000e-001) (11, -2.17973470687866210000e-001) (12, 1.39831125736236570000e+000) (13, 5.89700005948543550000e-002) (14, 1.67795121669769290000e+000) (15, -4.96537089347839360000e-001) (16, 7.14061856269836430000e-001) (17, -7.25571513175964360000e-001) (18, -2.99753606319427490000e-001) (19, 1.55475186184048650000e-002) (20, 4.33368772268295290000e-001) (21, 1.10065534710884090000e-001) (22, -4.93954032659530640000e-001) (23, -3.83530765771865840000e-001) (24, 1.06516845524311070000e-001) (25, 1.55553579330444340000e-001) (26, 4.32305812835693360000e-001) (27, -1.22048832476139070000e-001) (28, 5.07651686668396000000e-001) (29, -2.01811134815216060000e-001) (30, 7.10542142391204830000e-001) (31, 1.17595411837100980000e-001) (32, -2.75582998991012570000e-001) (33, 6.26244693994522090000e-002) (34, 8.56821775436401370000e-001) (35, 2.79843777418136600000e-001) (36, 3.10653477907180790000e-001) (37, -1.16823248565196990000e-001) (38, 2.27318122051656250000e-003) (39, -1.07055366039276120000e+000) (40, 1.59230202436447140000e-001) (41, 5.67446112632751460000e-001) (42, 9.06995385885238650000e-002) (43, 2.33152508735656740000e+000) (44, 8.84219527244567870000e-001) (45, 5.87198138236999510000e-001) (46, -1.32369947433471680000e+000) (47, 3.79014521837234500000e-001) (48, 1.34944811463356020000e-001) (49, 3.30968916416168210000e-001) (50, -2.31639370322227480000e-001) (51, -1.00391840934753420000e+000) (52, -1.77572476863861080000e+000) (53, 6.02104723453521730000e-001) (54, 3.71731340885162350000e-001) (55, 1.87936568260192870000e+000) (56, 5.67061305046081540000e-001) (57, 8.01983952522277830000e-001) (58, -2.23422914743423460000e-001) (59, -5.22905528545379640000e-001) (60, -1.11565463244915010000e-001) (61, 6.96673929691314700000e-001) (62, -5.42624711990356450000e-001) (63, -3.76099854707717900000e-001) (64, 6.07873082160949710000e-001) (65, -1.89684465527534480000e-001) (66, 2.11973085999488830000e-001) (67, 4.01034891605377200000e-001) (68, 2.52728998661041260000e-001) (69, 4.01771187782287600000e-001) (70, -2.24456325173377990000e-001) (71, -9.60104167461395260000e-002) (72, 1.12434864044189450000e+000) (73, -6.05494668707251550000e-003) (74, -7.76190876960754390000e-001) (75, 2.81318694353103640000e-001) (76, 1.05406351387500760000e-001) (77, 1.41129171848297120000e+000) (78, 2.74978697299957280000e-001) (79, 1.04465901851654050000e+000) (80, 4.48621995747089390000e-002) (81, 2.45487308502197270000e+000) (82, -1.07188308238983150000e+000) (83, -2.51088887453079220000e-001) (84, 8.41059014201164250000e-002) (85, -1.05240786075592040000e+000) (86, 9.39859151840209960000e-001) (87, -1.03447699546813960000e+000) (88, 1.62136793136596680000e-001) (89, -2.19021487236022950000e+000) (0, 6.31677210330963130000e-001) (1, -3.38846980594098570000e-003) (2, 1.32408666610717770000e+000) (3, -2.21844688057899480000e-001) (4, -6.29350960254669190000e-001) (5, 2.25915998220443730000e-001) (6, -6.81547462940216060000e-001) (7, 3.41542065143585210000e-001) (8, -5.03263413906097410000e-001) (9, 6.67221426963806150000e-001) (10, 1.18228566646575930000e+000) (11, -2.15145736932754520000e-001) (12, -4.09514713287353520000e+000) (13, 5.21437287330627440000e-001) (14, 4.12716180086135860000e-001) (15, -5.20678579807281490000e-001) (16, -6.27598226070404050000e-001) (17, -5.36200582981109620000e-001) (18, -3.21447938680648800000e-001) (19, -3.73801261186599730000e-001) (20, -2.02434539794921870000e+000) (21, 1.00367434322834010000e-001) (22, 1.24698734283447270000e+000) (23, 1.31275844573974610000e+000) (24, -5.63053190708160400000e-001) (25, 2.95754700899124150000e-001) (26, 8.49022805690765380000e-001) (27, -2.64789402484893800000e-001) (28, 7.22378671169281010000e-001) (29, -7.99878358840942380000e-001) (30, -1.49468854069709780000e-002) (31, 2.20687413215637210000e+000) (32, 7.80612230300903320000e-001) (33, -9.49262499809265140000e-001) (34, -1.91659343242645260000e+000) (35, -1.85450538992881770000e-001) (36, -2.70194590091705320000e-001) (37, 1.75306394696235660000e-001) (38, -2.53894186019897460000e+000) (39, -2.31514081358909610000e-001) (40, -1.83811932802200320000e-001) (41, 3.13864231109619140000e-001) (42, 5.74974119663238530000e-001) (43, -6.42289638519287110000e-001) (44, 1.44720554351806640000e-001) (45, 1.28073346614837650000e+000) (46, 3.41860145330429080000e-001) (47, -1.17477691173553470000e+000) (48, -1.22766816616058350000e+000) (49, 4.40380811691284180000e-001) (50, 1.10311412811279300000e+000) (51, -1.83250427246093750000e-001) (52, 3.18205058574676510000e-001) (53, 2.02764160931110380000e-002) (54, 7.52198874950408940000e-001) (55, 1.91238477826118470000e-001) (56, 9.02082920074462890000e-001) (57, 1.18617606163024900000e+000) (58, -1.32043302059173580000e-001) (59, -8.75634908676147460000e-001) (60, -2.96305894851684570000e-001) (61, 4.61145699024200440000e-001) (62, 1.27866685390472410000e+000) (63, -6.38973176479339600000e-001) (64, 4.27831053733825680000e-001) (65, -6.72617375850677490000e-001) (66, -1.32614564895629880000e+000) (67, 9.13730859756469730000e-001) (68, 4.62076276540756230000e-001) (69, 6.51988148689270020000e-001) (70, -5.85479617118835450000e-001) (71, -4.40725862979888920000e-001) (72, 8.39412510395050050000e-001) (73, 1.28471314907073970000e+000) (74, 1.24857270717620850000e+000) (75, 1.76536154747009280000e+000) (76, -7.02440440654754640000e-001) (77, 2.16704204678535460000e-001) (78, -4.13529723882675170000e-001) (79, 4.23072904348373410000e-001) (80, 1.70240020751953120000e+000) (81, -4.95257437229156490000e-001) (82, -7.58099913597106930000e-001) (83, 7.88061738014221190000e-001) (84, -3.85289043188095090000e-001) (85, -5.39318239316344260000e-003) (86, 2.74504721164703370000e-001) (87, -1.08005464076995850000e+000) (88, 7.91110336780548100000e-001) (89, 1.75778055191040040000e+000) (90, -5.02168953418731690000e-001) (0, 5.60497269034385680000e-002) (1, -8.44141602516174320000e-001) (2, -6.31473362445831300000e-001) (3, -7.68716037273406980000e-002) (4, 9.89478349685668950000e-001) (5, -1.83971434831619260000e-001) (6, -1.90417781472206120000e-001) (7, 1.22369162738323210000e-001) (8, 7.33654260635375980000e-001) (9, -5.64323544502258300000e-001) (10, -8.46889674663543700000e-001) (11, -3.98899883031845090000e-001) (12, 7.42774069309234620000e-001) (13, 1.21079456806182860000e+000) (14, -1.05388271808624270000e+000) (15, -6.52029573917388920000e-001) (16, 1.22123336791992190000e+000) (17, -1.01786486804485320000e-001) (18, -5.91742694377899170000e-001) (19, 1.83723159134387970000e-002) (20, -5.52646994590759280000e-001) (21, 1.26933145523071290000e+000) (22, -7.28725314140319820000e-001) (23, -6.64667904376983640000e-001) (24, -2.22669318318367000000e-001) (25, 1.13637518882751460000e+000) (26, -4.44140046834945680000e-001) (27, -1.29115462303161620000e+000) (28, 5.97934782505035400000e-001) (29, 4.57984507083892820000e-001) (30, -1.97297978401184080000e+000) (31, -1.05029606819152830000e+000) (32, -2.85173177719116210000e-001) (33, -1.12352657318115230000e+000) (34, 3.78024190664291380000e-001) (35, 5.27459084987640380000e-001) (36, -2.08498120307922360000e-001) (37, -2.39408716559410100000e-001) (38, -5.34331500530242920000e-001) (39, -1.02688956260681150000e+000) (40, 2.33758583664894100000e-001) (41, 6.45317852497100830000e-001) (42, -2.05504029989242550000e-001) (43, 8.55874061584472660000e-001) (44, 1.17216455936431880000e+000) (45, -5.47732532024383540000e-001) (46, -3.53627145290374760000e-001) (47, 1.56840109825134280000e+000) (48, 1.27862370014190670000e+000) (49, -9.12873446941375730000e-002) (50, 5.42528092861175540000e-001) (51, 6.99202790856361390000e-002) (52, -8.73394370079040530000e-001) (53, -8.37561607360839840000e-001) (54, 4.15202826261520390000e-001) (55, 2.42606207728385930000e-001) (56, -2.20670843124389650000e+000) (57, -3.66542339324951170000e-001) (58, 1.37439262866973880000e+000) (59, 2.21345983445644380000e-002) (60, -5.19953131675720210000e-001) (61, 9.79843020439147950000e-001) (62, -8.96817624568939210000e-001) (63, 1.80318880081176760000e+000) (64, -9.39895570278167720000e-001) (65, -2.53901243209838870000e-001) (66, 2.13397666811943050000e-001) (67, -1.36166557669639590000e-001) (68, 6.85701489448547360000e-001) (69, 1.31489858031272890000e-001) (70, 3.21671724319458010000e-001) (71, -2.64781452715396880000e-002) (72, 2.78637862205505370000e+000) (73, 1.89988896250724790000e-001) (74, 4.22972917556762700000e-001) (75, -5.02663142979145050000e-002) (76, 1.50514721870422360000e-001) (77, -2.08144411444664000000e-001) (78, -6.27911388874053960000e-001) (79, 1.78600656986236570000e+000) (80, 4.89445850253105160000e-002) (81, 1.63285887241363530000e+000) (82, 9.61178764700889590000e-002) (83, 1.90290272235870360000e-001) (84, 2.92459521442651750000e-002) (85, 1.46781659126281740000e+000) (86, 1.14834880828857420000e+000) (87, 1.11671006679534910000e+000) (88, 7.03942537307739260000e-001) (89, -9.79825928807258610000e-002) (90, 1.46350610256195070000e+000) (91, 3.68449521064758300000e+000) (0, 1.18366920948028560000e+000) (1, 2.45540976524353030000e-001) (2, -8.84154558181762700000e-001) (3, -5.93777239322662350000e-001) (4, -2.99195438623428340000e-001) (5, -2.85849392414093020000e-001) (6, -3.39707642793655400000e-001) (7, 8.53131353855133060000e-001) (8, 5.26844561100006100000e-002) (9, -2.16767117381095890000e-001) (10, 2.60783839225769040000e+000) (11, -1.39633250236511230000e+000) (12, -3.45672458410263060000e-001) (13, -1.15522541105747220000e-001) (14, 1.53614115715026860000e+000) (15, 2.29863107204437260000e-001) (16, 1.07854485511779790000e-001) (17, 1.12504982948303220000e+000) (18, 1.01198546588420870000e-001) (19, -2.40313615649938580000e-002) (20, -3.77948582172393800000e-001) (21, 8.78202378749847410000e-001) (22, 2.03361585736274720000e-001) (23, 1.11252337694168090000e-001) (24, 4.72533822059631350000e-001) (25, 1.16874024271965030000e-001) (26, -3.10671865940093990000e-001) (27, 1.01490867137908940000e+000) (28, -6.22302174568176270000e-001) (29, 1.08138632774353030000e+000) (30, 4.62963223457336430000e-001) (31, -2.36828610301017760000e-001) (32, -1.22504293918609620000e+000) (33, 3.32867860794067380000e-001) (34, 9.34861004352569580000e-002) (35, 6.69516682624816890000e-001) (36, -2.42568150162696840000e-001) (37, 1.16452284157276150000e-001) (38, -8.71978819370269780000e-001) (39, -7.26596057415008540000e-001) (40, 7.57280349731445310000e-001) (41, -7.96626627445220950000e-001) (42, -5.78688919544219970000e-001) (43, 6.60557001829147340000e-002) (44, -2.84075111150741580000e-001) (45, 3.38385730981826780000e-001) (46, 8.64475667476654050000e-001) (47, -1.73620128631591800000e+000) (48, 9.97905731201171880000e-002) (49, 5.22475183010101320000e-001) (50, -2.75115408003330230000e-002) (51, 1.24994075298309330000e+000) (52, 1.20042347908020020000e+000) (53, -1.04523634910583500000e+000) (54, 1.54034602642059330000e+000) (55, -1.30153656005859380000e+000) (56, -8.13393414020538330000e-001) (57, -8.11027407646179200000e-001) (58, 6.18236422538757320000e-001) (59, -2.55119174718856810000e-001) (60, 9.77402091026306150000e-001) (61, 1.06641650199890140000e+000) (62, -7.01822400093078610000e-001) (63, -3.19256670773029330000e-002) (64, 1.67911455035209660000e-001) (65, 9.05862390995025630000e-001) (66, 1.22282195091247560000e+000) (67, -8.26712697744369510000e-002) (68, 1.18041479587554930000e+000) (69, 1.29460513591766360000e+000) (70, 2.72006392478942870000e-001) (71, -4.32105004787445070000e-001) (72, 2.02866625785827640000e+000) (73, 5.36191225051879880000e-001) (74, 1.79773524403572080000e-001) (75, -1.34845584630966190000e-001) (76, 1.11408567428588870000e+000) (77, 1.58301174640655520000e+000) (78, -6.48954153060913090000e-001) (79, 1.17628920078277590000e+000) (80, 1.47451090812683110000e+000) (81, 9.69940125942230220000e-001) (82, -5.00377118587493900000e-001) (83, 1.58410871028900150000e+000) (84, -5.22752702236175540000e-001) (85, -4.35985773801803590000e-001) (86, -9.61219072341918950000e-002) (87, -2.90084570646286010000e-001) (88, 3.14868092536926270000e-001) (89, 1.20555365085601810000e+000) (90, -1.22676682472229000000e+000) (91, 1.65107631683349610000e+000) (92, 5.97539329528808590000e+000) (0, -3.09077173471450810000e-001) (1, 1.15322947502136230000e+000) (2, 8.09585526585578920000e-002) (3, 1.13099694252014160000e+000) (4, 1.08764493465423580000e+000) (5, 6.16630017757415770000e-001) (6, 7.66200721263885500000e-002) (7, -1.93858730792999270000e+000) (8, 4.58964347839355470000e-001) (9, 4.84930396080017090000e-001) (10, -1.76468980312347410000e+000) (11, 2.83784985542297360000e-001) (12, 1.49647963047027590000e+000) (13, -4.03784513473510740000e-001) (14, 1.07798945903778080000e+000) (15, -1.12138950824737550000e+000) (16, 1.40197098255157470000e+000) (17, -6.56594812870025630000e-001) (18, -1.06263160705566410000e+000) (19, -4.52255345880985260000e-002) (20, 5.71067221462726590000e-002) (21, 1.00889897346496580000e+000) (22, -1.84808433055877690000e-001) (23, 1.57669529318809510000e-001) (24, -1.37458652257919310000e-001) (25, 9.89942073822021480000e-001) (26, -1.01866972446441650000e+000) (27, -5.77218472957611080000e-001) (28, 1.21598005294799800000e+000) (29, -2.55291134119033810000e-001) (30, -3.36134910583496090000e-001) (31, 3.41308414936065670000e-001) (32, -4.63437706232070920000e-001) (33, -1.78736448287963870000e-001) (34, 1.21791493892669680000e+000) (35, 4.16452527046203610000e-001) (36, -1.44758009910583500000e+000) (37, -1.87256168574094770000e-002) (38, -4.41891193389892580000e-001) (39, -1.00529164075851440000e-001) (40, 7.38991618156433110000e-001) (41, -9.31876122951507570000e-001) (42, 3.66329163312911990000e-001) (43, -1.26487672328948970000e+000) (44, -4.43584829568862920000e-001) (45, 2.12410598993301390000e-001) (46, -6.79275512695312500000e-001) (47, 6.17916166782379150000e-001) (48, 1.77588000893592830000e-001) (49, -1.86825811862945560000e-001) (50, 2.50380992889404300000e-001) (51, 4.33982640504837040000e-001) (52, -8.11746954917907710000e-001) (53, -1.99284151196479800000e-001) (54, 1.06926977634429930000e+000) (55, -2.68114417791366580000e-001) (56, 3.12917113304138180000e-001) (57, -5.61231821775436400000e-002) (58, 7.72848129272460940000e-001) (59, -1.38394057750701900000e-001) (60, 4.85652983188629150000e-002) (61, 8.43324810266494750000e-002) (62, 5.15295386314392090000e-001) (63, -1.59465923905372620000e-001) (64, -1.78167387843132020000e-001) (65, -5.29490709304809570000e-001) (66, 1.39507913589477540000e+000) (67, 5.51337540149688720000e-001) (68, 1.20364844799041750000e+000) (69, 1.20642578601837160000e+000) (70, 1.40185713768005370000e-001) (71, -5.00240325927734380000e-001) (72, 2.14645457267761230000e+000) (73, 9.64341998100280760000e-001) (74, 7.96788454055786130000e-001) (75, 3.64533104002475740000e-002) (76, 1.18043877184391020000e-001) (77, -2.52575159072875980000e-001) (78, 9.23151969909667970000e-002) (79, 1.22428858280181880000e+000) (80, 1.52392184734344480000e+000) (81, 2.25481534004211430000e+000) (82, 6.07969462871551510000e-001) (83, 3.06510519981384280000e+000) (84, -2.58545684814453130000e+000) (85, -2.23795318603515620000e+000) (86, 6.92255973815917970000e-001) (87, -2.16682240366935730000e-001) (88, -1.48314225673675540000e+000) (89, 1.67504310607910160000e-001) (90, -2.66439974308013920000e-001) (91, 2.39372467994689940000e+000) (92, -1.44439429044723510000e-001) (93, -4.36075019836425780000e+000) (0, 2.39861297607421870000e+000) (1, -1.61662906408309940000e-001) (2, -4.49845492839813230000e-001) (3, 1.20194680988788600000e-001) (4, -4.57657665014266970000e-001) (5, -2.44175344705581670000e-001) (6, 9.71100986003875730000e-001) (7, -1.17881059646606450000e-001) (8, -1.53164952993392940000e-001) (9, 2.06401991844177250000e+000) (10, -2.28539317846298220000e-001) (11, 1.31253689527511600000e-001) (12, -5.27280747890472410000e-001) (13, 8.06442916393280030000e-001) (14, 3.92433047294616700000e-001) (15, 1.18287920951843260000e+000) (16, -9.64895606040954590000e-001) (17, 8.05658221244812010000e-001) (18, -4.85706001520156860000e-001) (19, -3.05267930030822750000e-001) (20, -5.80397844314575200000e-001) (21, -5.40641665458679200000e-001) (22, -6.12761080265045170000e-001) (23, 2.47715920209884640000e-001) (24, -1.16897654533386230000e+000) (25, 3.59284460544586180000e-001) (26, -5.38467131555080410000e-002) (27, -9.60494279861450200000e-001) (28, -1.06149661540985110000e+000) (29, -4.24867540597915650000e-001) (30, 2.48467251658439640000e-001) (31, 1.90469348430633540000e+000) (32, -1.19772398471832280000e+000) (33, -2.70709067583084110000e-001) (34, 9.63669598102569580000e-001) (35, -8.29637408256530760000e-001) (36, 3.92168313264846800000e-001) (37, -4.21010047197341920000e-001) (38, -8.68246912956237790000e-001) (39, -3.28334331512451170000e-001) (40, 2.70329117774963380000e-001) (41, 1.13607931137084960000e+000) (42, -1.90048307180404660000e-001) (43, 1.27143895626068120000e+000) (44, 8.65107476711273190000e-001) (45, 9.58286598324775700000e-002) (46, -1.62090075016021730000e+000) (47, -1.10870504379272460000e+000) (48, 1.22622919082641600000e+000) (49, 2.10424795746803280000e-001) (50, 2.45133846998214720000e-001) (51, 7.50636518001556400000e-001) (52, 1.19368124008178710000e+000) (53, -7.19194710254669190000e-001) (54, 3.18941330909729000000e+000) (55, 8.34951460361480710000e-001) (56, -1.44483411312103270000e+000) (57, 9.28414642810821530000e-001) (58, -7.10480511188507080000e-001) (59, 4.39072519540786740000e-001) (60, 1.58911395072937010000e+000) (61, 2.44963958859443660000e-001) (62, -1.52331995964050290000e+000) (63, 1.12166166305541990000e+000) (64, 5.43355643749237060000e-001) (65, 9.48174238204956050000e-001) (66, -9.31297183036804200000e-001) (67, -7.97290623188018800000e-001) (68, -1.88198104500770570000e-001) (69, 4.67322945594787600000e-001) (70, -1.13689625263214110000e+000) (71, 5.28856694698333740000e-001) (72, 3.49752879142761230000e+000) (73, -1.01051354408264160000e+000) (74, -7.51200079917907710000e-001) (75, 3.40560704469680790000e-001) (76, 4.04545336961746220000e-001) (77, -3.29460114240646360000e-001) (78, -5.26000261306762700000e-001) (79, 2.03372287750244140000e+000) (80, 1.71067428588867190000e+000) (81, 1.49728393554687500000e+000) (82, -1.69021713733673100000e+000) (83, 1.43205833435058590000e+000) (84, -2.87430882453918460000e+000) (85, 4.72753971815109250000e-001) (86, 9.89948749542236330000e-001) (87, 4.32770311832427980000e-001) (88, 6.93130135536193850000e-001) (89, -2.96617578715085980000e-002) (90, 8.40114653110504150000e-001) (91, 1.38664698600769040000e+000) (92, 1.10642671585083010000e+000) (93, -6.84813117980957030000e+000) (94, -4.86028641462326050000e-001) (0, -6.86548948287963870000e-001) (1, -1.04768717288970950000e+000) (2, 2.28589698672294620000e-001) (3, -1.45730650424957280000e+000) (4, -1.02160714566707610000e-001) (5, -3.08634489774703980000e-001) (6, 1.48910641670227050000e+000) (7, 7.39327192306518550000e-001) (8, -2.70338505506515500000e-001) (9, 3.38118344545364380000e-001) (10, -3.74938279390335080000e-001) (11, 6.53582096099853520000e-001) (12, 1.32989478111267090000e+000) (13, 7.10033118724823000000e-001) (14, -7.33793854713439940000e-001) (15, -4.11784112453460690000e-001) (16, 1.00765919685363770000e+000) (17, -6.88698608428239820000e-003) (18, -8.38377058506011960000e-001) (19, 2.79003918170928960000e-001) (20, 4.16453659534454350000e-001) (21, 1.05337882041931150000e+000) (22, 1.11513733863830570000e+000) (23, 9.13298964500427250000e-001) (24, 2.34787002205848690000e-001) (25, 5.55678784847259520000e-001) (26, -1.91475778818130490000e-001) (27, -1.71104788780212400000e-001) (28, 6.66658222675323490000e-001) (29, -4.26047921180725100000e-001) (30, -2.06751063466072080000e-001) (31, -7.15538501739501950000e-001) (32, 8.46850275993347170000e-001) (33, -1.30880844593048100000e+000) (34, 1.63177335262298580000e+000) (35, 9.23842310905456540000e-001) (36, 5.41485309600830080000e-001) (37, 1.11455130577087400000e+000) (38, -4.31205570697784420000e-001) (39, -7.21438884735107420000e-001) (40, 9.08415794372558590000e-001) (41, -2.67040699720382690000e-001) (42, -8.02266597747802730000e-002) (43, -1.01333297789096830000e-001) (44, -1.24594557285308840000e+000) (45, 4.65887427330017090000e-001) (46, 5.60450255870819090000e-001) (47, 3.84877145290374760000e-001) (48, 9.85093116760253910000e-001) (49, -9.42143276333808900000e-002) (50, -1.06992638111114500000e+000) (51, 1.01534873247146610000e-001) (52, -7.32611894607543950000e-001) (53, -1.69413399696350100000e+000) (54, 1.71272873878479000000e-001) (55, 1.07498705387115480000e-001) (56, 1.52326869964599610000e+000) (57, 1.26357030868530270000e+000) (58, -1.77010461688041690000e-001) (59, -8.39066863059997560000e-001) (60, 2.05239340662956240000e-001) (61, -7.28477120399475100000e-001) (62, -9.99753713607788090000e-001) (63, 6.51498794555664060000e-001) (64, 9.18491005897521970000e-001) (65, 8.28385353088378910000e-001) (66, 5.99151730537414550000e-001) (67, -2.99596071243286130000e-001) (68, 1.09961879253387450000e+000) (69, -4.09110665321350100000e-001) (70, 1.01281392574310300000e+000) (71, -1.68437451124191280000e-001) (72, 2.55939006805419920000e+000) (73, -3.26299309730529790000e-001) (74, 2.98002243041992190000e-001) (75, 8.63521933555603030000e-001) (76, 1.26260900497436520000e+000) (77, -8.63023161888122560000e-001) (78, -5.95425009727478030000e-001) (79, -8.22620868682861330000e-001) (80, 1.63608014583587650000e-001) (81, 3.29494047164916990000e+000) (82, -1.10314476490020750000e+000) (83, 2.91708183288574220000e+000) (84, 2.35900551080703740000e-001) (85, 5.86441904306411740000e-002) (86, 1.32968056201934810000e+000) (87, 4.71339941024780270000e-001) (88, -1.25891804695129390000e+000) (89, -6.33303403854370120000e-001) (90, -1.62114822864532470000e+000) (91, 2.17941427230834960000e+000) (92, 1.23765420913696290000e+000) (93, 1.41797876358032230000e+000) (94, 2.02177256345748900000e-001) (95, 3.42058229446411130000e+000) (0, -2.17265143990516660000e-001) (1, -1.29208005964756010000e-002) (2, -2.34821572899818420000e-001) (3, 6.95191770792007450000e-002) (4, 5.32887876033782960000e-001) (5, -3.06058228015899660000e-001) (6, -1.08688187599182130000e+000) (7, 1.69422596693038940000e-001) (8, -1.12363159656524660000e+000) (9, 7.56867587566375730000e-001) (10, 3.10109630227088930000e-002) (11, 5.61612725257873540000e-001) (12, 1.05774116516113280000e+000) (13, 2.63774722814559940000e-001) (14, 5.39120495319366460000e-001) (15, -7.05999791622161870000e-001) (16, -4.44886498153209690000e-002) (17, -2.62497842311859130000e-001) (18, 3.11445325613021850000e-001) (19, 4.60029661655426030000e-001) (20, -4.44128870964050290000e-001) (21, -8.16117227077484130000e-001) (22, 6.51769340038299560000e-001) (23, 1.24949458986520770000e-002) (24, 9.50977504253387450000e-001) (25, -6.13519456237554550000e-003) (26, -4.39348548650741580000e-001) (27, -1.28917083144187930000e-001) (28, -2.07692459225654600000e-001) (29, -3.26230078935623170000e-001) (30, 2.93178856372833250000e-001) (31, 1.08156478404998780000e+000) (32, 1.01768755912780760000e+000) (33, -2.57505029439926150000e-001) (34, 1.32112944126129150000e+000) (35, 1.15402972698211670000e+000) (36, -4.53692138195037840000e-001) (37, 9.25874531269073490000e-001) (38, -5.66647015511989590000e-002) (39, 7.73740187287330630000e-003) (40, 4.02281247079372410000e-002) (41, -6.48807883262634280000e-001) (42, -2.17033550143241880000e-001) (43, -3.63405764102935790000e-001) (44, -2.63468950986862180000e-001) (45, -4.46930021047592160000e-001) (46, 5.26101052761077880000e-001) (47, 4.97307837009429930000e-001) (48, 2.76085525751113890000e-001) (49, -6.19491755962371830000e-001) (50, 2.85202294588088990000e-001) (51, -2.78069168329238890000e-001) (52, 4.14421409368515010000e-002) (53, -1.42369598150253300000e-001) (54, 1.08359134197235110000e+000) (55, -7.72238254547119140000e-001) (56, -3.22812855243682860000e-001) (57, -5.02149939537048340000e-001) (58, 1.04068887233734130000e+000) (59, 7.90677309036254880000e-001) (60, 4.71068918704986570000e-001) (61, -5.36714904010295870000e-002) (62, -4.96211707592010500000e-001) (63, 2.11950272321701050000e-001) (64, -5.39098195731639860000e-002) (65, 1.85326397418975830000e-001) (66, -2.75180011987686160000e-001) (67, -7.84413158893585210000e-001) (68, -1.47395553067326550000e-002) (69, -1.00025556981563570000e-001) (70, 5.09998261928558350000e-001) (71, 8.98039221763610840000e-001) (72, 2.18376922607421870000e+000) (73, 2.73698329925537110000e-001) (74, 1.69893372058868410000e+000) (75, 4.64126765727996830000e-001) (76, 1.39192187786102290000e+000) (77, -1.36320567131042480000e+000) (78, -5.67308485507965090000e-001) (79, 1.61828052997589110000e+000) (80, 1.51810133457183840000e+000) (81, 1.25899541378021240000e+000) (82, -2.67782241106033330000e-001) (83, 2.77703809738159180000e+000) (84, -3.39026212692260740000e+000) (85, -9.33610618114471440000e-001) (86, 3.05829763412475590000e+000) (87, -5.14009296894073490000e-002) (88, -2.61387228965759280000e-001) (89, -1.32516133785247800000e+000) (90, 5.73687374591827390000e-001) (91, 2.17161965370178220000e+000) (92, 3.19247937202453610000e+000) (93, -2.79902625083923340000e+000) (94, 2.06747126579284670000e+000) (95, 1.32845461368560790000e+000) (96, -5.99737524986267090000e-001) (0, 6.86741292476654050000e-001) (1, -1.01979041099548340000e+000) (2, -1.13950979709625240000e+000) (3, 1.14490914344787600000e+000) (4, 5.04691243171691890000e-001) (5, 5.80151855945587160000e-001) (6, -4.43070948123931880000e-001) (7, -9.81209039688110350000e-001) (8, 1.47954118251800540000e+000) (9, -7.04178690910339360000e-001) (10, 2.86567568778991700000e-001) (11, 2.70435988903045650000e-001) (12, 5.18308222293853760000e-001) (13, 3.46903204917907710000e-001) (14, 2.02610626816749570000e-001) (15, -7.19518005847930910000e-001) (16, 3.20578098297119140000e-001) (17, -5.61103880405426030000e-001) (18, 2.29708198457956310000e-002) (19, 5.33818244934082030000e-001) (20, 8.40491712093353270000e-001) (21, -3.21611046791076660000e-001) (22, 8.95882070064544680000e-001) (23, -7.67573177814483640000e-001) (24, -5.86531043052673340000e-001) (25, -6.60992935299873350000e-002) (26, 7.24865972995758060000e-001) (27, -2.14312329888343810000e-001) (28, 9.20037180185317990000e-002) (29, -1.35713541507720950000e+000) (30, 2.22014471888542180000e-001) (31, 6.12547993659973140000e-001) (32, 3.36228571832180020000e-002) (33, -4.60718274116516110000e-001) (34, 1.45909130573272710000e+000) (35, -5.49444377422332760000e-001) (36, -6.64346143603324890000e-002) (37, 4.11749035120010380000e-001) (38, 9.29675340652465820000e-001) (39, 2.11550220847129820000e-001) (40, 1.04757890105247500000e-001) (41, -1.02465391159057620000e-001) (42, 3.14586579799652100000e-001) (43, 2.07805657386779790000e+000) (44, -1.40344572067260740000e+000) (45, 3.92805598676204680000e-002) (46, -1.91937714815139770000e-001) (47, -6.16123437881469730000e-001) (48, -2.96690225601196290000e-001) (49, -1.30226612091064450000e-001) (50, 9.46869373321533200000e-001) (51, -2.24635034799575810000e-001) (52, 2.82911304384469990000e-002) (53, -1.50699210166931150000e+000) (54, 2.11834758520126340000e-001) (55, 5.79693734645843510000e-001) (56, -6.99529528617858890000e-001) (57, 1.15394033491611480000e-001) (58, 5.56210219860076900000e-001) (59, 9.26713794469833370000e-002) (60, -1.03641259670257570000e+000) (61, -7.42810547351837160000e-001) (62, 3.04227113723754880000e-001) (63, 1.94630110263824460000e+000) (64, -1.13337986171245570000e-001) (65, 5.42734801769256590000e-001) (66, 5.05997419357299800000e-001) (67, -4.93133813142776490000e-002) (68, -3.92300516366958620000e-001) (69, -5.46169048175215720000e-003) (70, 4.63205248117446900000e-001) (71, 1.41501629352569580000e+000) (72, 2.57690167427062990000e+000) (73, 1.82156264781951900000e-001) (74, 7.87800773978233340000e-002) (75, -7.19604551792144780000e-001) (76, 7.43143975734710690000e-001) (77, 8.53778243064880370000e-001) (78, 6.53809607028961180000e-001) (79, 9.12602365016937260000e-001) (80, 1.76555231213569640000e-001) (81, 4.47602212429046630000e-001) (82, -5.90381503105163570000e-001) (83, -5.88590372353792190000e-003) (84, -5.03886081278324130000e-002) (85, -1.36475324630737300000e-001) (86, -1.93677079677581790000e+000) (87, 2.41159915924072270000e-001) (88, 4.29409265518188480000e-001) (89, -8.33571672439575200000e-001) (90, 8.40692937374114990000e-001) (91, 2.69594573974609380000e+000) (92, 1.19777333736419680000e+000) (93, -6.82753086090087890000e-001) (94, -1.26592743396759030000e+000) (95, -8.14766168594360350000e-001) (96, -2.23998212814331050000e+000) (97, 1.56716334819793700000e+000) (0, -2.18760585784912110000e+000) (1, -1.53022095561027530000e-001) (2, 1.29059565067291260000e+000) (3, 1.18800139427185060000e+000) (4, -4.21443849802017210000e-001) (5, -5.04296064376831050000e-001) (6, 1.66025236248970030000e-001) (7, -7.10812807083129880000e-001) (8, 1.06580555438995360000e+000) (9, -2.02188491821289060000e+000) (10, -3.29690247774124150000e-001) (11, -7.75295644998550420000e-002) (12, 8.79215180873870850000e-001) (13, -1.36258825659751890000e-001) (14, 7.05720558762550350000e-002) (15, 7.67456829547882080000e-001) (16, 1.43492829799652100000e+000) (17, 1.30716800689697270000e-001) (18, 9.43621814250946040000e-001) (19, 2.40737652778625490000e+000) (20, 8.63750055432319640000e-002) (21, -4.83165115118026730000e-001) (22, -1.56892824172973630000e+000) (23, -1.60784900188446040000e+000) (24, -3.40010166168212890000e-001) (25, 7.21973061561584470000e-001) (26, 6.27251803874969480000e-001) (27, 1.97482633590698240000e+000) (28, -7.41200089454650880000e-001) (29, 5.82786977291107180000e-001) (30, -2.94802933931350710000e-001) (31, -1.39002132415771480000e+000) (32, -3.04885059595108030000e-001) (33, 1.55655312538146970000e+000) (34, -1.74849057197570800000e+000) (35, 8.30785095691680910000e-001) (36, -5.93287348747253420000e-001) (37, 1.06423234939575200000e+000) (38, 1.20796597003936770000e+000) (39, -2.12046757340431210000e-001) (40, 3.55352818965911870000e-001) (41, 5.62726497650146480000e-001) (42, 4.52037863433361050000e-002) (43, 1.34811699390411380000e+000) (44, -1.51618301868438720000e-001) (45, 4.58257883787155150000e-001) (46, -5.73208043351769450000e-003) (47, 6.62290334701538090000e-001) (48, 3.87834221124649050000e-001) (49, -1.72100916504859920000e-001) (50, 1.19306051731109620000e+000) (51, -1.12800133228302000000e+000) (52, -1.25956094264984130000e+000) (53, 9.05863344669342040000e-001) (54, -1.02430212497711180000e+000) (55, -1.77919492125511170000e-001) (56, 1.69429862499237060000e+000) (57, -4.55460339784622190000e-001) (58, -4.49986815452575680000e-001) (59, -2.77498507499694820000e+000) (60, 6.25815689563751220000e-001) (61, 1.23901844024658200000e+000) (62, -6.01948499679565430000e-001) (63, 2.17739725112915040000e+000) (64, -3.94786745309829710000e-001) (65, 8.18235456943511960000e-001) (66, 5.95762133598327640000e-001) (67, 1.61024188995361330000e+000) (68, 3.64232033491134640000e-001) (69, 2.86214113235473630000e-001) (70, 7.22080707550048830000e-001) (71, 7.56139338016510010000e-001) (72, 1.92412674427032470000e-001) (73, 1.76295861601829530000e-001) (74, -8.80614742636680600000e-002) (75, 1.15292713046073910000e-001) (76, -1.05515229701995850000e+000) (77, 2.45803743600845340000e-001) (78, -1.63213384151458740000e+000) (79, 1.47820436954498290000e+000) (80, 5.26319861412048340000e-001) (81, 1.52158594131469730000e+000) (82, -5.40570735931396480000e-001) (83, 7.12459146976470950000e-001) (84, 4.48469787836074830000e-001) (85, -6.00158631801605220000e-001) (86, -1.24094020575284960000e-002) (87, 9.59985256195068360000e-001) (88, 6.25650465488433840000e-001) (89, -9.24250423908233640000e-001) (90, -1.02830410003662110000e+000) (91, 3.35954833030700680000e+000) (92, 1.30014562606811520000e+000) (93, 6.20708644390106200000e-001) (94, -1.05164252221584320000e-001) (95, 2.14842438697814940000e+000) (96, -8.92405033111572270000e-001) (97, 2.00897717475891110000e+000) (98, -2.52350831031799320000e+000) (0, 3.24278056621551510000e-001) (1, -2.23946523666381840000e+000) (2, -1.80845633149147030000e-001) (3, -2.52613306045532230000e-001) (4, 4.24120724201202390000e-001) (5, 7.00731277465820310000e-002) (6, 1.60701453685760500000e-001) (7, -2.57775127887725830000e-001) (8, -9.87382471561431880000e-001) (9, 1.03661906719207760000e+000) (10, -7.36457705497741700000e-001) (11, 1.21447837352752690000e+000) (12, 9.57427799701690670000e-001) (13, 1.47834762930870060000e-001) (14, 1.41108810901641850000e+000) (15, -7.56227672100067140000e-001) (16, 1.69779844582080840000e-002) (17, 8.06792259216308590000e-001) (18, -1.29530513286590580000e+000) (19, 5.20344674587249760000e-001) (20, 3.70028242468833920000e-002) (21, -5.85709393024444580000e-001) (22, -1.40720173716545100000e-001) (23, -1.44615143537521360000e-001) (24, -8.51252377033233640000e-001) (25, 9.37174499034881590000e-001) (26, -1.28488314151763920000e+000) (27, -2.29022487998008730000e-001) (28, 1.67890822887420650000e+000) (29, -9.55432534217834470000e-001) (30, 1.98512089252471920000e+000) (31, 1.84734499454498290000e+000) (32, 1.20571625232696530000e+000) (33, -6.45348310470581050000e-001) (34, 6.96014404296875000000e-001) (35, -8.43994438648223880000e-001) (36, 8.44408154487609860000e-001) (37, -5.58061063289642330000e-001) (38, 7.33714818954467770000e-001) (39, 3.71226280927658080000e-001) (40, -9.10664558410644530000e-001) (41, 2.55672037601470950000e-001) (42, -8.37144970893859860000e-001) (43, -7.02213823795318600000e-001) (44, -1.13753962516784670000e+000) (45, -1.39311000704765320000e-001) (46, 1.00539652630686760000e-002) (47, -1.77205190062522890000e-001) (48, 2.08212628960609440000e-001) (49, -1.00205242633819580000e+000) (50, 4.18666422367095950000e-001) (51, 1.91042947769165040000e+000) (52, 1.55950355529785160000e+000) (53, -1.25791573524475100000e+000) (54, -7.42736505344510080000e-003) (55, 6.60605847835540770000e-001) (56, 1.08983170986175540000e+000) (57, -9.03884351253509520000e-001) (58, 2.42629066109657290000e-001) (59, 1.58487367630004880000e+000) (60, -2.72515594959259030000e-001) (61, -4.72357809543609620000e-001) (62, -2.95225113630294800000e-001) (63, -1.49087011814117430000e+000) (64, 4.99589890241622920000e-001) (65, -3.51028740406036380000e-001) (66, 4.86581444740295410000e-001) (67, 3.18216085433959960000e-001) (68, 2.59548366069793700000e-001) (69, 2.15372201055288310000e-002) (70, -4.36668008565902710000e-001) (71, -2.77876794338226320000e-001) (72, -9.47071015834808350000e-001) (73, 8.12920510768890380000e-001) (74, -1.16385221481323240000e+000) (75, 9.96623039245605470000e-001) (76, 8.66294682025909420000e-001) (77, 9.47262883186340330000e-001) (78, 1.37013971805572510000e+000) (79, 1.84239995479583740000e+000) (80, 2.81248402595520020000e+000) (81, -2.02534962445497510000e-002) (82, -2.60866093635559080000e+000) (83, 1.91151058673858640000e+000) (84, -1.89407730102539060000e+000) (85, -8.94690096378326420000e-001) (86, 3.19480858743190770000e-002) (87, 1.94023638963699340000e-001) (88, -2.09749794006347660000e+000) (89, -4.34913814067840580000e-001) (90, 6.39658153057098390000e-001) (91, 1.26131975650787350000e+000) (92, 2.89758157730102540000e+000) (93, -2.18203282356262210000e+000) (94, -1.91775351762771610000e-001) (95, -6.20407640933990480000e-001) (96, -1.13535273075103760000e+000) (97, -9.18163299560546880000e-001) (98, -1.03120136260986330000e+000) (99, 3.98034423589706420000e-001) (0, 2.44320124387741090000e-001) (1, -1.43556952476501460000e+000) (2, 7.17161655426025390000e-001) (3, -1.37878000736236570000e-001) (4, 7.51904308795928960000e-001) (5, 3.27039033174514770000e-001) (6, -7.74278700351715090000e-001) (7, -3.48146557807922360000e-002) (8, -4.59366947412490840000e-001) (9, 1.09295618534088130000e+000) (10, -9.57716822624206540000e-001) (11, 7.94656097888946530000e-001) (12, 1.83119153976440430000e+000) (13, 5.54850697517395020000e-001) (14, 1.35905790328979490000e+000) (15, -8.37753951549530030000e-001) (16, 3.35203558206558230000e-001) (17, 8.50085020065307620000e-001) (18, -9.70194876194000240000e-001) (19, -8.20262610912323000000e-001) (20, 2.74149477481842040000e-001) (21, -7.02760756015777590000e-001) (22, 5.88635802268981930000e-001) (23, 1.26156640052795410000e+000) (24, -1.79769933223724370000e+000) (25, 3.64507943391799930000e-001) (26, -6.98027551174163820000e-001) (27, -5.01429140567779540000e-002) (28, -1.54940545558929440000e+000) (29, -6.57946527004241940000e-001) (30, 4.41236883401870730000e-001) (31, 1.13578724861145020000e+000) (32, 7.07570850849151610000e-001) (33, 3.94048333168029790000e-001) (34, -2.44585379958152770000e-001) (35, 1.60676896572113040000e-001) (36, 4.57869619131088260000e-001) (37, 1.63921847939491270000e-001) (38, 3.07258605957031250000e-001) (39, 4.35069322586059570000e-001) (40, -7.83741295337677000000e-001) (41, -2.02100348472595210000e+000) (42, 1.25751718878746030000e-001) (43, -8.02890419960021970000e-001) (44, -1.39819189906120300000e-001) (45, -1.26384884119033810000e-001) (46, -2.44342327117919920000e-001) (47, 1.24874806404113770000e+000) (48, -3.10335993766784670000e-001) (49, -7.49595642089843750000e-001) (50, -3.55156138539314270000e-002) (51, 5.14924526214599610000e-001) (52, 1.01798760890960690000e+000) (53, 5.29343664646148680000e-001) (54, 6.51247024536132810000e-001) (55, 1.71133804321289060000e+000) (56, 6.20205283164978030000e-001) (57, -2.11801695823669430000e+000) (58, 5.85015177726745610000e-001) (59, 5.70656418800354000000e-001) (60, 7.00469434261322020000e-001) (61, -6.24324023723602290000e-001) (62, -4.71425689756870270000e-002) (63, 2.88076090812683110000e+000) (64, 4.38655465841293330000e-001) (65, 4.10595051944255830000e-002) (66, -1.75702244043350220000e-001) (67, 8.06111872196197510000e-001) (68, 7.19059467315673830000e-001) (69, 9.09891963005065920000e-001) (70, 1.18265902996063230000e+000) (71, 1.34583508968353270000e+000) (72, 2.27727699279785160000e+000) (73, 5.28758585453033450000e-001) (74, -1.44391417503356930000e-001) (75, 1.21061414480209350000e-001) (76, -6.56894922256469730000e-001) (77, -3.79322707653045650000e-001) (78, -1.35378196835517880000e-001) (79, 1.79859876632690430000e+000) (80, 1.70281004905700680000e+000) (81, 1.53243994712829590000e+000) (82, -2.98382371664047240000e-001) (83, 1.19903862476348880000e+000) (84, -3.33925819396972660000e+000) (85, -1.94777119159698490000e+000) (86, 1.10725295543670650000e+000) (87, -8.04207324981689450000e-001) (88, 1.41614270210266110000e+000) (89, 1.33760631084442140000e+000) (90, -6.91457092761993410000e-001) (91, 1.22074711322784420000e+000) (92, 3.06515526771545410000e+000) (93, -2.06168770790100100000e+000) (94, 4.69773948192596440000e-001) (95, 3.64545774459838870000e+000) (96, -7.77872264385223390000e-001) (97, 4.01738524436950680000e-001) (98, 3.64305853843688960000e-001) (99, -1.53910481929779050000e+000) (100, 1.03044223785400390000e+000) (0, -6.20733141899108890000e-001) (1, -1.24277746677398680000e+000) (2, -3.59105616807937620000e-002) (3, 3.35045009851455690000e-001) (4, 7.25457742810249330000e-002) (5, -3.46817702054977420000e-001) (6, 1.55523276329040530000e+000) (7, 5.61484575271606450000e-001) (8, -6.06795787811279300000e-001) (9, 3.89834105968475340000e-001) (10, 3.99385213851928710000e-001) (11, -9.65615808963775630000e-002) (12, -9.05215740203857420000e-002) (13, 1.43292784690856930000e+000) (14, 9.41159188747406010000e-001) (15, 6.22327148914337160000e-001) (16, 1.30799758434295650000e+000) (17, -2.33026862144470210000e-001) (18, -5.16053363680839540000e-002) (19, -3.36426109075546260000e-001) (20, -5.18586754798889160000e-001) (21, -7.77613401412963870000e-001) (22, -3.58648389577865600000e-001) (23, 7.75168240070343020000e-001) (24, 2.70285993814468380000e-001) (25, -9.41236138343811040000e-001) (26, -5.21418333053588870000e-001) (27, -7.63264715671539310000e-001) (28, 7.91901469230651860000e-001) (29, 4.26502265036106110000e-002) (30, 8.91711413860321040000e-001) (31, 3.77823024988174440000e-001) (32, -1.72134518623352050000e+000) (33, 4.37524318695068360000e-001) (34, 1.05238187313079830000e+000) (35, 4.51114118099212650000e-001) (36, -4.86123681068420410000e-001) (37, 8.73550474643707280000e-001) (38, 3.02966475486755370000e-001) (39, 6.86542034149169920000e-001) (40, 5.26350021362304690000e-001) (41, 1.03023374080657960000e+000) (42, 1.26019671559333800000e-001) (43, 1.86737620830535890000e+000) (44, -6.16430580615997310000e-001) (45, -3.28671902418136600000e-001) (46, 1.98227673768997190000e-001) (47, -2.22803838551044460000e-002) (48, 2.01193884015083310000e-001) (49, 5.67622005939483640000e-001) (50, -8.52505683898925780000e-001) (51, 9.03307437896728520000e-001) (52, -6.23963117599487300000e-001) (53, -5.17626464366912840000e-001) (54, -6.45599782466888430000e-001) (55, -2.70584136247634890000e-001) (56, -3.56036424636840820000e-002) (57, -1.31383740901947020000e+000) (58, -1.35779038071632390000e-001) (59, -2.27187290787696840000e-001) (60, 8.98553073406219480000e-001) (61, -1.49304047226905820000e-001) (62, 3.85458827018737790000e-001) (63, 7.24352419376373290000e-001) (64, 1.52856230735778810000e-001) (65, -8.85915577411651610000e-001) (66, -7.70400226116180420000e-001) (67, 4.17246431112289430000e-001) (68, 3.99535536766052250000e-001) (69, 2.56094157695770260000e-001) (70, 9.78606492280960080000e-002) (71, -9.70606029033660890000e-001) (72, 1.11035728454589840000e+000) (73, 2.81048387289047240000e-001) (74, -9.38791155815124510000e-001) (75, 4.02915447950363160000e-001) (76, 1.19723230600357060000e-001) (77, 8.32956314086914060000e-001) (78, 