FANN_FLO_2.1
num_layers=102
learning_rate=0.700000
connection_rate=1.000000
network_type=1
learning_momentum=0.000000
training_algorithm=2
train_error_function=0
train_stop_function=1
cascade_output_change_fraction=0.010000
quickprop_decay=-0.000100
quickprop_mu=1.750000
rprop_increase_factor=1.200000
rprop_decrease_factor=0.500000
rprop_delta_min=0.000000
rprop_delta_max=50.000000
rprop_delta_zero=0.100000
cascade_output_stagnation_epochs=12
cascade_candidate_change_fraction=0.010000
cascade_candidate_stagnation_epochs=12
cascade_max_out_epochs=150
cascade_min_out_epochs=50
cascade_max_cand_epochs=150
cascade_min_cand_epochs=50
cascade_num_candidate_groups=8
bit_fail_limit=8.99999976158142090000e-001
cascade_candidate_limit=1.00000000000000000000e+003
cascade_weight_multiplier=4.00000005960464480000e-001
cascade_activation_functions_count=1
cascade_activation_functions=5 
cascade_activation_steepnesses_count=1
cascade_activation_steepnesses=1.00000000000000000000e+000 
layer_sizes=73 1 1 1 1 1 1 1 1 1 1 1 1 1 1 1 1 1 1 1 1 1 1 1 1 1 1 1 1 1 1 1 1 1 1 1 1 1 1 1 1 1 1 1 1 1 1 1 1 1 1 1 1 1 1 1 1 1 1 1 1 1 1 1 1 1 1 1 1 1 1 1 1 1 1 1 1 1 1 1 1 1 1 1 1 1 1 1 1 1 1 1 1 1 1 1 1 1 1 1 1 1 
scale_included=1
scale_mean_in=99.203911 99.438545 96.716949 102.054001 107.984169 104.189011 102.405960 102.401306 100.515831 104.791435 98.726257 104.552139 111.670387 109.178772 100.622902 107.397575 96.472069 97.425514 98.968346 101.464615 104.787712 98.724396 106.087524 104.540039 103.013039 104.437614 104.312851 103.845436 103.236496 113.332405 109.647110 100.869644 113.921791 110.480446 103.716019 108.110802 102.882683 102.765366 105.608940 108.229980 94.932961 103.233704 101.933891 100.630356 101.936684 100.040039 92.204842 94.218811 105.378029 99.200188 104.899445 103.601486 101.451584 103.956238 105.613594 104.315643 99.203911 95.648979 100.987892 103.120110 97.901306 100.637802 99.684357 99.681564 1.434501 1.547264 1.456861 1.557725 1.418105 1.554366 1.448815 1.579807 
scale_deviation_in=118.714844 118.387924 118.925133 119.485130 119.841286 119.667358 118.989029 118.349869 119.843575 120.977646 118.216896 120.682220 121.197189 121.033936 118.279366 120.687233 117.838440 118.597153 118.914169 119.927483 120.475296 117.960747 119.896111 119.038155 120.943901 121.223076 120.385155 121.296974 119.097717 121.402893 120.224808 119.607475 120.907997 120.660736 119.827507 120.929688 119.342781 119.508179 119.302635 121.011292 118.000511 118.714767 119.269890 119.299881 119.649986 119.609863 117.536324 117.544167 120.145973 118.203918 119.550865 120.371948 118.144249 120.253006 119.935768 120.763046 118.714851 118.707588 119.570923 119.391777 118.844223 120.312981 119.590820 119.209557 2.258566 0.949881 2.308628 0.946972 2.283876 0.955230 2.349040 0.934359 
scale_new_min_in=-1.000000 -1.000000 -1.000000 -1.000000 -1.000000 -1.000000 -1.000000 -1.000000 -1.000000 -1.000000 -1.000000 -1.000000 -1.000000 -1.000000 -1.000000 -1.000000 -1.000000 -1.000000 -1.000000 -1.000000 -1.000000 -1.000000 -1.000000 -1.000000 -1.000000 -1.000000 -1.000000 -1.000000 -1.000000 -1.000000 -1.000000 -1.000000 -1.000000 -1.000000 -1.000000 -1.000000 -1.000000 -1.000000 -1.000000 -1.000000 -1.000000 -1.000000 -1.000000 -1.000000 -1.000000 -1.000000 -1.000000 -1.000000 -1.000000 -1.000000 -1.000000 -1.000000 -1.000000 -1.000000 -1.000000 -1.000000 -1.000000 -1.000000 -1.000000 -1.000000 -1.000000 -1.000000 -1.000000 -1.000000 -1.000000 -1.000000 -1.000000 -1.000000 -1.000000 -1.000000 -1.000000 -1.000000 
scale_factor_in=1.000000 1.000000 1.000000 1.000000 1.000000 1.000000 1.000000 1.000000 1.000000 1.000000 1.000000 1.000000 1.000000 1.000000 1.000000 1.000000 1.000000 1.000000 1.000000 1.000000 1.000000 1.000000 1.000000 1.000000 1.000000 1.000000 1.000000 1.000000 1.000000 1.000000 1.000000 1.000000 1.000000 1.000000 1.000000 1.000000 1.000000 1.000000 1.000000 1.000000 1.000000 1.000000 1.000000 1.000000 1.000000 1.000000 1.000000 1.000000 1.000000 1.000000 1.000000 1.000000 1.000000 1.000000 1.000000 1.000000 1.000000 1.000000 1.000000 1.000000 1.000000 1.000000 1.000000 1.000000 1.000000 1.000000 1.000000 1.000000 1.000000 1.000000 1.000000 1.000000 
scale_mean_out=0.590317 
scale_deviation_out=0.491778 
scale_new_min_out=-1.000000 
scale_factor_out=1.000000 
neurons (num_inputs, activation_function, activation_steepness)=(0, 0, 0.00000000000000000000e+000) (0, 0, 0.00000000000000000000e+000) (0, 0, 0.00000000000000000000e+000) (0, 0, 0.00000000000000000000e+000) (0, 0, 0.00000000000000000000e+000) (0, 0, 0.00000000000000000000e+000) (0, 0, 0.00000000000000000000e+000) (0, 0, 0.00000000000000000000e+000) (0, 0, 0.00000000000000000000e+000) (0, 0, 0.00000000000000000000e+000) (0, 0, 0.00000000000000000000e+000) (0, 0, 0.00000000000000000000e+000) (0, 0, 0.00000000000000000000e+000) (0, 0, 0.00000000000000000000e+000) (0, 0, 0.00000000000000000000e+000) (0, 0, 0.00000000000000000000e+000) (0, 0, 0.00000000000000000000e+000) (0, 0, 0.00000000000000000000e+000) (0, 0, 0.00000000000000000000e+000) (0, 0, 0.00000000000000000000e+000) (0, 0, 0.00000000000000000000e+000) (0, 0, 0.00000000000000000000e+000) (0, 0, 0.00000000000000000000e+000) (0, 0, 0.00000000000000000000e+000) (0, 0, 0.00000000000000000000e+000) (0, 0, 0.00000000000000000000e+000) (0, 0, 0.00000000000000000000e+000) (0, 0, 0.00000000000000000000e+000) (0, 0, 0.00000000000000000000e+000) (0, 0, 0.00000000000000000000e+000) (0, 0, 0.00000000000000000000e+000) (0, 0, 0.00000000000000000000e+000) (0, 0, 0.00000000000000000000e+000) (0, 0, 0.00000000000000000000e+000) (0, 0, 0.00000000000000000000e+000) (0, 0, 0.00000000000000000000e+000) (0, 0, 0.00000000000000000000e+000) (0, 0, 0.00000000000000000000e+000) (0, 0, 0.00000000000000000000e+000) (0, 0, 0.00000000000000000000e+000) (0, 0, 0.00000000000000000000e+000) (0, 0, 0.00000000000000000000e+000) (0, 0, 0.00000000000000000000e+000) (0, 0, 0.00000000000000000000e+000) (0, 0, 0.00000000000000000000e+000) (0, 0, 0.00000000000000000000e+000) (0, 0, 0.00000000000000000000e+000) (0, 0, 0.00000000000000000000e+000) (0, 0, 0.00000000000000000000e+000) (0, 0, 0.00000000000000000000e+000) (0, 0, 0.00000000000000000000e+000) (0, 0, 0.00000000000000000000e+000) (0, 0, 0.00000000000000000000e+000) (0, 0, 0.00000000000000000000e+000) (0, 0, 0.00000000000000000000e+000) (0, 0, 0.00000000000000000000e+000) (0, 0, 0.00000000000000000000e+000) (0, 0, 0.00000000000000000000e+000) (0, 0, 0.00000000000000000000e+000) (0, 0, 0.00000000000000000000e+000) (0, 0, 0.00000000000000000000e+000) (0, 0, 0.00000000000000000000e+000) (0, 0, 0.00000000000000000000e+000) (0, 0, 0.00000000000000000000e+000) (0, 0, 0.00000000000000000000e+000) (0, 0, 0.00000000000000000000e+000) (0, 0, 0.00000000000000000000e+000) (0, 0, 0.00000000000000000000e+000) (0, 0, 0.00000000000000000000e+000) (0, 0, 0.00000000000000000000e+000) (0, 0, 0.00000000000000000000e+000) (0, 0, 0.00000000000000000000e+000) (0, 0, 0.00000000000000000000e+000) (73, 5, 1.00000000000000000000e+000) (74, 5, 1.00000000000000000000e+000) (75, 5, 1.00000000000000000000e+000) (76, 5, 1.00000000000000000000e+000) (77, 5, 1.00000000000000000000e+000) (78, 5, 1.00000000000000000000e+000) (79, 5, 1.00000000000000000000e+000) (80, 5, 1.00000000000000000000e+000) (81, 5, 1.00000000000000000000e+000) (82, 5, 1.00000000000000000000e+000) (83, 5, 1.00000000000000000000e+000) (84, 5, 1.00000000000000000000e+000) (85, 5, 1.00000000000000000000e+000) (86, 5, 1.00000000000000000000e+000) (87, 5, 1.00000000000000000000e+000) (88, 5, 1.00000000000000000000e+000) (89, 5, 1.00000000000000000000e+000) (90, 5, 1.00000000000000000000e+000) (91, 5, 1.00000000000000000000e+000) (92, 5, 1.00000000000000000000e+000) (93, 5, 1.00000000000000000000e+000) (94, 5, 1.00000000000000000000e+000) (95, 5, 1.00000000000000000000e+000) (96, 5, 1.00000000000000000000e+000) (97, 5, 1.00000000000000000000e+000) (98, 5, 1.00000000000000000000e+000) (99, 5, 1.00000000000000000000e+000) (100, 5, 1.00000000000000000000e+000) (101, 5, 1.00000000000000000000e+000) (102, 5, 1.00000000000000000000e+000) (103, 5, 1.00000000000000000000e+000) (104, 5, 1.00000000000000000000e+000) (105, 5, 1.00000000000000000000e+000) (106, 5, 1.00000000000000000000e+000) (107, 5, 1.00000000000000000000e+000) (108, 5, 1.00000000000000000000e+000) (109, 5, 1.00000000000000000000e+000) (110, 5, 1.00000000000000000000e+000) (111, 5, 1.00000000000000000000e+000) (112, 5, 1.00000000000000000000e+000) (113, 5, 1.00000000000000000000e+000) (114, 5, 1.00000000000000000000e+000) (115, 5, 1.00000000000000000000e+000) (116, 5, 1.00000000000000000000e+000) (117, 5, 1.00000000000000000000e+000) (118, 5, 1.00000000000000000000e+000) (119, 5, 1.00000000000000000000e+000) (120, 5, 1.00000000000000000000e+000) (121, 5, 1.00000000000000000000e+000) (122, 5, 1.00000000000000000000e+000) (123, 5, 1.00000000000000000000e+000) (124, 5, 1.00000000000000000000e+000) (125, 5, 1.00000000000000000000e+000) (126, 5, 1.00000000000000000000e+000) (127, 5, 1.00000000000000000000e+000) (128, 5, 1.00000000000000000000e+000) (129, 5, 1.00000000000000000000e+000) (130, 5, 1.00000000000000000000e+000) (131, 5, 1.00000000000000000000e+000) (132, 5, 1.00000000000000000000e+000) (133, 5, 1.00000000000000000000e+000) (134, 5, 1.00000000000000000000e+000) (135, 5, 1.00000000000000000000e+000) (136, 5, 1.00000000000000000000e+000) (137, 5, 1.00000000000000000000e+000) (138, 5, 1.00000000000000000000e+000) (139, 5, 1.00000000000000000000e+000) (140, 5, 1.00000000000000000000e+000) (141, 5, 1.00000000000000000000e+000) (142, 5, 1.00000000000000000000e+000) (143, 5, 1.00000000000000000000e+000) (144, 5, 1.00000000000000000000e+000) (145, 5, 1.00000000000000000000e+000) (146, 5, 1.00000000000000000000e+000) (147, 5, 1.00000000000000000000e+000) (148, 5, 1.00000000000000000000e+000) (149, 5, 1.00000000000000000000e+000) (150, 5, 1.00000000000000000000e+000) (151, 5, 1.00000000000000000000e+000) (152, 5, 1.00000000000000000000e+000) (153, 5, 1.00000000000000000000e+000) (154, 5, 1.00000000000000000000e+000) (155, 5, 1.00000000000000000000e+000) (156, 5, 1.00000000000000000000e+000) (157, 5, 1.00000000000000000000e+000) (158, 5, 1.00000000000000000000e+000) (159, 5, 1.00000000000000000000e+000) (160, 5, 1.00000000000000000000e+000) (161, 5, 1.00000000000000000000e+000) (162, 5, 1.00000000000000000000e+000) (163, 5, 1.00000000000000000000e+000) (164, 5, 1.00000000000000000000e+000) (165, 5, 1.00000000000000000000e+000) (166, 5, 1.00000000000000000000e+000) (167, 5, 1.00000000000000000000e+000) (168, 5, 1.00000000000000000000e+000) (169, 5, 1.00000000000000000000e+000) (170, 5, 1.00000000000000000000e+000) (171, 5, 1.00000000000000000000e+000) (172, 5, 1.00000000000000000000e+000) (173, 0, 5.00000000000000000000e-001) 
connections (connected_to_neuron, weight)=(0, 1.77046492695808410000e-001) (1, -1.17427580058574680000e-001) (2, 8.15172046422958370000e-002) (3, 2.49883040785789490000e-001) (4, 5.92665076255798340000e-001) (5, 1.79474085569381710000e-001) (6, 3.10649007558822630000e-001) (7, 5.58457493782043460000e-001) (8, 1.44716292619705200000e-001) (9, 1.26804426312446590000e-001) (10, -5.31851589679718020000e-001) (11, -4.32392721995711330000e-003) (12, 2.62200713157653810000e-001) (13, 3.88375699520111080000e-001) (14, -1.80488124489784240000e-001) (15, -4.75449338555336000000e-002) (16, -1.73622116446495060000e-001) (17, 1.17224484682083130000e-001) (18, -4.68637764453887940000e-001) (19, 2.92396694421768190000e-001) (20, -2.07226753234863280000e-001) (21, 7.95393228530883790000e-001) (22, 6.59346997737884520000e-001) (23, 3.02519351243972780000e-001) (24, 7.73931667208671570000e-002) (25, -1.23993098735809330000e-001) (26, -4.67534780502319340000e-001) (27, -3.91009896993637080000e-002) (28, -1.24876014888286590000e-002) (29, 1.12773850560188290000e-001) (30, -1.88468620181083680000e-001) (31, -4.11632180213928220000e-001) (32, 3.21671396493911740000e-001) (33, 1.45834743976593020000e-001) (34, -4.42399471998214720000e-001) (35, 5.67338585853576660000e-001) (36, -5.24702668190002440000e-001) (37, -4.86817350611090660000e-003) (38, 3.30579787492752080000e-001) (39, -1.14453968126326800000e-003) (40, 3.44304233789443970000e-001) (41, 2.20610111951828000000e-001) (42, 2.74481147527694700000e-001) (43, 4.02681946754455570000e-001) (44, -4.73935544490814210000e-001) (45, -2.00745329260826110000e-001) (46, -1.21508784592151640000e-001) (47, 6.34010016918182370000e-001) (48, -3.21458101272583010000e-001) (49, 5.01957535743713380000e-001) (50, 3.94782990217208860000e-001) (51, -5.72427250444889070000e-002) (52, 2.88416057825088500000e-001) (53, 4.77842353284358980000e-002) (54, 3.86598370969295500000e-002) (55, 4.26160395145416260000e-001) (56, -1.08301930129528050000e-001) (57, -3.27023714780807500000e-001) (58, 9.26097393035888670000e-001) (59, -6.65388479828834530000e-002) (60, -9.26405265927314760000e-002) (61, 6.33751004934310910000e-002) (62, 5.08308075368404390000e-002) (63, -6.23942732810974120000e-001) (64, 3.85597109794616700000e-001) (65, 1.08584558963775630000e+000) (66, -4.43437129259109500000e-001) (67, 6.36416435241699220000e-001) (68, 1.29265558719635010000e+000) (69, 6.68423056602478030000e-001) (70, 7.32717057690024380000e-003) (71, 1.02371513843536380000e+000) (72, 2.10052776336669920000e+000) (0, 4.75948750972747800000e-001) (1, -2.78558969497680660000e-001) (2, -5.32088100910186770000e-001) (3, 1.97580009698867800000e-002) (4, -6.51555418968200680000e-001) (5, 1.07221972942352290000e+000) (6, 5.48279106616973880000e-001) (7, 4.05397295951843260000e-001) (8, 4.91008996963500980000e-001) (9, -4.42781448364257810000e-002) (10, -1.21785532683134080000e-002) (11, 6.43459975719451900000e-001) (12, 5.77293694019317630000e-001) (13, 1.46532833576202390000e-001) (14, -1.69140905141830440000e-001) (15, 1.06687650084495540000e-001) (16, 7.78255343437194820000e-001) (17, -3.39928686618804930000e-001) (18, 2.71009176969528200000e-001) (19, -1.13603138923645020000e+000) (20, -2.10704449564218520000e-002) (21, -6.89641118049621580000e-001) (22, 1.69307798147201540000e-001) (23, 8.66840064525604250000e-001) (24, -1.07501244544982910000e+000) (25, 2.53797650337219240000e-001) (26, -2.67418861389160160000e-001) (27, 8.15734148025512700000e-001) (28, -1.01672673225402830000e+000) (29, 1.48346737027168270000e-001) (30, 7.98289775848388670000e-002) (31, -1.24512063339352610000e-002) (32, -3.60138952732086180000e-001) (33, 1.36152231693267820000e+000) (34, 5.03214716911315920000e-001) (35, -4.82711978256702420000e-002) (36, -1.62896037101745610000e-001) (37, 7.21046686172485350000e-001) (38, -4.14076119661331180000e-001) (39, 5.51309823989868160000e-001) (40, -8.94053101539611820000e-001) (41, 7.18971192836761470000e-001) (42, 7.49175697565078740000e-002) (43, 8.61597299575805660000e-001) (44, 1.04003655910491940000e+000) (45, 1.39719657599925990000e-002) (46, -3.87491494417190550000e-001) (47, 2.42740008980035780000e-002) (48, 7.45718181133270260000e-001) (49, 2.90234327316284180000e-001) (50, -2.40513980388641360000e-002) (51, 1.39127933979034420000e+000) (52, -2.06636905670166020000e-001) (53, -3.19300889968872070000e-001) (54, 2.51585274934768680000e-001) (55, -7.39145502448081970000e-002) (56, -1.38582515716552730000e+000) (57, 6.51179015636444090000e-001) (58, -2.30594247579574580000e-001) (59, 5.71512937545776370000e-001) (60, -1.15412637591362000000e-001) (61, 8.10450017452239990000e-001) (62, -3.59604477882385250000e-001) (63, -1.45684018731117250000e-001) (64, 5.34003973007202150000e-001) (65, 1.43658995628356930000e+000) (66, 1.45056927204132080000e+000) (67, -3.16806472837924960000e-002) (68, 1.34432065486907960000e+000) (69, -3.46167534589767460000e-001) (70, 1.90781980752944950000e-001) (71, 1.15393042564392090000e+000) (72, 2.08781290054321290000e+000) (73, -1.74263882637023930000e+000) (0, -1.33302998542785640000e+000) (1, 6.14072620868682860000e-001) (2, -6.99668526649475100000e-001) (3, -6.05606377124786380000e-001) (4, 8.78210663795471190000e-001) (5, 3.41708451509475710000e-001) (6, -6.10641986131668090000e-002) (7, 5.18642604351043700000e-001) (8, 1.56470704078674320000e+000) (9, -3.51989316940307620000e+000) (10, -3.30065697431564330000e-001) (11, 5.87475657463073730000e-001) (12, 9.20801520347595210000e-001) (13, 6.69846117496490480000e-001) (14, 2.34525337815284730000e-001) (15, 1.05995929241180420000e+000) (16, 6.66194617748260500000e-001) (17, -2.92092418670654300000e+000) (18, 2.83587360382080080000e+000) (19, -8.12532901763916020000e-002) (20, 7.67801046371459960000e-001) (21, 4.87146466970443730000e-001) (22, -1.69378054141998290000e+000) (23, 1.60134375095367430000e+000) (24, -2.14937776327133180000e-001) (25, 7.07298159599304200000e-001) (26, -7.98168420791625980000e-001) (27, -7.75949597358703610000e-001) (28, 5.97607553005218510000e-001) (29, -1.48668336868286130000e+000) (30, -9.82914865016937260000e-001) (31, -4.60198462009429930000e-001) (32, 4.27918024361133580000e-002) (33, -7.31509685516357420000e-001) (34, 2.61914692819118500000e-002) (35, 2.98710465431213380000e-002) (36, -1.26836204528808590000e+000) (37, 8.94662812352180480000e-002) (38, -7.58660137653350830000e-001) (39, -1.65999680757522580000e-001) (40, 1.85050618648529050000e+000) (41, -2.45774120092391970000e-001) (42, 7.01297894120216370000e-002) (43, 2.58699631690979000000e+000) (44, -3.48618477582931520000e-001) (45, -2.32784891128540040000e+000) (46, -6.95501446723937990000e-001) (47, -6.51581287384033200000e-001) (48, 1.06948697939515110000e-002) (49, 1.24911224842071530000e+000) (50, -1.22068583965301510000e+000) (51, 1.28865635395050050000e+000) (52, -2.49028623104095460000e-001) (53, -1.11427354812622070000e+000) (54, 1.11675345897674560000e+000) (55, -1.45472240447998050000e+000) (56, 5.29900372028350830000e-001) (57, -3.23462367057800290000e-001) (58, -1.66107624769210820000e-001) (59, 2.86799907684326170000e-001) (60, 1.69853830337524410000e+000) (61, -2.15081930160522460000e-001) (62, -6.38727366924285890000e-001) (63, 7.05627277493476870000e-002) (64, 4.07270222902297970000e-001) (65, 1.45238411426544190000e+000) (66, 2.46688336133956910000e-001) (67, 7.46734663844108580000e-002) (68, -3.24413031339645390000e-001) (69, 2.87121653556823730000e-001) (70, -1.74945872277021410000e-002) (71, 1.48697960376739500000e+000) (72, -4.39715981483459470000e-001) (73, -1.51726901531219480000e+000) (74, 3.26333075761795040000e-001) (0, -3.08869685977697370000e-002) (1, 6.09265267848968510000e-001) (2, 1.03800781071186070000e-001) (3, 1.00772641599178310000e-001) (4, 9.72292006015777590000e-001) (5, -7.31134712696075440000e-001) (6, -2.62976378202438350000e-001) (7, 2.00090074539184570000e+000) (8, 8.29773366451263430000e-001) (9, -1.63141727447509770000e-001) (10, 4.85520750284194950000e-001) (11, 9.24817562103271480000e-001) (12, -3.11890065670013430000e-001) (13, 6.44352376461029050000e-001) (14, 6.43904030323028560000e-001) (15, 1.10394668579101560000e+000) (16, -6.42197787761688230000e-001) (17, -2.85874217748641970000e-001) (18, 1.29478013515472410000e+000) (19, -8.82684588432312010000e-001) (20, -3.64796936511993410000e-001) (21, -1.72028779983520510000e-001) (22, 1.89440071582794190000e-001) (23, -1.10771608352661130000e+000) (24, -1.10372781753540040000e-001) (25, 1.84436768293380740000e-001) (26, -1.05360853672027590000e+000) (27, -7.88289606571197510000e-001) (28, 1.08130753040313720000e+000) (29, -1.84824442863464360000e+000) (30, 7.74005800485610960000e-002) (31, 1.06470072269439700000e+000) (32, -5.90421736240386960000e-001) (33, 1.20201282203197480000e-001) (34, 8.87166559696197510000e-001) (35, 1.38231664896011350000e-001) (36, -1.44888138771057130000e+000) (37, 5.00713050365448000000e-001) (38, 4.53827738761901860000e-001) (39, 1.73065865039825440000e+000) (40, 3.95552814006805420000e-001) (41, 5.92423737049102780000e-001) (42, -6.83607578277587890000e-001) (43, 1.67005550861358640000e+000) (44, 9.92948472499847410000e-001) (45, 1.63897097110748290000e-001) (46, 1.61661803722381590000e-001) (47, 8.82238030433654790000e-001) (48, 7.20613718032836910000e-001) (49, -3.75083863735198970000e-001) (50, 6.10600829124450680000e-001) (51, 3.20085301063954830000e-003) (52, -1.38703715801239010000e+000) (53, 1.49350047111511230000e+000) (54, -1.84337341785430910000e+000) (55, -1.12928986549377440000e+000) (56, 5.93231737613677980000e-001) (57, 5.77475242316722870000e-002) (58, 4.36555832624435420000e-001) (59, 7.83724009990692140000e-001) (60, -9.15043413639068600000e-001) (61, -1.17338669300079350000e+000) (62, 2.77137637138366700000e-001) (63, 3.21101635694503780000e-001) (64, 1.61011070013046260000e-001) (65, 6.94154620170593260000e-001) (66, -1.14748466014862060000e+000) (67, 4.15478795766830440000e-001) (68, 4.17570501565933230000e-001) (69, -8.75000119209289550000e-001) (70, 7.33642637729644780000e-001) (71, 1.23383745551109310000e-001) (72, 2.74662423133850100000e+000) (73, -7.06662774085998540000e-001) (74, -6.47427588701248170000e-002) (75, 1.64807689189910890000e+000) (0, -5.63427746295928960000e-001) (1, 1.65313029289245610000e+000) (2, 1.91732621192932130000e+000) (3, 3.74363988637924190000e-001) (4, 1.16943466663360600000e+000) (5, 6.81660532951354980000e-001) (6, 3.44861179590225220000e-001) (7, -1.81652173399925230000e-001) (8, -1.32569000124931340000e-001) (9, -1.51628673076629640000e+000) (10, 1.66882324218750000000e+000) (11, 4.80209261178970340000e-001) (12, 2.95544326305389400000e-001) (13, 4.50624793767929080000e-001) (14, -3.95341888070106510000e-002) (15, 2.09254169464111330000e+000) (16, 4.41417485475540160000e-001) (17, 7.38310456275939940000e-001) (18, 4.43550974130630490000e-001) (19, 1.41593575477600100000e+000) (20, -1.69546365737915040000e-001) (21, 3.91456484794616700000e-001) (22, 6.77839636802673340000e-001) (23, -1.02351701259613040000e+000) (24, -4.41346228122711180000e-001) (25, 6.21043622493743900000e-001) (26, 6.20153307914733890000e-001) (27, -4.83252495527267460000e-001) (28, -1.15826904773712160000e+000) (29, 4.42253947257995610000e-001) (30, -1.01180911064147950000e+000) (31, 6.76788210868835450000e-001) (32, -6.54791235923767090000e-001) (33, 8.28729748725891110000e-001) (34, -2.61532378196716310000e+000) (35, -2.55271177738904950000e-002) (36, -2.05153644084930420000e-001) (37, -2.28104591369628910000e-001) (38, -8.80947232246398930000e-001) (39, 8.31264257431030270000e-001) (40, 1.68031311035156250000e+000) (41, 2.34406256675720210000e+000) (42, 2.14858856052160260000e-002) (43, -2.37656021118164060000e+000) (44, 1.19362568855285640000e+000) (45, -3.61417961120605470000e+000) (46, -8.20010006427764890000e-001) (47, 1.65787720680236820000e+000) (48, -1.93113780021667480000e+000) (49, -1.95508494973182680000e-001) (50, -1.06968474388122560000e+000) (51, -4.32205349206924440000e-001) (52, -1.03546237945556640000e+000) (53, -6.99391484260559080000e-001) (54, -1.96460402011871340000e+000) (55, 1.82997274398803710000e+000) (56, -1.62388527393341060000e+000) (57, -7.30875015258789060000e-001) (58, -1.14659391343593600000e-001) (59, 4.67691160738468170000e-002) (60, 4.08341318368911740000e-001) (61, -4.32821780443191530000e-001) (62, -2.29666844010353090000e-001) (63, 6.61731511354446410000e-002) (64, 1.56858846545219420000e-001) (65, 4.84512820839881900000e-002) (66, -1.25258024781942370000e-002) (67, -5.02191543579101560000e-001) (68, 3.46324950456619260000e-001) (69, -4.20936614274978640000e-001) (70, 7.35484302043914790000e-001) (71, 6.35349690914154050000e-001) (72, 2.22435021400451660000e+000) (73, 9.59857106208801270000e-001) (74, -3.27516287565231320000e-001) (75, 2.54318165779113770000e+000) (76, 4.05019581317901610000e-001) (0, 5.78993558883666990000e-001) (1, 1.19461822509765620000e+000) (2, -2.03251862525939940000e+000) (3, 7.54136264324188230000e-001) (4, 8.12100708484649660000e-001) (5, 5.90712487697601320000e-001) (6, 9.26983892917633060000e-001) (7, -1.33871006965637210000e+000) (8, -3.94863247871398930000e-001) (9, 1.61528742313385010000e+000) (10, 1.27717390656471250000e-001) (11, 7.04009652137756350000e-001) (12, 1.01095819473266600000e+000) (13, 1.33248615264892580000e+000) (14, -2.27733686566352840000e-001) (15, 1.27014827728271480000e+000) (16, 6.54417872428894040000e-001) (17, 6.68191239237785340000e-002) (18, -4.02191281318664550000e-001) (19, 6.54886364936828610000e-002) (20, -5.82594394683837890000e-001) (21, -1.52707016468048100000e+000) (22, 5.45101106166839600000e-001) (23, -4.19139117002487180000e-001) (24, 6.40785023570060730000e-002) (25, 9.18283760547637940000e-001) (26, -4.03923720121383670000e-001) (27, 4.51771348714828490000e-001) (28, 1.29651859402656560000e-001) (29, 4.83099699020385740000e-001) (30, -8.59739542007446290000e-001) (31, -1.04665374755859370000e+000) (32, 4.77107256650924680000e-001) (33, -8.33268880844116210000e-001) (34, -3.66513520479202270000e-001) (35, 2.47451439499855040000e-001) (36, -4.50844585895538330000e-001) (37, -7.30029866099357600000e-002) (38, 1.44198989868164060000e+000) (39, 6.51017904281616210000e-001) (40, -5.82851052284240720000e-001) (41, -5.43419778347015380000e-001) (42, -1.03221642971038820000e+000) (43, -7.66289770603179930000e-001) (44, 9.92765605449676510000e-001) (45, 8.35696458816528320000e-001) (46, 5.20197749137878420000e-001) (47, -5.79962074756622310000e-001) (48, 1.14615523815155030000e+000) (49, -6.89447402954101560000e-001) (50, -2.08700084686279300000e+000) (51, 1.02964961528778080000e+000) (52, -1.63992846012115480000e+000) (53, -2.82982885837554930000e-002) (54, -7.84115493297576900000e-002) (55, -1.08042672276496890000e-001) (56, 4.06649857759475710000e-001) (57, 1.24490094184875490000e+000) (58, -9.53953340649604800000e-002) (59, 1.75293684005737300000e+000) (60, -2.34016865491867070000e-001) (61, 1.85127758979797360000e+000) (62, 4.16083097457885740000e-001) (63, 8.37122380733489990000e-001) (64, 1.06679463386535640000e+000) (65, 1.01057159900665280000e+000) (66, -4.75262671709060670000e-001) (67, -4.04251277446746830000e-001) (68, -2.09831446409225460000e-001) (69, -2.50042587518692020000e-001) (70, 9.57741618156433110000e-001) (71, 6.05774879455566410000e-001) (72, 1.86303520202636720000e+000) (73, -1.21101725101470950000e+000) (74, -1.74911415576934810000e+000) (75, 1.15571141242980960000e+000) (76, -9.06808435916900630000e-001) (77, -5.80328106880187990000e-001) (0, 2.90347218513488770000e-001) (1, -3.01630496978759770000e-001) (2, -1.61213323473930360000e-001) (3, 2.03040257096290590000e-001) (4, -1.08097684383392330000e+000) (5, 5.34655973315238950000e-002) (6, -1.53733336925506590000e+000) (7, -4.30205821990966800000e-001) (8, 4.88125294446945190000e-001) (9, -1.19100940227508540000e+000) (10, 4.83933568000793460000e-001) (11, 1.52839630842208860000e-001) (12, -6.60787403583526610000e-001) (13, -1.58972144126892090000e-001) (14, -3.12190264463424680000e-001) (15, -2.66077816486358640000e-001) (16, -1.20539736747741700000e+000) (17, -5.00675812363624570000e-002) (18, 1.81504404544830320000e+000) (19, -5.18213152885437010000e-001) (20, 9.14021790027618410000e-001) (21, 6.47306382656097410000e-001) (22, -2.29867920279502870000e-002) (23, 5.69593966007232670000e-001) (24, 2.51905369758605960000e+000) (25, 1.46608245372772220000e+000) (26, 3.14869701862335210000e-001) (27, -5.08350133895874020000e-001) (28, -5.01514375209808350000e-001) (29, -1.28318476676940920000e+000) (30, 2.63736784458160400000e-001) (31, 4.82359975576400760000e-001) (32, -7.89477825164794920000e-002) (33, -1.00914418697357180000e+000) (34, 1.55366778373718260000e+000) (35, 9.96593058109283450000e-001) (36, 5.67035377025604250000e-001) (37, -1.46208986639976500000e-001) (38, 7.67828404903411870000e-001) (39, 4.37319725751876830000e-001) (40, 7.83541023731231690000e-001) (41, -2.18493151664733890000e+000) (42, -2.09984835237264630000e-002) (43, 4.27065551280975340000e-001) (44, -1.01149344444274900000e+000) (45, 5.71792125701904300000e-001) (46, 5.00560760498046880000e-001) (47, 3.16382229328155520000e-001) (48, -1.24533581733703610000e+000) (49, -2.43271946907043460000e-001) (50, 7.30488356202840810000e-003) (51, -3.35475683212280270000e-001) (52, -6.90923929214477540000e-001) (53, 7.79292523860931400000e-001) (54, 7.61391222476959230000e-001) (55, -7.56008446216583250000e-001) (56, 1.77726924419403080000e+000) (57, 6.17506027221679690000e-001) (58, 8.15360069274902340000e-001) (59, -2.76586413383483890000e-003) (60, 5.91634549200534820000e-002) (61, 6.29124820232391360000e-001) (62, -6.63745999336242680000e-001) (63, 9.79686200618743900000e-001) (64, -3.83180171251297000000e-001) (65, 2.75204658508300780000e-001) (66, 3.32339376211166380000e-001) (67, 8.99926424026489260000e-001) (68, -3.46730768680572510000e-001) (69, -1.68983832001686100000e-001) (70, 7.05728054046630860000e-001) (71, 6.45800352096557620000e-001) (72, 6.56276404857635500000e-001) (73, -7.00391113758087160000e-001) (74, -4.98768866062164310000e-001) (75, 1.95722448825836180000e+000) (76, 9.74606335163116460000e-001) (77, 1.88738417625427250000e+000) (78, -9.32993292808532710000e-001) (0, -5.51329374313354490000e-001) (1, -6.78840517997741700000e-001) (2, -1.15610909461975100000e+000) (3, -8.45086574554443360000e-001) (4, 1.74241685867309570000e+000) (5, -6.42249047756195070000e-001) (6, -1.23382127285003660000e+000) (7, -5.37862777709960940000e-001) (8, 1.10090814530849460000e-001) (9, -1.17240500450134280000e+000) (10, -6.21734261512756350000e-001) (11, -2.18924000859260560000e-001) (12, 1.20782613754272460000e+000) (13, 6.02536082267761230000e-001) (14, -7.40438818931579590000e-001) (15, -1.97902292013168330000e-001) (16, -6.84485673904418950000e-001) (17, -1.67118144035339360000e+000) (18, 9.11922633647918700000e-001) (19, 5.59304356575012210000e-001) (20, 8.58894884586334230000e-002) (21, 3.72930049896240230000e-001) (22, -7.91290402412414550000e-001) (23, 1.24564552307128910000e+000) (24, -3.27231258153915410000e-001) (25, -9.87657129764556880000e-001) (26, 6.66958749294281010000e-001) (27, 5.76337754726409910000e-001) (28, -4.52239364385604860000e-001) (29, 4.14514362812042240000e-001) (30, 1.68800985813140870000e+000) (31, -4.93409395217895510000e-001) (32, 1.25874626636505130000e+000) (33, -1.44097864627838130000e-001) (34, 1.33652889728546140000e+000) (35, -5.36324143409729000000e-001) (36, 1.29843726754188540000e-001) (37, 1.68825298547744750000e-001) (38, 1.32084763050079350000e+000) (39, -9.15903508663177490000e-001) (40, -8.14439177513122560000e-001) (41, -8.53988528251647950000e-001) (42, -1.52437031269073490000e-001) (43, -6.59842252731323240000e-001) (44, -4.17426526546478270000e-001) (45, 1.21858811378479000000e+000) (46, 4.54474687576293950000e-001) (47, -1.13239920139312740000e+000) (48, -4.00229334831237790000e-001) (49, 6.00963413715362550000e-001) (50, -1.96070626378059390000e-001) (51, -2.61241912841796880000e-001) (52, -1.03022980690002440000e+000) (53, 1.11580431461334230000e+000) (54, 3.60627770423889160000e-001) (55, 1.69171476364135740000e+000) (56, -1.47919595241546630000e-001) (57, 5.43261468410491940000e-001) (58, -5.27427911758422850000e-001) (59, -1.88439309597015380000e+000) (60, 1.17171704769134520000e+000) (61, -1.07676255702972410000e+000) (62, -1.50856387615203860000e+000) (63, 1.09597074985504150000e+000) (64, 6.86941802501678470000e-001) (65, -7.13990628719329830000e-001) (66, 8.03264677524566650000e-001) (67, 8.38249504566192630000e-001) (68, 7.76103019714355470000e-001) (69, 8.88760149478912350000e-001) (70, -6.32975399494171140000e-001) (71, -3.01740735769271850000e-001) (72, 1.57009541988372800000e+000) (73, -3.01397149451076980000e-003) (74, -6.95859909057617190000e-001) (75, 5.77787637710571290000e-001) (76, 4.71350103616714480000e-001) (77, 9.54594612121582030000e-001) (78, 1.10026597976684570000e+000) (79, -8.41310620307922360000e-001) (0, -5.43147683143615720000e-001) (1, -5.22341489791870120000e-001) (2, -1.40663221478462220000e-001) (3, 5.52203893661499020000e-001) (4, 3.02221029996871950000e-001) (5, 4.63039986789226530000e-002) (6, -2.48984470963478090000e-001) (7, 7.62886762619018550000e-001) (8, -7.45559573173522950000e-001) (9, 4.30979311466217040000e-001) (10, 1.47944676876068120000e+000) (11, 9.97330546379089360000e-001) (12, 2.12868541479110720000e-001) (13, -5.01659549772739410000e-002) (14, 9.80441570281982420000e-001) (15, -7.37334549427032470000e-001) (16, -1.35024905204772950000e+000) (17, 4.72739905118942260000e-001) (18, -1.01691246032714840000e+000) (19, 4.21786427497863770000e-001) (20, 1.66424357891082760000e+000) (21, -7.07911670207977290000e-001) (22, 1.75366073846817020000e-001) (23, 1.65140584111213680000e-001) (24, 1.28069257736206050000e+000) (25, 3.54175537824630740000e-001) (26, 4.78831022977828980000e-001) (27, -1.04170906543731690000e+000) (28, -5.99236823618412020000e-002) (29, -1.57332372665405270000e+000) (30, -2.32702589035034180000e+000) (31, 2.03387427330017090000e+000) (32, -1.27462434768676760000e+000) (33, 1.04570484161376950000e+000) (34, -9.44501221179962160000e-001) (35, 1.70623636245727540000e+000) (36, -7.28314965963363650000e-002) (37, -1.79204672574996950000e-001) (38, -2.87725305557250980000e+000) (39, 1.55699968338012700000e+000) (40, 2.09805071353912350000e-001) (41, 1.35062909126281740000e+000) (42, -1.09808035194873810000e-001) (43, 4.55950424075126650000e-002) (44, 9.88785624504089360000e-001) (45, 1.21244847774505620000e+000) (46, 1.25377297401428220000e-001) (47, 3.13771605491638180000e-001) (48, -3.27377587556838990000e-001) (49, 1.47365719079971310000e-001) (50, 2.46292382478713990000e-001) (51, -1.61857342720031740000e+000) (52, 5.06790399551391600000e-001) (53, 8.15197825431823730000e-001) (54, -1.71382546424865720000e-001) (55, 5.36947607994079590000e-001) (56, 6.37458145618438720000e-001) (57, -1.66435718536376950000e-001) (58, -2.92967110872268680000e-001) (59, 6.14491283893585210000e-001) (60, 1.02523076534271240000e+000) (61, -1.39189902693033220000e-002) (62, 1.19617486000061040000e+000) (63, -3.28276133537292480000e+000) (64, 6.53434574604034420000e-001) (65, 7.44771659374237060000e-001) (66, -7.01377391815185550000e-001) (67, 1.11837697029113770000e+000) (68, 3.56825023889541630000e-001) (69, -7.31159448623657230000e-001) (70, 5.61702907085418700000e-001) (71, 2.62068718671798710000e-001) (72, 3.17420983314514160000e+000) (73, 2.55729079246521000000e+000) (74, 3.68522942066192630000e-001) (75, -9.86457586288452150000e-001) (76, 1.08911895751953120000e+000) (77, -6.65338635444641110000e-002) (78, -1.32689523696899410000e+000) (79, -2.23547101020812990000e+000) (80, 3.63479256629943850000e+000) (0, 5.98394751548767090000e-001) (1, 9.96788561344146730000e-001) (2, 3.04478913545608520000e-001) (3, 3.52143682539463040000e-003) (4, 4.11768019199371340000e-001) (5, -1.36000478267669680000e+000) (6, 2.21696496009826660000e+000) (7, -5.00442564487457280000e-001) (8, 1.64449632167816160000e-001) (9, -3.92630219459533690000e-001) (10, 3.96571218967437740000e-001) (11, -9.54353690147399900000e-001) (12, -9.77723836898803710000e-001) (13, 3.32395762205123900000e-001) (14, 7.79196679592132570000e-001) (15, 9.21556949615478520000e-001) (16, 4.72699582576751710000e-001) (17, -4.38696980476379390000e-001) (18, -8.90461325645446780000e-001) (19, 8.68628025054931640000e-001) (20, -4.39283311367034910000e-001) (21, -1.59437787532806400000e+000) (22, 8.65588009357452390000e-001) (23, -3.29219847917556760000e-001) (24, 1.89547657966613770000e+000) (25, 1.46907925605773930000e+000) (26, -8.10847043991088870000e-001) (27, -4.27980870008468630000e-001) (28, -9.46937203407287600000e-001) (29, -3.80962193012237550000e-001) (30, 8.58003318309783940000e-001) (31, 6.68554902076721190000e-001) (32, -2.10016086697578430000e-001) (33, 1.09405970573425290000e+000) (34, 4.89449091255664830000e-002) (35, -4.11706984043121340000e-001) (36, 1.04622197151184080000e+000) (37, 1.62353843450546260000e-001) (38, -8.19433033466339110000e-002) (39, 1.87428146600723270000e-001) (40, 4.56561177968978880000e-001) (41, 1.34655225276947020000e+000) (42, -1.05997967720031740000e+000) (43, 1.61822974681854250000e+000) (44, -2.71018505096435550000e-001) (45, 1.40959084033966060000e+000) (46, -6.19784593582153320000e-001) (47, 6.07913017272949220000e-001) (48, -2.64414101839065550000e-001) (49, 1.16293954849243160000e+000) (50, 7.08440303802490230000e-001) (51, 9.24060523509979250000e-001) (52, 5.43402493000030520000e-001) (53, -1.10513508319854740000e+000) (54, -1.03020298480987550000e+000) (55, -6.05866074562072750000e-001) (56, -6.81045532226562500000e-001) (57, 8.31702709197998050000e-001) (58, 8.59679818153381350000e-001) (59, -4.40971672534942630000e-001) (60, -7.34865665435791020000e-001) (61, -6.19544148445129390000e-001) (62, 2.57984340190887450000e-001) (63, -1.36179044842720030000e-001) (64, -3.87164056301116940000e-001) (65, 1.05890488624572750000e+000) (66, -2.57422626018524170000e-001) (67, -2.16833949089050290000e-001) (68, -7.45018959045410160000e-001) (69, -9.46533560752868650000e-001) (70, -8.45804154872894290000e-001) (71, -2.34806880354881290000e-001) (72, 1.61003124713897710000e+000) (73, -5.44016480445861820000e-001) (74, 1.09154462814331050000e+000) (75, 1.67458999156951900000e+000) (76, 3.40252012014389040000e-001) (77, -1.48815715312957760000e+000) (78, 2.65617489814758300000e-001) (79, -4.84345436096191410000e-001) (80, 3.11361694335937500000e+000) (81, -2.15462520718574520000e-001) (0, -4.88978087902069090000e-001) (1, -7.16866314411163330000e-001) (2, -5.37954866886138920000e-001) (3, 3.43750774860382080000e-001) (4, -7.41846323013305660000e-001) (5, 1.31675708293914790000e+000) (6, -5.97639977931976320000e-001) (7, 1.16952741146087650000e+000) (8, -9.58356559276580810000e-001) (9, 7.38854765892028810000e-001) (10, 6.90593957901000980000e-001) (11, 1.23056435585021970000e+000) (12, -1.66747882962226870000e-001) (13, -3.25393527746200560000e-001) (14, -1.51606444269418720000e-002) (15, 4.32279378175735470000e-001) (16, -1.18567705154418950000e-001) (17, -3.25527787208557130000e-001) (18, -5.73659837245941160000e-001) (19, 1.07239663600921630000e+000) (20, -4.01399321854114530000e-002) (21, 8.23205351829528810000e-001) (22, 5.47931976616382600000e-002) (23, -5.63640356063842770000e-001) (24, 3.48262876272201540000e-001) (25, 4.34818714857101440000e-001) (26, -4.41295057535171510000e-002) (27, 5.53279101848602290000e-001) (28, -7.59604632854461670000e-001) (29, 1.69952523708343510000e+000) (30, -4.27127927541732790000e-001) (31, -5.22665560245513920000e-001) (32, 2.73484528064727780000e-001) (33, 1.81044004857540130000e-002) (34, 6.98028743267059330000e-001) (35, -9.34020578861236570000e-001) (36, 5.56613147258758540000e-001) (37, 5.58559834957122800000e-001) (38, 3.17849069833755490000e-001) (39, -2.62503713369369510000e-001) (40, -1.98754084110260010000e+000) (41, 8.96325826644897460000e-001) (42, 5.45238971710205080000e-001) (43, 7.92553007602691650000e-001) (44, -1.08418607711791990000e+000) (45, 3.64569127559661870000e-001) (46, 2.11384683847427370000e-001) (47, -2.39700242877006530000e-001) (48, 4.80147570371627810000e-001) (49, -4.12115395069122310000e-001) (50, 6.76909863948822020000e-001) (51, -1.97056877613067630000e+000) (52, 4.16502267122268680000e-001) (53, 4.56985294818878170000e-001) (54, -7.88346946239471440000e-001) (55, -3.66698527336120610000e+000) (56, 1.59655913710594180000e-001) (57, -5.08816421031951900000e-001) (58, 5.66606044769287110000e-001) (59, 2.63736337423324580000e-001) (60, 2.29707077145576480000e-001) (61, 7.38433361053466800000e-001) (62, -7.77146160602569580000e-001) (63, -6.86514303088188170000e-002) (64, 1.11440098285675050000e+000) (65, 3.84729355573654170000e-001) (66, 3.09241592884063720000e-001) (67, 6.95918321609497070000e-001) (68, 4.27006512880325320000e-001) (69, 6.29127502441406250000e-001) (70, -2.69686758518218990000e-001) (71, -5.51117658615112300000e-001) (72, 2.76780533790588380000e+000) (73, -2.02169150114059450000e-001) (74, 1.84061586856842040000e+000) (75, 8.72326612472534180000e-001) (76, -8.95418524742126460000e-001) (77, -3.12045872211456300000e-001) (78, -2.46229529380798340000e-001) (79, 8.02127242088317870000e-001) (80, 2.32415127754211430000e+000) (81, 2.16708421707153320000e+000) (82, 8.27415943145751950000e-001) (0, -1.69600043445825580000e-002) (1, 2.44314715266227720000e-001) (2, 2.89309918880462650000e-002) (3, 5.90280532836914060000e-001) (4, 1.03644084930419920000e+000) (5, 1.87834262847900390000e-001) (6, -2.93288290500640870000e-001) (7, -5.58441281318664550000e-001) (8, -2.13091921806335450000e+000) (9, 2.26238632202148440000e+000) (10, 1.24854958057403560000e+000) (11, 3.74347195029258730000e-002) (12, -1.56470811367034910000e+000) (13, -2.02266168594360350000e+000) (14, 4.41994756460189820000e-001) (15, 4.82750117778778080000e-001) (16, 5.29157459735870360000e-001) (17, 3.10240477323532100000e-001) (18, 1.27831268310546870000e+000) (19, -9.96973924338817600000e-003) (20, -2.73994386196136470000e-001) (21, -4.23337429761886600000e-001) (22, 5.12426555156707760000e-001) (23, 7.23368152976036070000e-002) (24, 5.00254392623901370000e-001) (25, 2.50802282243967060000e-002) (26, 3.10224387794733050000e-002) (27, 1.38105475902557370000e+000) (28, -1.35425120592117310000e-001) (29, -9.03119623661041260000e-001) (30, -2.66384720802307130000e+000) (31, -7.46549844741821290000e-001) (32, -3.67760598659515380000e-001) (33, -4.32332128286361690000e-001) (34, 7.19425797462463380000e-001) (35, -5.94275854527950290000e-002) (36, 1.13335408270359040000e-001) (37, -1.85386717319488530000e+000) (38, -1.88673660159111020000e-001) (39, -1.95312142372131350000e+000) (40, -3.58612149953842160000e-001) (41, 8.58763754367828370000e-001) (42, 4.60898101329803470000e-001) (43, -5.16989305615425110000e-002) (44, 1.55007970333099370000e+000) (45, 2.34210729598999020000e+000) (46, -3.73705297708511350000e-001) (47, -1.11318695545196530000e+000) (48, 1.28172147274017330000e+000) (49, -9.72341835498809810000e-001) (50, 3.83049488067626950000e-001) (51, 2.33605518937110900000e-001) (52, 7.15258896350860600000e-001) (53, -4.65234756469726560000e-001) (54, -3.55563849210739140000e-001) (55, -2.45562896132469180000e-001) (56, 3.94190400838851930000e-001) (57, -9.71130311489105220000e-001) (58, 1.37934744358062740000e-001) (59, 3.71109664440155030000e-001) (60, -3.95293086767196660000e-001) (61, -3.59060823917388920000e-001) (62, 9.43578705191612240000e-002) (63, -8.40175986289978030000e-001) (64, -2.95357078313827510000e-001) (65, 4.52909648418426510000e-001) (66, 4.15151953697204590000e-001) (67, 1.15764021873474120000e+000) (68, -7.29704797267913820000e-001) (69, -1.10289058648049830000e-003) (70, 5.88707745075225830000e-001) (71, -7.32224643230438230000e-001) (72, 2.22935795783996580000e+000) (73, 8.95954728126525880000e-001) (74, 8.04633498191833500000e-001) (75, 8.14170718193054200000e-001) (76, -5.53996741771698000000e-001) (77, -1.14482045173645020000e+000) (78, 5.28472900390625000000e-001) (79, -1.05111563205718990000e+000) (80, 1.19360792636871340000e+000) (81, -3.20500403642654420000e-001) (82, 1.48180353641510010000e+000) (83, 5.84756791591644290000e-001) (0, 3.35489958524703980000e-001) (1, -2.55415916442871090000e-001) (2, 3.01395088434219360000e-001) (3, -2.30358213186264040000e-001) (4, -7.71300196647644040000e-001) (5, 1.44316363334655760000e+000) (6, 1.87228843569755550000e-001) (7, 7.27893471717834470000e-001) (8, 8.88499081134796140000e-001) (9, -1.19485974311828610000e+000) (10, -1.73339173197746280000e-001) (11, -9.38536003232002260000e-002) (12, 8.08052659034729000000e-001) (13, 5.25690138339996340000e-001) (14, -3.58245551586151120000e-001) (15, -1.53883695602416990000e-001) (16, 1.16869640350341800000e+000) (17, -8.19179534912109380000e-001) (18, -1.05725610256195070000e+000) (19, -1.56844449043273930000e+000) (20, 2.67257064580917360000e-001) (21, 1.25966298580169680000e+000) (22, 7.81321227550506590000e-002) (23, 2.74595469236373900000e-001) (24, -1.09036529064178470000e+000) (25, -1.37126266956329350000e+000) (26, 4.28220689296722410000e-001) (27, -4.16254132986068730000e-001) (28, 6.85721993446350100000e-001) (29, 2.68728107213974000000e-001) (30, 9.78457808494567870000e-001) (31, -1.11218297481536870000e+000) (32, 1.64001956582069400000e-002) (33, 2.43260502815246580000e-001) (34, -2.74625997990369800000e-002) (35, 3.55460375547409060000e-001) (36, 1.45070090889930730000e-001) (37, -6.03304684162139890000e-001) (38, 1.35644078254699710000e-002) (39, 7.89104163646698000000e-001) (40, 7.86042690277099610000e-001) (41, -1.71397179365158080000e-002) (42, -2.67683267593383790000e-001) (43, 1.16845250129699710000e+000) (44, 9.05540764331817630000e-001) (45, -1.73118758201599120000e+000) (46, -1.69961643218994140000e+000) (47, -3.25818330049514770000e-001) (48, -1.04320335388183590000e+000) (49, -7.78749525547027590000e-001) (50, -4.86312210559844970000e-001) (51, 1.24022863805294040000e-001) (52, -6.24229609966278080000e-001) (53, -3.04643452167510990000e-001) (54, -9.41699624061584470000e-001) (55, 1.25368380546569820000e+000) (56, -1.45996391773223880000e+000) (57, 6.49047851562500000000e-001) (58, 2.10917264223098750000e-001) (59, 3.26285094022750850000e-001) (60, 1.18162703514099120000e+000) (61, 6.56075358390808110000e-001) (62, -1.18913483619689940000e+000) (63, 1.55488431453704830000e+000) (64, -2.13644251227378850000e-001) (65, -4.87665086984634400000e-001) (66, 2.05157160758972170000e-001) (67, -5.96796393394470210000e-001) (68, 6.03868901729583740000e-001) (69, -1.30171939730644230000e-001) (70, -8.70637178421020510000e-001) (71, 8.51946592330932620000e-001) (72, 1.62854039669036870000e+000) (73, 1.07503867149353030000e+000) (74, -3.37179255485534670000e+000) (75, 2.03786897659301760000e+000) (76, 7.56488680839538570000e-001) (77, -1.90345692634582520000e+000) (78, -1.40969157218933110000e-001) (79, 9.11008119583129880000e-001) (80, 9.11224901676177980000e-001) (81, 5.03231823444366460000e-001) (82, 6.26399993896484380000e-001) (83, 6.74258768558502200000e-001) (84, 1.82778179645538330000e+000) (0, -1.91530972719192500000e-001) (1, 3.44101548194885250000e-001) (2, -5.69741547107696530000e-001) (3, -9.91490840911865230000e-001) (4, -5.83565413951873780000e-001) (5, -1.65634557604789730000e-001) (6, -1.83577716350555420000e+000) (7, -3.09554189443588260000e-001) (8, 1.01882934570312500000e+000) (9, 1.16090643405914310000e+000) (10, -3.21605913341045380000e-002) (11, 9.36327353119850160000e-002) (12, 1.16946828365325930000e+000) (13, 1.11588865518569950000e-001) (14, -6.47486209869384770000e-001) (15, 5.75049877166748050000e-001) (16, 1.80251872539520260000e+000) (17, -2.28646427392959590000e-001) (18, -4.36394244432449340000e-001) (19, 6.30657494068145750000e-001) (20, 4.92200195789337160000e-001) (21, -4.67098563909530640000e-001) (22, -1.55368483066558840000e+000) (23, 1.75534877926111220000e-002) (24, -3.75032275915145870000e-001) (25, 6.80666208267211910000e-001) (26, 2.18466091156005860000e+000) (27, -4.75683003664016720000e-001) (28, 1.65005382150411610000e-002) (29, -6.81091984733939170000e-003) (30, 1.16065883636474610000e+000) (31, 3.86715471744537350000e-001) (32, 6.33917450904846190000e-001) (33, -2.89585083723068240000e-001) (34, 9.39510166645050050000e-001) (35, -3.71901690959930420000e-001) (36, -1.34370303153991700000e+000) (37, 5.68501830101013180000e-001) (38, 1.50368714332580570000e+000) (39, 3.10079455375671390000e-001) (40, -6.59345507621765140000e-001) (41, 3.07595133781433110000e-001) (42, -7.13986277580261230000e-001) (43, -8.11491668224334720000e-001) (44, 9.98501777648925780000e-002) (45, 7.71304070949554440000e-001) (46, 4.90325003862380980000e-001) (47, 1.27941548824310300000e-001) (48, -1.10334253311157230000e+000) (49, 5.26428937911987300000e-001) (50, -5.87575793266296390000e-001) (51, 1.28597468137741090000e-001) (52, 5.94174742698669430000e-001) (53, 3.91939543187618260000e-002) (54, 1.24945938587188720000e+000) (55, -1.05297935009002690000e+000) (56, 1.77057921886444090000e-001) (57, 1.12589085102081300000e+000) (58, 2.09194540977478030000e+000) (59, 5.30854761600494380000e-001) (60, 1.45343601703643800000e-001) (61, 2.09193038940429690000e+000) (62, 2.34227195382118230000e-001) (63, 2.97795504331588750000e-001) (64, 6.60449028015136720000e-001) (65, 2.67300158739089970000e-001) (66, 9.74960446357727050000e-001) (67, -2.02788859605789180000e-001) (68, 6.26680493354797360000e-001) (69, 6.62297666072845460000e-001) (70, 1.35788440704345700000e-001) (71, 9.53076332807540890000e-002) (72, 5.03147304058074950000e-001) (73, 1.96892249584198000000e+000) (74, -1.96875119209289550000e+000) (75, 1.33199036121368410000e+000) (76, 5.61657071113586430000e-001) (77, 6.17314577102661130000e-001) (78, -2.30040335655212400000e+000) (79, -1.68839597702026370000e+000) (80, 1.38446950912475590000e+000) (81, 7.52339482307434080000e-001) (82, -1.25592231750488280000e+000) (83, -1.28117346763610840000e+000) (84, 2.95098400115966800000e+000) (85, 2.29582929611206050000e+000) (0, 3.98243248462677000000e-001) (1, 2.02746582031250000000e+000) (2, -1.08455502986907960000e+000) (3, 4.93468075990676880000e-001) (4, 4.19930785894393920000e-001) (5, 8.76685917377471920000e-001) (6, 5.52422329783439640000e-002) (7, -3.10257583856582640000e-001) (8, 1.69256103038787840000e+000) (9, 5.59219300746917720000e-001) (10, 8.35861265659332280000e-001) (11, 6.41401052474975590000e-001) (12, -6.68279826641082760000e-002) (13, 5.99099695682525630000e-001) (14, -2.14655065536499020000e+000) (15, -2.12636303901672360000e+000) (16, 1.67276549339294430000e+000) (17, 5.61045467853546140000e-001) (18, -6.04227840900421140000e-001) (19, -2.86784976720809940000e-001) (20, -1.14635062217712400000e+000) (21, 1.06784677505493160000e+000) (22, 1.42361986637115480000e+000) (23, -6.04204833507537840000e-001) (24, -1.16281974315643310000e+000) (25, -1.63634550571441650000e+000) (26, 1.42447328567504880000e+000) (27, -4.43994373083114620000e-001) (28, 2.45901608467102050000e+000) (29, -3.97048056125640870000e-001) (30, -1.83604025840759280000e+000) (31, -1.44763767719268800000e+000) (32, 1.81083703041076660000e+000) (33, 1.71210840344429020000e-001) (34, 1.03772556781768800000e+000) (35, -3.22971433401107790000e-001) (36, -1.59495186805725100000e+000) (37, 6.50135219097137450000e-001) (38, -2.21859478950500490000e+000) (39, 1.08928549289703370000e+000) (40, 4.48855817317962650000e-001) (41, 5.88342308998107910000e-001) (42, 2.90637791156768800000e-001) (43, -1.56932044774293900000e-002) (44, -5.58366850018501280000e-002) (45, 9.47928309440612790000e-001) (46, -1.06312799453735350000e+000) (47, 1.95622205734252930000e-001) (48, -2.50265419483184810000e-001) (49, 1.75793898105621340000e+000) (50, 4.72391009330749510000e-001) (51, 1.75810265541076660000e+000) (52, -2.91075557470321660000e-001) (53, 2.70518016815185550000e+000) (54, -4.51716721057891850000e-001) (55, 7.83299863338470460000e-001) (56, -2.82821059226989750000e-001) (57, 9.53052878379821780000e-001) (58, -1.13742101192474370000e+000) (59, -1.53552293777465820000e+000) (60, -6.83041751384735110000e-001) (61, -2.12406098842620850000e-001) (62, -4.72110897302627560000e-001) (63, -1.05720412731170650000e+000) (64, -4.01949673891067500000e-001) (65, 3.86238634586334230000e-001) (66, 1.16569316387176510000e+000) (67, 4.93858486413955690000e-001) (68, -1.45920589566230770000e-001) (69, 1.33678004145622250000e-001) (70, 4.78323847055435180000e-001) (71, 3.89707028865814210000e-001) (72, -5.70337891578674320000e-001) (73, -2.52990812063217160000e-001) (74, 1.86600163578987120000e-001) (75, 1.21786832809448240000e+000) (76, 2.52723842859268190000e-001) (77, 9.00729775428771970000e-001) (78, -1.79129131138324740000e-002) (79, 7.66068875789642330000e-001) (80, 1.90517258644104000000e+000) (81, -2.73228168487548830000e-001) (82, 4.75040644407272340000e-001) (83, 8.87626290321350100000e-001) (84, -1.92123223096132280000e-002) (85, 6.53390586376190190000e-001) (86, 1.82556092739105220000e+000) (0, -7.58194863796234130000e-001) (1, -4.48483794927597050000e-001) (2, 8.82435679435729980000e-001) (3, -9.46170330047607420000e-001) (4, 4.33245778083801270000e-001) (5, 8.29253792762756350000e-001) (6, -4.31053191423416140000e-001) (7, 1.09243422746658330000e-001) (8, 8.46522569656372070000e-001) (9, -6.88965499401092530000e-001) (10, -1.27837941050529480000e-001) (11, 3.63947659730911250000e-001) (12, -8.35606455802917480000e-001) (13, -8.80796611309051510000e-001) (14, -8.55547904968261720000e-001) (15, 1.06037311255931850000e-001) (16, -8.60554754734039310000e-001) (17, 9.98085379600524900000e-001) (18, 1.05092513561248780000e+000) (19, 1.56175053119659420000e+000) (20, 1.92081257700920100000e-001) (21, -4.84724909067153930000e-001) (22, 3.17854806780815120000e-002) (23, 1.20542120933532710000e+000) (24, 3.49195957183837890000e-001) (25, -5.16207396984100340000e-001) (26, 5.58912336826324460000e-001) (27, -6.28745138645172120000e-001) (28, 5.07202744483947750000e-001) (29, -3.29203337430953980000e-001) (30, -4.47809875011444090000e-001) (31, -8.60313177108764650000e-001) (32, 4.64733719825744630000e-001) (33, 2.61956810951232910000e-001) (34, -1.35813385248184200000e-001) (35, 6.10791981220245360000e-001) (36, -5.03670930862426760000e-001) (37, -9.24439728260040280000e-001) (38, -1.28987610340118410000e+000) (39, -5.07149934768676760000e-001) (40, -1.06690704822540280000e-001) (41, 8.74362587928771970000e-001) (42, 2.29793131351470950000e-001) (43, 9.55642163753509520000e-001) (44, 1.90194177627563480000e+000) (45, 2.49969029426574710000e+000) (46, 8.04267644882202150000e-001) (47, 5.29091954231262210000e-001) (48, 1.20598018169403080000e+000) (49, 4.95984226465225220000e-001) (50, -5.40071308612823490000e-001) (51, 8.91154944896698000000e-001) (52, 2.23910719156265260000e-001) (53, 1.07463550567626950000e+000) (54, -5.28281688690185550000e-001) (55, -6.57915890216827390000e-001) (56, -1.55520117282867430000e+000) (57, 6.15728460252285000000e-002) (58, -1.26424133777618410000e+000) (59, -8.41235756874084470000e-001) (60, 4.23045903444290160000e-001) (61, 4.52638715505599980000e-001) (62, -7.81903684139251710000e-001) (63, 1.17925512790679930000e+000) (64, -1.34050816297531130000e-001) (65, 5.16401588916778560000e-001) (66, -2.74551153182983400000e-001) (67, 1.73512279987335210000e-001) (68, -6.19553923606872560000e-001) (69, -1.83924332261085510000e-001) (70, 5.19661366939544680000e-001) (71, 2.88296610116958620000e-001) (72, 2.46778321266174320000e+000) (73, -1.01269781589508060000e+000) (74, -1.16803717613220210000e+000) (75, 1.63104569911956790000e+000) (76, 7.79791222885251050000e-003) (77, 4.67650741338729860000e-001) (78, -1.34430861473083500000e+000) (79, -1.75792112946510310000e-001) (80, 2.09041261672973630000e+000) (81, 7.49871253967285160000e-001) (82, 3.38859818875789640000e-002) (83, -7.66015887260437010000e-001) (84, -6.03817462921142580000e-001) (85, 1.99039065837860110000e+000) (86, 1.42872035503387450000e+000) (87, 1.47750961780548100000e+000) (0, 7.56684690713882450000e-002) (1, -8.12254071235656740000e-001) (2, -2.75449419021606450000e+000) (3, 9.39039945602416990000e-001) (4, -4.68989759683609010000e-001) (5, -1.44745528697967530000e-001) (6, 2.55157858133316040000e-001) (7, 2.24363207817077640000e-001) (8, 4.51560467481613160000e-001) (9, -4.27612274885177610000e-001) (10, 1.60524094104766850000e+000) (11, 2.94754773378372190000e-001) (12, -7.43403911590576170000e-001) (13, 1.39127433300018310000e+000) (14, 2.30762049555778500000e-001) (15, 9.11276638507843020000e-001) (16, -5.78210830688476560000e-001) (17, 2.30767703056335450000e+000) (18, -4.74134951829910280000e-001) (19, -1.61198794841766360000e+000) (20, -4.67730909585952760000e-001) (21, -4.49370265007019040000e-001) (22, -2.48052906990051270000e+000) (23, -2.25827738642692570000e-001) (24, 1.06289637088775630000e+000) (25, 1.95361030101776120000e+000) (26, -2.31660038232803340000e-001) (27, 1.18175828456878660000e+000) (28, -1.33835434913635250000e+000) (29, -8.51914063096046450000e-002) (30, 3.20977658033370970000e-001) (31, -2.71850079298019410000e-001) (32, 4.01294052600860600000e-001) (33, 6.81631028652191160000e-001) (34, 7.24005699157714840000e-001) (35, 3.01046460866928100000e-001) (36, 3.67111444473266600000e-001) (37, 7.84554481506347660000e-001) (38, 3.43466937541961670000e-001) (39, -1.87442511320114140000e-001) (40, 7.01453745365142820000e-001) (41, -8.44209194183349610000e-001) (42, 7.89758026599884030000e-001) (43, 6.42809510231018070000e-001) (44, -6.10731363296508790000e-001) (45, -1.73798763751983640000e+000) (46, 4.93247449398040770000e-001) (47, -1.03531487286090850000e-001) (48, 7.53576338291168210000e-001) (49, 1.07184660434722900000e+000) (50, 8.26768755912780760000e-001) (51, 4.71470803022384640000e-001) (52, 1.14985561370849610000e+000) (53, 8.30560028553009030000e-002) (54, 3.53198021650314330000e-001) (55, -2.62225151062011720000e+000) (56, -9.12372469902038570000e-001) (57, -8.94306302070617680000e-001) (58, 4.02485013008117680000e-001) (59, 9.05075669288635250000e-001) (60, -2.88236200809478760000e-001) (61, 6.00253760814666750000e-001) (62, 1.66075789928436280000e+000) (63, -1.72308278083801270000e+000) (64, 1.26174378395080570000e+000) (65, 1.45841538906097410000e-001) (66, 1.93735826015472410000e+000) (67, 2.58796252310276030000e-002) (68, 1.47254562377929690000e+000) (69, 8.13671290874481200000e-001) (70, 2.13899946212768550000e+000) (71, 9.42933559417724610000e-001) (72, 1.13565003871917720000e+000) (73, -1.85325607657432560000e-001) (74, -1.03130674362182620000e+000) (75, 3.03653478622436520000e-001) (76, -5.85802793502807620000e-001) (77, 1.76705229282379150000e+000) (78, -3.12811106443405150000e-001) (79, -8.83207619190216060000e-001) (80, 1.85844528675079350000e+000) (81, -2.90797233581542970000e-001) (82, -1.09114468097686770000e+000) (83, -1.55671492218971250000e-001) (84, 4.28754472732543950000e+000) (85, 2.79581356048583980000e+000) (86, 4.27752345800399780000e-001) (87, 8.23591649532318120000e-001) (88, 2.37136173248291020000e+000) (0, -3.27043086290359500000e-002) (1, -4.24616247415542600000e-001) (2, 8.72448682785034180000e-001) (3, 8.17448735237121580000e-001) (4, 2.21454709768295290000e-001) (5, -8.93964767456054690000e-001) (6, -3.94738852977752690000e-001) (7, -1.62896454334259030000e-001) (8, 4.90954250097274780000e-001) (9, 5.34513056278228760000e-001) (10, 3.63273769617080690000e-001) (11, -2.14011654257774350000e-001) (12, -5.93991041183471680000e-001) (13, -4.63695228099823000000e-001) (14, -5.83080425858497620000e-002) (15, 5.98698019981384280000e-001) (16, -1.56882989406585690000e+000) (17, 7.52048969268798830000e-001) (18, 5.75545430183410640000e-001) (19, 4.07743990421295170000e-001) (20, 3.23325067758560180000e-001) (21, 3.17981481552124020000e-001) (22, -1.04685151576995850000e+000) (23, -1.88571512699127200000e-001) (24, 3.60189318656921390000e-001) (25, 5.20812451839447020000e-001) (26, -8.49445044994354250000e-001) (27, -4.46193933486938480000e-001) (28, 1.66222184896469120000e-001) (29, 4.48119848966598510000e-001) (30, 1.68062341213226320000e+000) (31, 1.11440944671630860000e+000) (32, 8.02808761596679690000e-001) (33, -4.37430620193481450000e-001) (34, -1.23219084739685060000e+000) (35, 1.49176657199859620000e+000) (36, -2.37036406993865970000e-001) (37, 3.24913531541824340000e-001) (38, 1.69787019491195680000e-001) (39, -1.73791483044624330000e-001) (40, -7.39035964012146000000e-001) (41, 1.23751282691955570000e+000) (42, -9.91816759109497070000e-001) (43, 5.25332570075988770000e-001) (44, -4.48993176221847530000e-001) (45, 9.36695337295532230000e-001) (46, 1.81939497590065000000e-001) (47, -1.90251147747039790000e+000) (48, -7.92801380157470700000e-002) (49, 3.13629746437072750000e-001) (50, -8.54676142334938050000e-002) (51, 7.71306037902832030000e-001) (52, 5.41885375976562500000e-001) (53, 6.36213898658752440000e-001) (54, -2.93365448713302610000e-001) (55, -1.79419681429862980000e-001) (56, 8.65285813808441160000e-001) (57, 1.43136823177337650000e+000) (58, 2.26311057806015010000e-001) (59, 5.24452626705169680000e-002) (60, -1.42708241939544680000e+000) (61, 9.04877483844757080000e-001) (62, 1.20364153385162350000e+000) (63, 1.10729157924652100000e+000) (64, 6.54690921306610110000e-001) (65, -2.29277729988098140000e-001) (66, 5.49427628517150880000e-001) (67, 5.65033912658691410000e-001) (68, 1.22955262660980220000e+000) (69, -2.71614015102386470000e-001) (70, -6.45960271358489990000e-001) (71, -1.25905290246009830000e-001) (72, 3.33507227897644040000e+000) (73, 9.98380959033966060000e-001) (74, -9.94926452636718750000e-001) (75, 1.38647067546844480000e+000) (76, 1.00634224712848660000e-001) (77, 6.41521155834198000000e-001) (78, -9.19566392898559570000e-001) (79, 1.41090953350067140000e+000) (80, 2.18315911293029790000e+000) (81, -5.87249398231506350000e-001) (82, -5.36682486534118650000e-001) (83, -1.21427500247955320000e+000) (84, 2.90299391746521000000e+000) (85, 1.51795554161071780000e+000) (86, -3.42006862163543700000e-001) (87, -2.82708257436752320000e-001) (88, -2.49825310707092290000e+000) (89, -2.59152740240097050000e-001) (0, 8.86389706283807750000e-003) (1, -8.11437070369720460000e-001) (2, 7.74949133396148680000e-001) (3, -2.07766927778720860000e-002) (4, -5.45914471149444580000e-001) (5, -3.76819342374801640000e-001) (6, 3.11725884675979610000e-001) (7, 8.25728714466094970000e-001) (8, -6.99838042259216310000e-001) (9, 6.15694463253021240000e-001) (10, 5.23622691631317140000e-001) (11, 1.08105981349945070000e+000) (12, -6.04864135384559630000e-002) (13, -6.16400301456451420000e-001) (14, 4.76351380348205570000e-001) (15, 7.11874604225158690000e-001) (16, 8.15000653266906740000e-001) (17, 9.41650927066802980000e-001) (18, -9.14064645767211910000e-001) (19, -9.72362399101257320000e-001) (20, -4.26466614007949830000e-001) (21, 4.72997426986694340000e-001) (22, -4.02328133583068850000e-001) (23, 1.38889718055725100000e+000) (24, -3.67012441158294680000e-001) (25, 8.56470093131065370000e-002) (26, 4.41454112529754640000e-001) (27, -6.51185750961303710000e-001) (28, -1.10234689712524410000e+000) (29, 7.46325135231018070000e-001) (30, 3.06739538908004760000e-001) (31, -8.67587506771087650000e-001) (32, 6.99718058109283450000e-001) (33, 7.15342819690704350000e-001) (34, -1.04379761219024660000e+000) (35, 4.73534613847732540000e-001) (36, 4.63441640138626100000e-001) (37, -1.76414862275123600000e-001) (38, 3.18193584680557250000e-001) (39, 3.24754685163497920000e-001) (40, -1.06522046029567720000e-001) (41, 1.83837823569774630000e-002) (42, 8.23802471160888670000e-001) (43, -4.13589179515838620000e-001) (44, 8.41170668601989750000e-001) (45, 5.92578768730163570000e-001) (46, -5.32778620719909670000e-001) (47, 2.82335877418518070000e-001) (48, 2.36322104930877690000e-001) (49, -1.14902399480342860000e-001) (50, 1.07649095356464390000e-001) (51, 3.11982721090316770000e-001) (52, -5.63222765922546390000e-001) (53, 1.21632730960845950000e+000) (54, 1.07147121429443360000e+000) (55, 4.13177281618118290000e-001) (56, 5.45890033245086670000e-001) (57, -1.19231081008911130000e+000) (58, 4.13476854562759400000e-001) (59, 1.19146621227264400000e+000) (60, 3.86436253786087040000e-001) (61, -2.05467656254768370000e-001) (62, -4.74781319499015810000e-002) (63, -2.91719973087310790000e-001) (64, 4.69657659530639650000e-001) (65, 9.36986282467842100000e-002) (66, 9.52513873577117920000e-001) (67, 7.44065165519714360000e-001) (68, 4.95902985334396360000e-001) (69, 5.67597001791000370000e-002) (70, 5.19629299640655520000e-001) (71, 4.28688436746597290000e-001) (72, 2.65508508682250980000e+000) (73, 3.97714585065841670000e-001) (74, -5.31774103641510010000e-001) (75, 1.22283232212066650000e+000) (76, 7.30793893337249760000e-001) (77, 3.73756051063537600000e-001) (78, -9.82328116893768310000e-001) (79, 6.17768988013267520000e-003) (80, 4.17637014389038090000e+000) (81, -1.70504927635192870000e+000) (82, -1.22178173065185550000e+000) (83, -1.77198290824890140000e-001) (84, 2.57794570922851560000e+000) (85, 2.37475848197937010000e+000) (86, 7.20466673374176030000e-001) (87, 1.15796828269958500000e+000) (88, 7.39460587501525880000e-001) (89, -2.85410791635513310000e-001) (90, -3.01256597042083740000e-001) (0, 3.18126857280731200000e-001) (1, 9.39115166664123540000e-001) (2, 9.77649807929992680000e-001) (3, -4.98001962900161740000e-001) (4, -1.95579394698143010000e-001) (5, 5.27970731258392330000e-001) (6, -8.42536032199859620000e-001) (7, 4.78776842355728150000e-001) (8, -1.24131873250007630000e-001) (9, 8.72216939926147460000e-001) (10, -1.25025492161512370000e-002) (11, -8.83501291275024410000e-001) (12, 2.23121285438537600000e-001) (13, 2.52160012722015380000e-001) (14, -6.59335017204284670000e-001) (15, -5.56169569492340090000e-001) (16, 1.55654158443212510000e-002) (17, -4.05357837677001950000e-001) (18, 4.65811848640441890000e-001) (19, 3.07572245597839360000e-001) (20, 1.19824790954589840000e+000) (21, 4.73820418119430540000e-001) (22, -7.64846742153167720000e-001) (23, 4.37115103006362920000e-001) (24, -8.79888653755187990000e-001) (25, -6.77192568778991700000e-001) (26, -4.03399497270584110000e-001) (27, 2.50452846288681030000e-001) (28, 6.06546811759471890000e-002) (29, 6.82669699192047120000e-001) (30, 4.57544237375259400000e-001) (31, 1.04169237613677980000e+000) (32, 9.75522696971893310000e-002) (33, 1.82894253730773930000e+000) (34, 6.43393814563751220000e-001) (35, 1.97347491979599000000e-001) (36, -8.12272191047668460000e-001) (37, -2.10201134905219080000e-003) (38, 1.25146424770355220000e+000) (39, -3.95599007606506350000e-001) (40, -6.62724554538726810000e-001) (41, 1.18018889427185060000e+000) (42, -5.20159840583801270000e-001) (43, 1.96467223577201370000e-003) (44, 9.21265929937362670000e-002) (45, -1.17592144012451170000e+000) (46, -5.82487523555755620000e-001) (47, -5.56127071380615230000e-001) (48, 3.60255300998687740000e-001) (49, -5.13263940811157230000e-001) (50, 1.00572717189788820000e+000) (51, -1.30251932144165040000e+000) (52, 5.60127258300781250000e-001) (53, -1.70731782913208010000e+000) (54, -2.41038060188293460000e+000) (55, 2.04090881347656250000e+000) (56, 1.00409734249114990000e+000) (57, 6.02443277835845950000e-001) (58, 2.13265329599380490000e-001) (59, -2.35626772046089170000e-001) (60, -4.13019925355911250000e-001) (61, 4.54981565475463870000e-001) (62, 7.32120573520660400000e-001) (63, 6.51580691337585450000e-001) (64, -5.31511828303337100000e-002) (65, 1.76409617066383360000e-001) (66, -2.38027662038803100000e-001) (67, 2.19589635729789730000e-001) (68, 6.44409418106079100000e-001) (69, 2.73120790719985960000e-001) (70, 1.11781276762485500000e-001) (71, 5.20646810531616210000e-001) (72, 4.23631131649017330000e-001) (73, -5.96164107322692870000e-001) (74, -6.17832802236080170000e-002) (75, 2.08882141113281250000e+000) (76, 3.52830514311790470000e-002) (77, 3.38332146406173710000e-001) (78, -5.09859398007392880000e-002) (79, 3.84795576333999630000e-001) (80, 2.29653549194335940000e+000) (81, -1.36853307485580440000e-001) (82, -3.50726544857025150000e-001) (83, -8.18737685680389400000e-001) (84, 2.08294939994812010000e+000) (85, 1.19582605361938480000e+000) (86, 1.07229284942150120000e-001) (87, 8.05497527122497560000e-001) (88, 1.52844226360321040000e+000) (89, 1.57504826784133910000e-001) (90, -1.17178738117218020000e+000) (91, -3.85261034965515140000e+000) (0, -4.60263758897781370000e-001) (1, -1.86390721797943120000e+000) (2, 3.32636833190917970000e-001) (3, 6.86845898628234860000e-001) (4, -1.52348995208740230000e+000) (5, 4.50260251760482790000e-001) (6, 1.31021428108215330000e+000) (7, 4.27121281623840330000e-001) (8, 6.85566127300262450000e-001) (9, -9.30937528610229490000e-001) (10, -8.77452492713928220000e-001) (11, 1.03474938869476320000e+000) (12, 5.82927048206329350000e-001) (13, -3.54912817478179930000e-001) (14, -9.03963267803192140000e-001) (15, 8.91041278839111330000e-001) (16, -2.57420182228088380000e-001) (17, 1.20795655250549320000e+000) (18, -1.91240370273590090000e-001) (19, -9.95450258255004880000e-001) (20, 3.76732319593429570000e-001) (21, 7.11199939250946040000e-001) (22, -5.50546050071716310000e-001) (23, 5.93861639499664310000e-001) (24, 5.02087593078613280000e-001) (25, 1.32410788536071780000e+000) (26, 4.86422866582870480000e-001) (27, -2.04124018549919130000e-001) (28, -6.73577859997749330000e-002) (29, 3.30617219209671020000e-001) (30, -2.72949397563934330000e-001) (31, 4.49825316667556760000e-001) (32, 1.27764618396759030000e+000) (33, 6.66124761104583740000e-001) (34, -4.27111327648162840000e-001) (35, 4.14210587739944460000e-001) (36, 1.67289364337921140000e+000) (37, 4.88338321447372440000e-001) (38, 5.00165700912475590000e-001) (39, 1.13808226585388180000e+000) (40, 4.39727634191513060000e-001) (41, 4.37308371067047120000e-001) (42, -6.35200798511505130000e-001) (43, 9.36589181423187260000e-001) (44, 4.03638869524002080000e-001) (45, -6.30143523216247560000e-001) (46, -4.22147542238235470000e-001) (47, 9.44326281547546390000e-001) (48, 8.44839811325073240000e-001) (49, 1.63599109649658200000e+000) (50, 5.94831109046936040000e-001) (51, 1.01853430271148680000e+000) (52, -7.04178392887115480000e-001) (53, -2.46490061283111570000e-001) (54, 6.91337525844573970000e-001) (55, -1.06776237487792970000e+000) (56, 3.46767514944076540000e-001) (57, -2.05992430448532100000e-001) (58, -7.24934637546539310000e-001) (59, -2.91464710608124730000e-003) (60, -4.97573643922805790000e-001) (61, 1.43424606323242190000e+000) (62, 4.24826264381408690000e-001) (63, 2.84333795309066770000e-001) (64, 9.23954546451568600000e-001) (65, -4.98865693807601930000e-001) (66, 6.46958887577056880000e-001) (67, -5.57324886322021480000e-001) (68, -2.99464166164398190000e-001) (69, -2.78657466173172000000e-001) (70, 4.08800750970840450000e-001) (71, -3.26017409563064580000e-001) (72, 1.87750446796417240000e+000) (73, -4.85222458839416500000e-001) (74, -2.23898351192474370000e-001) (75, 1.20318675041198730000e+000) (76, -2.69063174724578860000e-001) (77, -7.50706195831298830000e-001) (78, -1.15541958808898930000e+000) (79, 8.39270651340484620000e-002) (80, 2.92672729492187500000e+000) (81, 8.15930441021919250000e-002) (82, 4.09110009670257570000e-001) (83, -2.47831606864929200000e+000) (84, 3.29939627647399900000e+000) (85, 2.34222388267517090000e+000) (86, 6.18960976600646970000e-001) (87, 6.13886594772338870000e-001) (88, 4.24963682889938350000e-001) (89, -2.69617915153503420000e+000) (90, -1.08128571510314940000e+000) (91, -8.42260003089904790000e-001) (92, 2.75455760955810550000e+000) (0, -1.38044333457946780000e+000) (1, 7.87477612495422360000e-001) (2, 5.14481365680694580000e-001) (3, -5.59196949005126950000e-001) (4, 1.28606700897216800000e+000) (5, 2.67173498868942260000e-001) (6, -1.73238113522529600000e-001) (7, -7.21978992223739620000e-002) (8, -5.26399850845336910000e-001) (9, -1.48393452167510990000e-001) (10, 3.92455369234085080000e-001) (11, 1.35101246833801270000e+000) (12, -4.80452656745910640000e-001) (13, -1.32103964686393740000e-001) (14, -1.50912320613861080000e+000) (15, -4.89735990762710570000e-001) (16, 3.22242259979248050000e-001) (17, -7.31456696987152100000e-001) (18, 7.27460324764251710000e-001) (19, 1.25195395946502690000e+000) (20, 1.36345219612121580000e+000) (21, 2.08528876304626460000e-001) (22, -4.00621086359024050000e-001) (23, -2.61719617992639540000e-002) (24, 3.95492315292358400000e-001) (25, 9.39685165882110600000e-001) (26, 7.11925446987152100000e-001) (27, -1.25246787071228030000e+000) (28, 4.09244596958160400000e-001) (29, 5.68816244602203370000e-001) (30, 8.92104804515838620000e-001) (31, -5.85691213607788090000e-001) (32, 3.56583505868911740000e-001) (33, 3.07716965675354000000e-001) (34, 1.28623533248901370000e+000) (35, -4.17936474084854130000e-001) (36, 3.83688241243362430000e-001) (37, 2.70493090152740480000e-001) (38, -6.38915359973907470000e-001) (39, -1.81865990161895750000e-001) (40, 9.52451586723327640000e-001) (41, 2.54733487963676450000e-004) (42, -1.42300391197204590000e+000) (43, 1.13393414020538330000e+000) (44, 1.14931321144104000000e+000) (45, -6.15867078304290770000e-001) (46, 5.75238406658172610000e-001) (47, 1.24441170692443850000e+000) (48, -6.77038192749023440000e-001) (49, -5.24076998233795170000e-001) (50, 6.62093639373779300000e-001) (51, -2.18258276581764220000e-002) (52, 7.24868714809417720000e-001) (53, 3.59994053840637210000e-001) (54, 9.88340675830841060000e-001) (55, 9.93820488452911380000e-001) (56, 1.23451864719390870000e+000) (57, -3.74291956424713130000e-001) (58, 1.19151210784912110000e+000) (59, 3.93648207187652590000e-001) (60, 5.34467816352844240000e-001) (61, 1.11870980262756350000e+000) (62, -2.95824706554412840000e-001) (63, 7.98046827316284180000e-001) (64, -1.61772146821022030000e-001) (65, 7.40326702594757080000e-001) (66, 1.24519854784011840000e-001) (67, -1.02320623397827150000e+000) (68, 7.38791525363922120000e-001) (69, 3.51319015026092530000e-001) (70, 3.29735130071640010000e-001) (71, -6.60913884639739990000e-002) (72, 6.25020027160644530000e-001) (73, -3.57838720083236690000e-003) (74, -3.90377998352050780000e-001) (75, 1.30080342292785640000e+000) (76, -1.75944536924362180000e-001) (77, -3.82078975439071660000e-001) (78, -1.82052397727966310000e+000) (79, -4.00401502847671510000e-001) (80, 2.78037786483764650000e+000) (81, 1.08787345886230470000e+000) (82, -1.03920940309762950000e-002) (83, 4.59571689367294310000e-001) (84, 2.10931110382080080000e+000) (85, 2.52659487724304200000e+000) (86, -2.32457613945007320000e+000) (87, -2.36866846680641170000e-001) (88, 5.95931768417358400000e-001) (89, 2.45603501796722410000e-001) (90, -3.09836268424987790000e+000) (91, -1.03787553310394290000e+000) (92, 2.72290515899658200000e+000) (93, -8.84913027286529540000e-001) (0, -4.31463956832885740000e-001) (1, 9.17928069829940800000e-002) (2, 6.12503886222839360000e-001) (3, -1.37476190924644470000e-001) (4, 1.10464239120483400000e+000) (5, 1.38488984107971190000e+000) (6, 2.82835811376571660000e-001) (7, -1.97274851799011230000e+000) (8, -5.16930073499679570000e-002) (9, -5.28365254402160640000e-001) (10, -2.38180890679359440000e-001) (11, 5.04319310188293460000e-001) (12, -6.33154273033142090000e-001) (13, -3.43187838792800900000e-001) (14, 1.16931045055389400000e+000) (15, 3.11370998620986940000e-001) (16, 1.43747955560684200000e-001) (17, 6.19880020618438720000e-001) (18, -3.58092308044433590000e-001) (19, 1.52083545923233030000e-001) (20, -2.65874639153480530000e-002) (21, 7.14320719242095950000e-001) (22, 2.20840558409690860000e-001) (23, 5.53700685501098630000e-001) (24, -3.06297868490219120000e-001) (25, -5.74126005172729490000e-001) (26, -2.70582556724548340000e-001) (27, 5.51341533660888670000e-001) (28, -7.91512310504913330000e-001) (29, 6.18981957435607910000e-001) (30, 3.93168061971664430000e-001) (31, 5.87193191051483150000e-001) (32, -5.17368316650390630000e-001) (33, 3.52010846138000490000e-001) (34, 4.34274435043334960000e-001) (35, -6.25694990158081050000e-001) (36, 7.28191673755645750000e-001) (37, 5.45982360839843750000e-001) (38, 5.96714019775390630000e-001) (39, 1.01108872890472410000e+000) (40, 6.73035606741905210000e-002) (41, -2.08413347601890560000e-001) (42, -8.44850778579711910000e-001) (43, -2.44986042380332950000e-001) (44, 1.19466745853424070000e+000) (45, -4.40703392028808590000e-001) (46, 8.50144445896148680000e-001) (47, 9.83964145183563230000e-001) (48, 4.71792906522750850000e-001) (49, 2.18593910336494450000e-001) (50, 1.03532814979553220000e+000) (51, -9.83202934265136720000e-001) (52, -2.14289546012878420000e-001) (53, 1.28596752882003780000e-001) (54, -6.62232264876365660000e-002) (55, -5.64052164554595950000e-001) (56, -6.95201531052589420000e-002) (57, 1.38830006122589110000e-001) (58, 1.46130645275115970000e+000) (59, -2.87683993577957150000e-001) (60, -6.06822669506073000000e-001) (61, -4.71738398075103760000e-001) (62, 4.10696297883987430000e-001) (63, 9.62723314762115480000e-001) (64, 1.07371234893798830000e+000) (65, 6.93527221679687500000e-001) (66, 1.16131615638732910000e+000) (67, -4.32375771924853320000e-003) (68, 6.14493310451507570000e-001) (69, 6.53666377067565920000e-001) (70, -7.24324882030487060000e-001) (71, -7.56684005260467530000e-001) (72, 3.01236772537231450000e+000) (73, 3.10154914855957030000e-001) (74, 3.63435328006744380000e-001) (75, 1.62872397899627690000e+000) (76, 5.75924575328826900000e-001) (77, 7.83538401126861570000e-001) (78, 2.67658770084381100000e-001) (79, -4.51018065214157100000e-001) (80, 3.63923335075378420000e+000) (81, 9.01946723461151120000e-001) (82, -2.08700346946716310000e+000) (83, 2.38249674439430240000e-001) (84, 2.06758785247802730000e+000) (85, 3.62198734283447270000e+000) (86, 1.20734953880310060000e+000) (87, 5.14707565307617190000e-001) (88, 9.12144124507904050000e-001) (89, -3.77766042947769170000e-001) (90, 4.37824934720993040000e-001) (91, -2.16182327270507810000e+000) (92, 8.10416936874389650000e-001) (93, -7.24155366420745850000e-001) (94, -8.03607821464538570000e-001) (0, 1.90521463751792910000e-001) (1, -7.64079511165618900000e-001) (2, 1.67094206809997560000e+000) (3, 3.05504053831100460000e-001) (4, 6.69512093067169190000e-001) (5, -1.82172849774360660000e-001) (6, 3.68616014719009400000e-001) (7, 8.07450771331787110000e-001) (8, -2.62390613555908200000e+000) (9, -1.35882866382598880000e+000) (10, 9.15936529636383060000e-001) (11, -7.30099141597747800000e-001) (12, -4.43335741758346560000e-001) (13, -7.82545983791351320000e-001) (14, -1.24457888305187230000e-001) (15, 8.81644487380981450000e-001) (16, 6.61194324493408200000e-001) (17, 3.07621117681264880000e-002) (18, 5.44597983360290530000e-001) (19, 9.56158190965652470000e-002) (20, 3.45838993787765500000e-001) (21, -5.60266375541687010000e-001) (22, -3.65391910076141360000e-001) (23, 5.48878073692321780000e-001) (24, 8.85783731937408450000e-001) (25, 7.48988628387451170000e-001) (26, 4.57661241292953490000e-001) (27, 2.04783797264099120000e-001) (28, -9.51392948627471920000e-002) (29, 3.91501486301422120000e-001) (30, 1.57257705926895140000e-001) (31, 7.32903897762298580000e-001) (32, -2.51058012247085570000e-001) (33, -9.17804360389709470000e-001) (34, 7.37153887748718260000e-001) (35, -1.37152826786041260000e+000) (36, -4.53120499849319460000e-001) (37, 1.41041591763496400000e-001) (38, 5.48666357994079590000e-001) (39, -2.07822307944297790000e-001) (40, -1.46091669797897340000e-001) (41, 5.80744743347167970000e-001) (42, -5.27783393859863280000e-001) (43, 2.97095477581024170000e-001) (44, 1.10688650608062740000e+000) (45, 4.93812203407287600000e-001) (46, -6.86815381050109860000e-001) (47, 1.59840667247772220000e+000) (48, -3.26192259788513180000e-001) (49, 1.42826110124588010000e-001) (50, 2.70129684358835220000e-002) (51, -5.63526690006256100000e-001) (52, 1.88230454921722410000e+000) (53, -1.14807283878326420000e+000) (54, -6.73202157020568850000e-001) (55, 3.44255298376083370000e-001) (56, -3.63275885581970210000e-001) (57, -6.82968020439147950000e-001) (58, 8.10750603675842290000e-001) (59, 7.05058038234710690000e-001) (60, -6.14693820476531980000e-001) (61, 1.06038761138916020000e+000) (62, 2.97402441501617430000e-001) (63, -9.75975930690765380000e-001) (64, 8.01869392395019530000e-001) (65, -6.55574321746826170000e-001) (66, -2.34747201204299930000e-001) (67, 3.99178951978683470000e-001) (68, -3.74962061643600460000e-001) (69, -3.13923135399818420000e-002) (70, -4.25233691930770870000e-001) (71, 1.25147140026092530000e+000) (72, 6.60251677036285400000e-001) (73, -1.70499682426452640000e-001) (74, 1.14995002746582030000e-001) (75, 6.58234000205993650000e-001) (76, 7.84472405910491940000e-001) (77, -8.70360851287841800000e-001) (78, -7.97647595405578610000e-001) (79, 8.47628951072692870000e-001) (80, 3.15360927581787110000e+000) (81, 8.89726579189300540000e-001) (82, -6.65792167186737060000e-001) (83, 1.73079884052276610000e+000) (84, 1.75308644771575930000e+000) (85, 2.14214563369750980000e+000) (86, 4.14537638425827030000e-002) (87, 1.98353672027587890000e+000) (88, 1.11539924144744870000e+000) (89, -3.76380622386932370000e-001) (90, 1.59952855110168460000e+000) (91, -5.22053658962249760000e-001) (92, 2.52461981773376460000e+000) (93, -2.19030570983886720000e+000) (94, -8.95905971527099610000e-001) (95, -8.56263160705566410000e-001) (0, -1.95377990603446960000e-001) (1, 1.61069118976593020000e+000) (2, -1.79241254925727840000e-001) (3, -2.17066645622253420000e+000) (4, -1.22844099998474120000e-001) (5, 3.17071408033370970000e-001) (6, -1.97159922122955320000e+000) (7, 5.14019906520843510000e-001) (8, 1.77038264274597170000e+000) (9, 6.70207977294921880000e-001) (10, -1.59077763557434080000e+000) (11, 1.17663359642028810000e+000) (12, -4.43045169115066530000e-001) (13, 1.94869410991668700000e+000) (14, -1.27003109455108640000e+000) (15, 6.03370308876037600000e-001) (16, 1.72342109680175780000e+000) (17, -2.21446514129638670000e+000) (18, 6.42349362373352050000e-001) (19, 6.40896558761596680000e-002) (20, 6.26993060111999510000e-001) (21, 1.53968125581741330000e-001) (22, 4.07594025135040280000e-001) (23, 1.35217857360839840000e+000) (24, -1.17306566238403320000e+000) (25, 2.34143328666687010000e+000) (26, 3.42678815126419070000e-001) (27, -1.42378330230712890000e+000) (28, 5.25267720222473140000e-001) (29, -5.11929631233215330000e-001) (30, 5.03270477056503300000e-002) (31, -1.44039709120988850000e-002) (32, -2.77197156101465230000e-002) (33, -1.62962651252746580000e+000) (34, -3.62352937459945680000e-001) (35, -1.00667035579681400000e+000) (36, -8.14544618129730220000e-001) (37, 2.28477180004119870000e-001) (38, 3.15124511718750000000e+000) (39, 1.78342747688293460000e+000) (40, -9.32823181152343750000e-001) (41, -1.18338656425476070000e+000) (42, 5.49371361732482910000e-001) (43, -5.90509951114654540000e-001) (44, 8.70026171207427980000e-001) (45, 1.73198270797729490000e+000) (46, -2.54503279924392700000e-001) (47, -8.97949635982513430000e-001) (48, 1.11936175823211670000e+000) (49, -1.01970294490456580000e-002) (50, -7.45847761631011960000e-001) (51, 9.07614707946777340000e-001) (52, -1.46542418003082280000e+000) (53, -6.97140455245971680000e-001) (54, 1.14436256885528560000e+000) (55, 9.40915286540985110000e-001) (56, 5.34634768962860110000e-001) (57, 7.54270851612091060000e-001) (58, 4.27877634763717650000e-001) (59, 6.43981695175170900000e-002) (60, 1.17533099651336670000e+000) (61, 2.30453062057495120000e+000) (62, -7.65933990478515630000e-001) (63, 2.06761670112609860000e+000) (64, -1.97983652353286740000e-001) (65, 4.39897894859313960000e-001) (66, 6.33683145046234130000e-001) (67, 5.67299723625183110000e-001) (68, 5.00439822673797610000e-001) (69, 7.92507171630859380000e-001) (70, 7.91656732559204100000e-001) (71, -6.71686306595802310000e-002) (72, 3.76708793640136720000e+000) (73, 1.27938330173492430000e+000) (74, -1.17206859588623050000e+000) (75, 3.58172953128814700000e-001) (76, 5.55712580680847170000e-001) (77, 3.14285665750503540000e-001) (78, -2.64518499374389650000e+000) (79, -2.82762527465820310000e+000) (80, -1.28002965450286870000e+000) (81, 2.24284648895263670000e-001) (82, 3.31148535013198850000e-001) (83, 1.25239729881286620000e+000) (84, 2.12957525253295900000e+000) (85, 9.58311557769775390000e-001) (86, -3.93204116821289060000e+000) (87, -1.08803141117095950000e+000) (88, -1.74911707639694210000e-001) (89, 1.38863015174865720000e+000) (90, 4.38572317361831670000e-001) (91, 4.61832731962203980000e-001) (92, 9.01497542858123780000e-001) (93, 1.53485387563705440000e-001) (94, -1.28686678409576420000e+000) (95, -1.01367145776748660000e-001) (96, 1.07317566871643070000e+000) (0, -3.87587696313858030000e-001) (1, 1.34551751613616940000e+000) (2, -2.59549319744110110000e-001) (3, 4.94577974081039430000e-001) (4, 6.23585045337677000000e-001) (5, 1.57757744193077090000e-001) (6, 1.12089097499847410000e+000) (7, -2.74477094411849980000e-001) (8, 3.81278932094573970000e-001) (9, -5.38583025336265560000e-002) (10, 6.46989107131958010000e-001) (11, 7.57675886154174800000e-001) (12, 1.12328350543975830000e+000) (13, 1.05006062984466550000e+000) (14, -7.38473609089851380000e-002) (15, -1.24583750963211060000e-001) (16, -2.48412534594535830000e-001) (17, 6.38340294361114500000e-001) (18, -5.13795465230941770000e-002) (19, -1.18770316243171690000e-001) (20, -5.80764591693878170000e-001) (21, 1.19258868694305420000e+000) (22, -5.64236760139465330000e-001) (23, 3.33221703767776490000e-001) (24, -4.86753582954406740000e-001) (25, -2.06620186567306520000e-001) (26, -2.50036835670471190000e-001) (27, -3.64433109760284420000e-001) (28, 2.15071722865104680000e-001) (29, 4.48575198650360110000e-001) (30, 1.80328464508056640000e+000) (31, 4.24618989229202270000e-001) (32, -6.14929161965847020000e-002) (33, 9.98527050018310550000e-001) (34, 6.83198571205139160000e-001) (35, 1.37963578104972840000e-001) (36, -1.09249033033847810000e-001) (37, 7.51679360866546630000e-001) (38, 7.79907405376434330000e-001) (39, 5.69262564182281490000e-001) (40, 2.46256157755851750000e-001) (41, -3.48485261201858520000e-001) (42, -8.99755299091339110000e-001) (43, 1.47341263294219970000e+000) (44, 1.64544391632080080000e+000) (45, -2.16782760620117190000e+000) (46, 9.77516472339630130000e-001) (47, 1.64745002985000610000e-001) (48, 2.92122244834899900000e-001) (49, 5.03499031066894530000e-001) (50, -3.78640353679656980000e-001) (51, 3.36848199367523190000e-001) (52, -1.75286364555358890000e+000) (53, 8.21813166141510010000e-001) (54, 9.53865230083465580000e-001) (55, 2.82197058200836180000e-001) (56, -6.25204563140869140000e-001) (57, -1.09386289119720460000e+000) (58, 1.03690481185913090000e+000) (59, 1.04805171489715580000e+000) (60, -8.15557599067687990000e-001) (61, 9.20150101184844970000e-001) (62, 6.49406552314758300000e-001) (63, 6.30475059151649480000e-002) (64, 4.75308388471603390000e-001) (65, -7.33643412590026860000e-001) (66, 3.76877397298812870000e-001) (67, 2.50350326299667360000e-001) (68, 4.44314926862716670000e-001) (69, 7.23245322704315190000e-001) (70, 1.15180122852325440000e+000) (71, 7.02895224094390870000e-001) (72, 2.93955302238464360000e+000) (73, -2.28384941816329960000e-001) (74, -7.31188505887985230000e-002) (75, 1.89029490947723390000e+000) (76, 2.73345798254013060000e-001) (77, 6.80976212024688720000e-001) (78, -2.79857188463211060000e-001) (79, -8.00263404846191410000e-001) (80, 2.93189930915832520000e+000) (81, -7.94773340225219730000e-001) (82, -1.73472851514816280000e-001) (83, -5.36276757717132570000e-001) (84, 3.11102652549743650000e+000) (85, 2.97784304618835450000e+000) (86, -3.14278483390808110000e+000) (87, -2.00985625386238100000e-001) (88, 8.19938302040100100000e-001) (89, -1.03970658779144290000e+000) (90, -8.35598856210708620000e-002) (91, -2.88039565086364750000e+000) (92, 1.45385456085205080000e+000) (93, -1.15659356117248540000e+000) (94, -1.37951147556304930000e+000) (95, -1.00114405155181880000e+000) (96, 2.28988099098205570000e+000) (97, -9.95643317699432370000e-001) (0, 6.48767828941345210000e-001) (1, -1.18202865123748780000e+000) (2, 1.24159038066864010000e+000) (3, 2.94633001089096070000e-001) (4, -5.39460361003875730000e-001) (5, -4.07772250473499300000e-002) (6, 4.75812584161758420000e-001) (7, -5.27122557163238530000e-001) (8, -7.15035080909729000000e-001) (9, -5.85740625858306880000e-001) (10, -2.73947834968566890000e-001) (11, 5.33026635646820070000e-001) (12, 7.67870545387268070000e-001) (13, -1.04702949523925780000e-001) (14, 5.20951449871063230000e-001) (15, 1.18292890489101410000e-001) (16, -7.64473795890808110000e-001) (17, 1.24530005455017090000e+000) (18, 1.52532041072845460000e-001) (19, -4.17635977268218990000e-001) (20, -5.17410755157470700000e-001) (21, 6.48690819740295410000e-001) (22, -7.50050246715545650000e-001) (23, -9.16427314281463620000e-001) (24, -4.65158998966217040000e-001) (25, -2.78813540935516360000e-001) (26, 4.93339538574218750000e-001) (27, 1.49326652288436890000e-001) (28, -9.44914579391479490000e-001) (29, 1.51225042343139650000e+000) (30, 4.37868982553482060000e-001) (31, -2.74801671504974370000e-001) (32, 2.31234461069107060000e-001) (33, 1.04342544078826900000e+000) (34, 5.85849761962890630000e-001) (35, -9.80246901512146000000e-001) (36, 9.02693092823028560000e-001) (37, -2.90257722139358520000e-001) (38, -2.79690802097320560000e-001) (39, 7.83101558685302730000e-001) (40, 5.15462696552276610000e-001) (41, 4.34390127658843990000e-001) (42, 9.90369260311126710000e-001) (43, -8.09591472148895260000e-001) (44, 1.21499133110046390000e+000) (45, -1.45331454277038570000e+000) (46, -7.22544714808464050000e-002) (47, 1.92651879042387010000e-002) (48, 1.47388958930969240000e+000) (49, -7.88563117384910580000e-002) (50, 9.12030227482318880000e-003) (51, -5.45399904251098630000e-001) (52, 5.09027600288391110000e-001) (53, -1.42927616834640500000e-001) (54, -4.94082123041152950000e-001) (55, -8.54015275835990910000e-002) (56, -1.93135887384414670000e-001) (57, -7.93938517570495610000e-001) (58, -2.47666656970977780000e-001) (59, 2.68863320350646970000e-001) (60, 1.97169974446296690000e-001) (61, 7.69656598567962650000e-002) (62, 9.23745572566986080000e-001) (63, -3.74874919652938840000e-001) (64, 1.14439940452575680000e+000) (65, 9.82601702213287350000e-001) (66, 5.19173502922058110000e-001) (67, -2.61607281863689420000e-002) (68, -9.63936001062393190000e-002) (69, -3.59501808881759640000e-001) (70, 9.65048015117645260000e-001) (71, 1.13620591163635250000e+000) (72, 3.50368833541870120000e+000) (73, 9.24045979976654050000e-001) (74, 1.19273078441619870000e+000) (75, -2.96744436025619510000e-001) (76, 1.84417709708213810000e-001) (77, 4.39744740724563600000e-001) (78, 6.45336806774139400000e-002) (79, 1.93957316875457760000e+000) (80, 3.43651366233825680000e+000) (81, 2.66001731157302860000e-001) (82, 3.82148064672946930000e-002) (83, -1.09136927127838130000e+000) (84, 2.21860480308532710000e+000) (85, 3.35644602775573730000e+000) (86, 3.60970139503479000000e-001) (87, 7.72935807704925540000e-001) (88, -5.10894283652305600000e-002) (89, -8.79933238029479980000e-001) (90, 5.18777072429656980000e-001) (91, -1.66578435897827150000e+000) (92, 1.33525013923645020000e+000) (93, -2.08595013618469240000e+000) (94, -1.10823762416839600000e+000) (95, -2.60529851913452150000e+000) (96, 6.03343188762664790000e-001) (97, 4.99783664941787720000e-001) (98, -2.04443693161010740000e+000) (0, 3.22170078754425050000e-001) (1, -1.47273516654968260000e+000) (2, 5.85665225982666020000e-001) (3, -8.04079398512840270000e-002) (4, 2.57403820753097530000e-001) (5, 8.65880191326141360000e-001) (6, -8.45332682132720950000e-001) (7, -1.17022252082824710000e+000) (8, -3.87761712074279790000e-001) (9, -7.45903551578521730000e-001) (10, -3.77269268035888670000e-001) (11, -3.64712566137313840000e-001) (12, -5.80452144145965580000e-001) (13, -8.56211721897125240000e-001) (14, 3.95478248596191410000e-001) (15, -2.65639781951904300000e-001) (16, 5.87230250239372250000e-002) (17, -9.03626620769500730000e-001) (18, 5.48701524734497070000e-001) (19, 1.16190564632415770000e+000) (20, 1.96940350532531740000e+000) (21, 8.69099020957946780000e-001) (22, -7.26887762546539310000e-001) (23, 1.03488111495971680000e+000) (24, -1.83329612016677860000e-001) (25, -9.94014024734497070000e-001) (26, 6.99874699115753170000e-001) (27, 4.66453224420547490000e-001) (28, -1.82792592048645020000e+000) (29, 1.53192865848541260000e+000) (30, 2.09790587425231930000e-001) (31, 6.37274384498596190000e-001) (32, -1.78446257114410400000e+000) (33, 5.19308209419250490000e-001) (34, -2.95044660568237300000e-001) (35, 1.24673140048980710000e+000) (36, 1.12934422492980960000e+000) (37, 9.44471836090087890000e-001) (38, -2.81244993209838870000e-001) (39, -9.42450225353240970000e-001) (40, 6.96508109569549560000e-001) (41, 1.35096681118011470000e+000) (42, -3.79145741462707520000e-001) (43, -7.71573066711425780000e-001) (44, -7.01188802719116210000e-001) (45, -1.22177278995513920000e+000) (46, -7.91444301605224610000e-001) (47, -5.76917946338653560000e-001) (48, 6.68567359447479250000e-001) (49, -7.05717921257019040000e-001) (50, 1.16019976139068600000e+000) (51, -1.14426338672637940000e+000) (52, 1.75946319103240970000e+000) (53, -1.88174057006835940000e+000) (54, -1.16237914562225340000e+000) (55, -2.15890675783157350000e-001) (56, 3.38487327098846440000e-001) (57, -5.54101884365081790000e-001) (58, 4.80677396059036250000e-001) (59, -1.62678901106119160000e-002) (60, -4.11466330289840700000e-001) (61, 6.99213206768035890000e-001) (62, 1.46119251847267150000e-001) (63, 6.76457762718200680000e-001) (64, 1.09145152568817140000e+000) (65, 8.83443117141723630000e-001) (66, 9.17003512382507320000e-001) (67, -4.45814915001392360000e-002) (68, 3.82543653249740600000e-002) (69, 9.84709382057189940000e-001) (70, 1.02634942531585690000e+000) (71, -6.83374404907226560000e-001) (72, 1.05614399909973140000e+000) (73, 1.43046152591705320000e+000) (74, 5.85083782672882080000e-001) (75, -7.57729113101959230000e-001) (76, 1.12723207473754880000e+000) (77, 6.10109686851501460000e-001) (78, 1.76750278472900390000e+000) (79, 1.13136780261993410000e+000) (80, 1.49886345863342290000e+000) (81, 5.38925051689147950000e-001) (82, -9.14787232875823970000e-001) (83, -1.79264158010482790000e-001) (84, 1.80542469024658200000e+000) (85, 2.73551297187805180000e+000) (86, -8.73860061168670650000e-001) (87, 8.95668804645538330000e-001) (88, 5.27667403221130370000e-001) (89, 5.64409941434860230000e-002) (90, 6.70617818832397460000e-001) (91, -6.18790268898010250000e-001) (92, 6.19827270507812500000e-001) (93, 9.76497650146484380000e-001) (94, -5.36863356828689580000e-002) (95, -3.01476597785949710000e+000) (96, -1.41089189052581790000e+000) (97, -6.84214429929852490000e-003) (98, 7.23329305648803710000e-001) (99, -3.86832237243652340000e-001) (0, -3.15205991268157960000e-001) (1, 2.88491006940603260000e-002) (2, 1.07820212841033940000e+000) (3, -1.02953813970088960000e-001) (4, 8.11580419540405270000e-001) (5, -1.61856770515441890000e-001) (6, 5.80697000026702880000e-001) (7, 1.17717778682708740000e+000) (8, 1.67289674282073970000e+000) (9, 4.68337573111057280000e-002) (10, -5.09416103363037110000e-001) (11, -5.86396992206573490000e-001) (12, 5.00564932823181150000e-001) (13, -8.18082019686698910000e-002) (14, -3.75606775283813480000e-001) (15, 1.13675761222839360000e+000) (16, -7.04523682594299320000e-001) (17, 9.16629731655120850000e-002) (18, -1.23570889234542850000e-001) (19, 1.18496835231781010000e+000) (20, -1.56857013702392580000e+000) (21, -1.15319877862930300000e-001) (22, -9.90454912185668950000e-001) (23, -3.32918316125869750000e-001) (24, 3.61456781625747680000e-001) (25, -6.00458025932312010000e-001) (26, 2.02105298638343810000e-001) (27, -6.74206414259970190000e-004) (28, -5.75874336063861850000e-002) (29, -4.43306654691696170000e-001) (30, 9.32967841625213620000e-001) (31, -4.96095642447471620000e-002) (32, 7.45275080204010010000e-001) (33, -7.88860559463500980000e-001) (34, -2.84530788660049440000e-001) (35, -1.20977111160755160000e-001) (36, 7.66327381134033200000e-001) (37, 7.90063798427581790000e-001) (38, -3.54750037193298340000e-001) (39, 5.49078524112701420000e-001) (40, 5.03150582313537600000e-001) (41, 1.07268238067626950000e+000) (42, 4.56806033849716190000e-001) (43, 1.06010997295379640000e+000) (44, -1.85900315642356870000e-001) (45, -1.92699372768402100000e-001) (46, -2.68656164407730100000e-001) (47, 4.71119880676269530000e-001) (48, 8.52605640888214110000e-001) (49, 1.14493727684021000000e+000) (50, -4.28153127431869510000e-001) (51, 1.56806027889251710000e+000) (52, 5.02218604087829590000e-001) (53, -5.29114186763763430000e-001) (54, -6.00303471088409420000e-001) (55, 9.12620782852172850000e-001) (56, 1.53267741203308110000e+000) (57, 7.94983923435211180000e-001) (58, -4.56115037202835080000e-001) (59, 1.29400575160980220000e+000) (60, -5.76623916625976560000e-001) (61, -9.99037548899650570000e-002) (62, -7.76693463325500490000e-001) (63, -1.98879227042198180000e-001) (64, 7.43950307369232180000e-001) (65, 8.24267327785491940000e-001) (66, -9.46216166019439700000e-001) (67, -1.67336642742156980000e-001) (68, -7.95797035098075870000e-002) (69, 7.27843403816223140000e-001) (70, 2.60084927082061770000e-001) (71, 2.78990656137466430000e-001) (72, 3.61402988433837890000e+000) (73, -6.81020081043243410000e-001) (74, -3.54378134012222290000e-001) (75, 2.50801181793212890000e+000) (76, 2.86188215017318730000e-001) (77, 1.83107852935791020000e+000) (78, 2.83980548381805420000e-001) (79, -6.96602225303649900000e-001) (80, 2.94693446159362790000e+000) (81, -3.03901642560958860000e-001) (82, -2.61146306991577150000e-001) (83, 1.61428144201636310000e-003) (84, 4.13276624679565430000e+000) (85, 2.07601404190063480000e+000) (86, 6.97162091732025150000e-001) (87, -4.12417501211166380000e-001) (88, -1.65326201915740970000e+000) (89, 6.02480411529541020000e-001) (90, 1.14000606536865230000e+000) (91, -1.61931109428405760000e+000) (92, 1.87945294380187990000e+000) (93, -1.27164554595947270000e+000) (94, -1.63863062858581540000e+000) (95, -8.02596509456634520000e-002) (96, 1.69973230361938480000e+000) (97, -5.20129613578319550000e-002) (98, -1.52827119827270510000e+000) (99, 5.75570106506347660000e-001) (100, 1.61472558975219730000e+000) (0, -5.65762042999267580000e-001) (1, 8.68790447711944580000e-001) (2, 3.18008176982402800000e-002) (3, 8.02027106285095210000e-001) (4, 4.02562141418457030000e-001) (5, -9.88895714282989500000e-001) (6, 1.89730083942413330000e+000) (7, 6.64916753768920900000e-001) (8, 6.48980081081390380000e-001) (9, 1.04305779933929440000e+000) (10, 6.97900652885437010000e-001) (11, 1.70161888003349300000e-001) (12, -3.80458380095660690000e-003) (13, -4.84052836894989010000e-001) (14, -2.75490432977676390000e-001) (15, 1.11567461490631100000e+000) (16, 2.85446196794509890000e-001) (17, 1.01350653171539310000e+000) (18, -5.46122789382934570000e-001) (19, -1.00997734069824220000e+000) (20, -1.23828756809234620000e+000) (21, 3.82953211665153500000e-002) (22, -3.03943604230880740000e-001) (23, -2.50307679176330570000e-001) (24, -1.61361157894134520000e+000) (25, 1.92093830555677410000e-002) (26, -2.30037614703178410000e-001) (27, -8.92360508441925050000e-001) (28, -2.85127520561218260000e-001) (29, -5.07006719708442690000e-002) (30, -5.10532140731811520000e-001) (31, 6.59485578536987300000e-001) (32, -6.71705901622772220000e-002) (33, -8.00111830234527590000e-001) (34, -7.88961648941040040000e-001) (35, -1.12917804718017580000e+000) (36, -3.19465875625610350000e-001) (37, 1.11926043033599850000e+000) (38, -4.90984767675399780000e-001) (39, 3.90686690807342530000e-001) (40, -5.58288931846618650000e-001) (41, 8.29856336116790770000e-001) (42, -5.44718801975250240000e-001) (43, 1.19134910404682160000e-001) (44, 1.55287668108940120000e-001) (45, -1.04482281208038330000e+000) (46, 1.44142329692840580000e+000) (47, 7.43785440921783450000e-001) (48, 1.26288518309593200000e-001) (49, -1.80069193243980410000e-001) (50, 2.12794810533523560000e-001) (51, 1.23691514134407040000e-001) (52, -3.45640331506729130000e-002) (53, 8.27990353107452390000e-001) (54, 1.88805389404296870000e+000) (55, -5.47985076904296880000e-001) (56, 7.25338280200958250000e-001) (57, -6.33976042270660400000e-001) (58, -8.05103302001953130000e-001) (59, 1.53156828880310060000e+000) (60, 3.93514603376388550000e-001) (61, -1.29700255393981930000e+000) (62, 8.26979637145996090000e-001) (63, 1.15744507312774660000e+000) (64, 8.86956214904785160000e-001) (65, -1.28649786114692690000e-001) (66, 3.58117729425430300000e-001) (67, 9.36177372932434080000e-001) (68, -6.06694042682647710000e-001) (69, 8.33121314644813540000e-002) (70, 1.02922938764095310000e-001) (71, 1.43545344471931460000e-001) (72, 1.72282266616821290000e+000) (73, 7.43417203426361080000e-001) (74, 